{"learner":{"attributes":{"scikit_learn":"{\"_estimator_type\": \"classifier\"}"},"feature_names":["ema_spread_pct","macd_histogram","squeeze_number_today","minutes_since_last_squeeze","window_volume_vs_1min_avg","distance_from_vwap_percent","day_gain","spy_percent_change_concurrent","spread_percent","market_session_encoded","price_category_encoded"],"feature_types":["float","float","float","float","float","float","float","float","float","float","float"],"gradient_booster":{"model":{"cats":{"enc":[],"feature_segments":[],"sorted_idx":[]},"gbtree_model_param":{"num_parallel_tree":"1","num_trees":"200"},"iteration_indptr":[0,1,2,3,4,5,6,7,8,9,10,11,12,13,14,15,16,17,18,19,20,21,22,23,24,25,26,27,28,29,30,31,32,33,34,35,36,37,38,39,40,41,42,43,44,45,46,47,48,49,50,51,52,53,54,55,56,57,58,59,60,61,62,63,64,65,66,67,68,69,70,71,72,73,74,75,76,77,78,79,80,81,82,83,84,85,86,87,88,89,90,91,92,93,94,95,96,97,98,99,100,101,102,103,104,105,106,107,108,109,110,111,112,113,114,115,116,117,118,119,120,121,122,123,124,125,126,127,128,129,130,131,132,133,134,135,136,137,138,139,140,141,142,143,144,145,146,147,148,149,150,151,152,153,154,155,156,157,158,159,160,161,162,163,164,165,166,167,168,169,170,171,172,173,174,175,176,177,178,179,180,181,182,183,184,185,186,187,188,189,190,191,192,193,194,195,196,197,198,199,200],"tree_info":[0,0,0,0,0,0,0,0,0,0,0,0,0,0,0,0,0,0,0,0,0,0,0,0,0,0,0,0,0,0,0,0,0,0,0,0,0,0,0,0,0,0,0,0,0,0,0,0,0,0,0,0,0,0,0,0,0,0,0,0,0,0,0,0,0,0,0,0,0,0,0,0,0,0,0,0,0,0,0,0,0,0,0,0,0,0,0,0,0,0,0,0,0,0,0,0,0,0,0,0,0,0,0,0,0,0,0,0,0,0,0,0,0,0,0,0,0,0,0,0,0,0,0,0,0,0,0,0,0,0,0,0,0,0,0,0,0,0,0,0,0,0,0,0,0,0,0,0,0,0,0,0,0,0,0,0,0,0,0,0,0,0,0,0,0,0,0,0,0,0,0,0,0,0,0,0,0,0,0,0,0,0,0,0,0,0,0,0,0,0,0,0,0,0,0,0,0,0,0,0],"trees":[{"base_weights":[1.2504597E-2,-8.438356E-1,3.261415E-1,-1.0526316E-1,-1.0309278E0,4.6822742E-1,-9.359606E-1,-1E0,3.4615386E-1,-1.3233082E0,-7.75E-1,6.562054E-2,7.2379214E-1,-1.451613E0,-1.2048193E-1,3.529412E-1,-1.4871795E0,-1.25E-1,1E0,6.666667E-1,-1.3953488E0,-1.1343284E0,-5.0526315E-1,-3.54067E-1,2.4193548E-1,6.4548165E-1,1.531915E0,-5.217391E-1,-9.512195E-2,-4.5614034E-1,5.3333336E-1,5.3846158E-2,-5E-2,2.5E-2,-8.857143E-2,-8.8E-1,3.255814E-1,1.3513514E0,-2.727273E-2,-0E0,5E-2,-1.5140187E0,-7.5E-1,-2.857143E-1,-1.3090909E0,-9.72973E-1,-2E-1,-1.0416666E0,2.2222222E-1,3.4725276E-1,-8.4444445E-1,7.1706265E-1,-1.6470589E-1,-0E0,1.6744186E0,3.7037036E-1,-7.3913045E-2,4.4444445E-1,-7.906977E-1,-2.0000001E-2,8.333333E-1,-7.647059E-2,1.6666668E-2,-3.0434782E-2,5.8333334E-2,8.0000006E-2,9.09091E-3,-8.054054E-2,-3.9393943E-2,2.5E-2,-4.5454547E-2,-5E-2,2.5E-2,-7.674419E-2,-2.1428572E-2,-6.666667E-2,-1.3333335E-2,4.2857144E-2,-1.6363636E-2,-5.777778E-2,2.0000001E-2,3.548387E-2,-1.5254237E-2,2.200957E-2,-3.1707317E-2,-5.6250002E-2,-5.882353E-3,-6.0000002E-2,3.726776E-2,3.0232558E-2,-4.347826E-2,-5E-2,5E-2,8.9999996E-2,-0E0,-5.555556E-2,4.5454547E-2,-2.727273E-2,6.363636E-2,-0E0,-6.2962964E-2,6.923077E-2,6.6666673E-3],"categories":[],"categories_nodes":[],"categories_segments":[],"categories_sizes":[],"default_left":[0,0,0,0,0,0,0,0,0,0,0,0,0,0,0,0,0,0,0,0,0,0,0,0,0,0,0,0,0,0,0,0,0,0,0,0,0,0,0,0,0,0,0,0,0,0,0,0,0,0,0,0,0,0,0,0,0,0,0,0,0,0,0,0,0,0,0,0,0,0,0,0,0,0,0,0,0,0,0,0,0,0,0,0,0,0,0,0,0,0,0,0,0,0,0,0,0,0,0,0,0,0,0],"id":0,"left_children":[1,3,5,7,9,11,13,15,17,19,21,23,25,27,29,31,33,35,37,39,41,43,45,47,49,51,53,55,-1,57,59,-1,-1,-1,-1,61,63,65,-1,-1,-1,67,69,71,73,75,77,79,81,83,85,87,89,91,93,95,-1,97,99,-1,101,-1,-1,-1,-1,-1,-1,-1,-1,-1,-1,-1,-1,-1,-1,-1,-1,-1,-1,-1,-1,-1,-1,-1,-1,-1,-1,-1,-1,-1,-1,-1,-1,-1,-1,-1,-1,-1,-1,-1,-1,-1,-1],"loss_changes":[1.8284238E2,2.5109543E1,8.9787895E1,1.5694332E1,9.861954E0,4.6099625E1,2.1165657E1,9.0935135E0,8.134615E0,1.0463608E1,7.180794E0,1.3053668E1,1.6366959E1,1.2002975E1,4.797041E0,5.239819E0,6.3930416E0,5.729535E0,6.7100735E0,6.666666E-1,3.8041153E0,4.594227E0,6.5871983E0,2.0935871E1,1.448064E1,1.47181015E1,5.130131E0,1.0360708E1,0E0,4.644907E0,2.4333332E0,0E0,0E0,0E0,0E0,5.4345093E0,9.157567E0,2.3990192E0,0E0,0E0,0E0,2.4911041E0,2.840909E0,4.428571E0,4.809601E0,4.353153E0,4.316883E0,4.4027786E0,7.734888E0,1.0654271E1,2.161601E0,1.3450668E1,1.2049415E1,4E0,4.520935E0,6.3973064E0,0E0,4.3838387E0,3.9827738E0,0E0,2.1307693E0,0E0,0E0,0E0,0E0,0E0,0E0,0E0,0E0,0E0,0E0,0E0,0E0,0E0,0E0,0E0,0E0,0E0,0E0,0E0,0E0,0E0,0E0,0E0,0E0,0E0,0E0,0E0,0E0,0E0,0E0,0E0,0E0,0E0,0E0,0E0,0E0,0E0,0E0,0E0,0E0,0E0,0E0],"parents":[2147483647,0,0,1,1,2,2,3,3,4,4,5,5,6,6,7,7,8,8,9,9,10,10,11,11,12,12,13,13,14,14,15,15,16,16,17,17,18,18,19,19,20,20,21,21,22,22,23,23,24,24,25,25,26,26,27,27,29,29,30,30,35,35,36,36,37,37,41,41,42,42,43,43,44,44,45,45,46,46,47,47,48,48,49,49,50,50,51,51,52,52,53,53,54,54,55,55,57,57,58,58,60,60],"right_children":[2,4,6,8,10,12,14,16,18,20,22,24,26,28,30,32,34,36,38,40,42,44,46,48,50,52,54,56,-1,58,60,-1,-1,-1,-1,62,64,66,-1,-1,-1,68,70,72,74,76,78,80,82,84,86,88,90,92,94,96,-1,98,100,-1,102,-1,-1,-1,-1,-1,-1,-1,-1,-1,-1,-1,-1,-1,-1,-1,-1,-1,-1,-1,-1,-1,-1,-1,-1,-1,-1,-1,-1,-1,-1,-1,-1,-1,-1,-1,-1,-1,-1,-1,-1,-1,-1],"split_conditions":[-6.0858727E-1,-1.2716475E-1,1.326452E0,7.902961E-2,-2.1083729E-1,-1.6856016E-1,7.902961E-2,-2.648752E0,-6.8382597E-1,-3.3818457E-1,1.16349675E-1,1.1976024E-2,1.3661972E0,-1.6859491E0,5.764592E-1,2.1174319E-1,-9.677892E-1,-1.1024301E0,-6.2438357E-1,1.4707805E-1,-6.6331434E-1,-2.6805532E-1,4.2173508E-1,-4.0642518E-1,6.572166E-1,7.1145546E-1,7.902961E-2,-1.5529403E-1,-9.512195E-2,-3.9351004E-1,-7.5075316E-1,5.3846158E-2,-5E-2,2.5E-2,-8.857143E-2,-6.96351E-1,2.4579035E-1,1.2008312E0,-2.727273E-2,-0E0,5E-2,7.607155E-1,-3.3224186E-1,-7.406119E-1,6.991377E-1,-6.730986E-1,5.2386373E-1,9.080183E-1,2.9787537E-1,9.57454E-1,8.70483E-2,-1.6859491E0,-4.0792838E-2,1.493468E0,-2.4211101E-1,1.791116E0,-7.3913045E-2,-9.377025E-2,-3.2365415E-1,-2.0000001E-2,-5.269649E-1,-7.647059E-2,1.6666668E-2,-3.0434782E-2,5.8333334E-2,8.0000006E-2,9.09091E-3,-8.054054E-2,-3.9393943E-2,2.5E-2,-4.5454547E-2,-5E-2,2.5E-2,-7.674419E-2,-2.1428572E-2,-6.666667E-2,-1.3333335E-2,4.2857144E-2,-1.6363636E-2,-5.777778E-2,2.0000001E-2,3.548387E-2,-1.5254237E-2,2.200957E-2,-3.1707317E-2,-5.6250002E-2,-5.882353E-3,-6.0000002E-2,3.726776E-2,3.0232558E-2,-4.347826E-2,-5E-2,5E-2,8.9999996E-2,-0E0,-5.555556E-2,4.5454547E-2,-2.727273E-2,6.363636E-2,-0E0,-6.2962964E-2,6.923077E-2,6.6666673E-3],"split_indices":[4,1,2,9,3,4,9,1,4,3,7,1,7,9,4,5,2,1,4,1,4,8,8,2,3,2,9,1,0,4,8,0,0,0,0,4,2,8,0,0,0,1,3,2,9,4,8,8,2,2,1,9,1,7,3,2,0,5,3,0,8,0,0,0,0,0,0,0,0,0,0,0,0,0,0,0,0,0,0,0,0,0,0,0,0,0,0,0,0,0,0,0,0,0,0,0,0,0,0,0,0,0,0],"split_type":[0,0,0,0,0,0,0,0,0,0,0,0,0,0,0,0,0,0,0,0,0,0,0,0,0,0,0,0,0,0,0,0,0,0,0,0,0,0,0,0,0,0,0,0,0,0,0,0,0,0,0,0,0,0,0,0,0,0,0,0,0,0,0,0,0,0,0,0,0,0,0,0,0,0,0,0,0,0,0,0,0,0,0,0,0,0,0,0,0,0,0,0,0,0,0,0,0,0,0,0,0,0,0],"sum_hessian":[6.7875E2,1.815E2,4.9725E2,3.7E1,1.445E2,4.475E2,4.975E1,1.2E1,2.5E1,6.55E1,7.9E1,1.7425E2,2.7325E2,3E1,1.975E1,3.25E0,8.75E0,1.5E1,1E1,2E0,6.35E1,3.25E1,4.65E1,5.125E1,1.23E2,2.5075E2,2.25E1,1.05E1,1.95E1,1.325E1,6.5E0,2.25E0,1E0,1E0,7.75E0,5.25E0,9.75E0,8.25E0,1.75E0,1E0,1E0,5.25E1,1.1E1,6E0,2.65E1,1.75E1,2.9E1,2.3E1,2.825E1,1.1275E2,1.025E1,2.305E2,2.025E1,2E0,2.05E1,5.75E0,4.75E0,3.5E0,9.75E0,1.5E0,5E0,3.25E0,2E0,4.75E0,5E0,6.5E0,1.75E0,4.525E1,7.25E0,1E0,1E1,3E0,3E0,2.05E1,6E0,1.1E1,6.5E0,2.5E0,2.65E1,2.15E1,1.5E0,1.45E1,1.375E1,1.035E2,9.25E0,7E0,3.25E0,2.75E0,2.2775E2,9.75E0,1.05E1,1E0,1E0,1.9E1,1.5E0,1.25E0,4.5E0,1.75E0,1.75E0,4E0,5.75E0,2.25E0,2.75E0],"tree_param":{"num_deleted":"0","num_feature":"11","num_nodes":"103","size_leaf_vector":"1"}},{"base_weights":[-1.98656E-2,-8.3506376E-1,2.6964167E-1,-1.7018989E-1,-9.862259E-1,4.2816833E-1,-9.722678E-1,-4.095552E-1,1.2179573E0,-1.2466065E0,-7.3528975E-1,7.466232E-2,6.4690286E-1,-1.4855843E0,-2.2388183E-1,-9.163965E-1,-4.0113088E-2,1.9820608E-2,7.203615E-2,3.2506946E-2,-1.312744E0,4.0306938E-1,-8.8041306E-1,1.2859375E0,-2.325281E-2,7.495336E-1,-1.3129044E-2,-6.443843E-1,-9.1455154E-2,-8.144166E-1,3.2787946E-1,3.884045E-1,-1.3246047E0,-7.344311E-1,6.4060014E-1,-1.3461977E0,1.2573396E-2,-1.20531775E-1,6.013921E-2,-1.3089807E-2,-1.0093656E0,1.4547259E0,5.924551E-4,-5.106538E-1,1.4830601E-1,6.6303396E-1,1.5957208E0,1.9535728E-1,-8.453648E-1,2.9657644E-1,-7.982278E-2,1.9651099E-1,-1.3444698E0,-2.4488658E-1,1.1174356E0,3.8920652E-2,-1.0880115E-2,8.813782E-3,-8.377111E-2,8.350904E-3,-4.7977824E-2,-9.606552E-3,6.26811E-2,-3.717009E-2,-7.2499454E-2,2.1409823E-2,-3.18525E-2,-5.2187152E-2,2.1762434E-2,-6.0306616E-2,-2.3308586E-2,3.977473E-2,8.5436486E-2,-4.815524E-2,-3.8064325E-3,3.813628E-2,6.609786E-4,3.690285E-2,-1.9636123E-2,-3.3306272E-4,8.813775E-2,3.468079E-2,-3.747514E-3,-5.448072E-2,1.1802725E-2,-6.189952E-2,5.612367E-2,6.855208E-2,-6.313627E-2,-2.7598832E-2,-8.021882E-2,1.915121E-2,-4.43878E-2,2.3003904E-2,7.0424415E-2],"categories":[],"categories_nodes":[],"categories_segments":[],"categories_sizes":[],"default_left":[0,0,0,0,0,0,0,0,0,0,0,0,0,0,0,0,0,0,0,0,0,0,0,0,0,0,0,0,0,0,0,0,0,0,0,0,0,0,0,0,0,0,0,0,0,0,0,0,0,0,0,0,0,0,0,0,0,0,0,0,0,0,0,0,0,0,0,0,0,0,0,0,0,0,0,0,0,0,0,0,0,0,0,0,0,0,0,0,0,0,0,0,0,0,0],"id":1,"left_children":[1,3,5,7,9,11,13,15,17,19,21,23,25,27,29,31,33,-1,-1,-1,35,37,39,41,43,45,47,49,-1,51,53,55,57,59,61,63,-1,65,-1,67,69,71,-1,73,75,77,79,81,83,85,-1,87,89,91,93,-1,-1,-1,-1,-1,-1,-1,-1,-1,-1,-1,-1,-1,-1,-1,-1,-1,-1,-1,-1,-1,-1,-1,-1,-1,-1,-1,-1,-1,-1,-1,-1,-1,-1,-1,-1,-1,-1,-1,-1],"loss_changes":[1.5925713E2,1.7605003E1,9.846242E1,1.1784808E1,8.48381E0,3.4154465E1,2.1441345E1,5.528029E0,3.8917208E-1,9.530457E0,1.2861118E1,2.021693E1,1.8511032E1,8.485123E0,8.164334E0,7.163665E0,9.088934E0,0E0,0E0,0E0,3.853424E0,4.0164175E0,7.53141E0,2.7241726E0,1.3325851E1,1.6244217E1,6.7128186E0,1.0543663E1,0E0,6.691284E0,6.262495E0,1.0552416E0,5.4214516E0,2.0868049E0,5.213906E0,3.046402E0,0E0,2.1140182E0,0E0,4.9569945E0,5.713085E0,5.2421E-1,0E0,8.081673E0,9.782257E0,1.7412132E1,5.6892242E0,4.2257032E0,2.303586E0,9.623508E0,0E0,1.0297692E1,7.614174E-1,3.7693186E0,4.5163393E-1,0E0,0E0,0E0,0E0,0E0,0E0,0E0,0E0,0E0,0E0,0E0,0E0,0E0,0E0,0E0,0E0,0E0,0E0,0E0,0E0,0E0,0E0,0E0,0E0,0E0,0E0,0E0,0E0,0E0,0E0,0E0,0E0,0E0,0E0,0E0,0E0,0E0,0E0,0E0,0E0],"parents":[2147483647,0,0,1,1,2,2,3,3,4,4,5,5,6,6,7,7,8,8,9,9,10,10,11,11,12,12,13,13,14,14,15,15,16,16,20,20,21,21,22,22,23,23,24,24,25,25,26,26,27,27,29,29,30,30,31,31,32,32,33,33,34,34,35,35,37,37,39,39,40,40,41,41,43,43,44,44,45,45,46,46,47,47,48,48,49,49,51,51,52,52,53,53,54,54],"right_children":[2,4,6,8,10,12,14,16,18,20,22,24,26,28,30,32,34,-1,-1,-1,36,38,40,42,44,46,48,50,-1,52,54,56,58,60,62,64,-1,66,-1,68,70,72,-1,74,76,78,80,82,84,86,-1,88,90,92,94,-1,-1,-1,-1,-1,-1,-1,-1,-1,-1,-1,-1,-1,-1,-1,-1,-1,-1,-1,-1,-1,-1,-1,-1,-1,-1,-1,-1,-1,-1,-1,-1,-1,-1,-1,-1,-1,-1,-1,-1],"split_conditions":[-6.128605E-1,-1.2716475E-1,1.2307858E0,6.991377E-1,-1.8565543E-1,-1.6856016E-1,7.902961E-2,7.902961E-2,-7.048975E-1,-3.3818457E-1,-5.1119375E-1,-1.1335695E0,-1.0344817E-1,-1.6859491E0,8.2402E-1,-2.648752E0,-2.876689E-1,1.9820608E-2,7.203615E-2,3.2506946E-2,1.1249824E0,1.0949835E-1,-1.1269886E-1,4.4128727E-2,1.1976024E-2,1.3661972E0,4.1953686E-1,-1.8308558E-1,-9.1455154E-2,-4.5988098E-1,-3.0842254E-1,-1.0404345E0,-9.522806E-1,-8.902425E-1,1.9212504E-1,-8.787424E-1,1.2573396E-2,-8.411041E-1,6.013921E-2,-7.2375876E-1,-6.799653E-1,-1.742394E-1,5.924551E-4,-4.6477178E-1,-8.88576E-1,7.1145546E-1,2.971087E-1,-6.688701E-1,9.3776995E-1,1.791116E0,-7.982278E-2,3.7574813E-1,1.326452E0,1.558784E0,1.5997838E0,3.8920652E-2,-1.0880115E-2,8.813782E-3,-8.377111E-2,8.350904E-3,-4.7977824E-2,-9.606552E-3,6.26811E-2,-3.717009E-2,-7.2499454E-2,2.1409823E-2,-3.18525E-2,-5.2187152E-2,2.1762434E-2,-6.0306616E-2,-2.3308586E-2,3.977473E-2,8.5436486E-2,-4.815524E-2,-3.8064325E-3,3.813628E-2,6.609786E-4,3.690285E-2,-1.9636123E-2,-3.3306272E-4,8.813775E-2,3.468079E-2,-3.747514E-3,-5.448072E-2,1.1802725E-2,-6.189952E-2,5.612367E-2,6.855208E-2,-6.313627E-2,-2.7598832E-2,-8.021882E-2,1.915121E-2,-4.43878E-2,2.3003904E-2,7.0424415E-2],"split_indices":[4,1,2,9,3,4,9,9,4,3,0,0,3,9,7,1,3,0,0,0,0,3,3,3,1,7,7,1,0,0,3,0,2,10,2,2,0,9,0,4,4,10,0,2,2,2,0,2,2,2,0,10,2,2,2,0,0,0,0,0,0,0,0,0,0,0,0,0,0,0,0,0,0,0,0,0,0,0,0,0,0,0,0,0,0,0,0,0,0,0,0,0,0,0,0],"split_type":[0,0,0,0,0,0,0,0,0,0,0,0,0,0,0,0,0,0,0,0,0,0,0,0,0,0,0,0,0,0,0,0,0,0,0,0,0,0,0,0,0,0,0,0,0,0,0,0,0,0,0,0,0,0,0,0,0,0,0,0,0,0,0,0,0,0,0,0,0,0,0,0,0,0,0,0,0,0,0,0,0,0,0,0,0,0,0,0,0,0,0,0,0,0,0],"sum_hessian":[6.728477E2,1.758376E2,4.970101E2,3.2965878E1,1.4287172E2,4.413306E2,5.5679523E1,2.8718723E1,4.2471538E0,6.816912E1,7.47026E1,1.6920793E2,2.7212265E2,3.2442337E1,2.3237185E1,1.1483672E1,1.723505E1,1.4988815E0,2.7482722E0,1.9993753E0,6.616975E1,8.245646E0,6.6456955E1,1.1747714E1,1.574602E2,2.3538605E2,3.673661E1,1.0240788E1,2.2201548E1,1.0994282E1,1.2242904E1,2.7481074E0,8.735565E0,8.493196E0,8.741855E0,6.492067E1,1.2490786E0,5.4963055E0,2.7493412E0,8.744399E0,5.7712555E1,1.0248269E1,1.499445E0,4.0479847E1,1.1698036E2,2.1517393E2,2.021212E1,2.9989178E1,6.7474327E0,5.496714E0,4.744075E0,3.9981656E0,6.9961157E0,7.4953847E0,4.7475185E0,1.4989382E0,1.2491692E0,1.7492759E0,6.986289E0,1.7487892E0,6.744406E0,3.9978058E0,4.7440495E0,1.0735256E1,5.418541E1,2.7479684E0,2.748337E0,2.2481844E0,6.496215E0,4.1470005E1,1.6242548E1,3.9996257E0,6.248644E0,1.923494E1,2.1244907E1,2.0246431E1,9.673393E1,2.011789E2,1.3995032E1,1.9986765E0,1.8213444E1,9.996529E0,1.999265E1,5.498061E0,1.2493714E0,1.7486503E0,3.7480636E0,2.2486665E0,1.7494992E0,2.49926E0,4.4968557E0,3.996284E0,3.4991007E0,2.248931E0,2.4985876E0],"tree_param":{"num_deleted":"0","num_feature":"11","num_nodes":"95","size_leaf_vector":"1"}},{"base_weights":[4.619975E-2,-7.5086534E-1,3.3579734E-1,-1.8311489E-1,-8.831246E-1,-2.559554E-1,4.8142028E-1,-5.582713E-1,2.8276825E-1,-1.1815888E0,-6.233709E-1,-1.4301066E0,-1.0433039E-1,3.6038876E-2,6.082093E-1,-1.042673E-1,-1.0245851E0,5.0792277E-1,-5.8947057E-2,-1.3026663E0,-4.250488E-1,-1.1175412E0,-3.8066E-1,-8.033782E-2,-6.4743316E-1,-7.2197646E-1,1.4883873E-1,-8.232048E-2,3.4696618E-1,2.8584346E-1,7.900858E-1,-9.0162027E-1,6.162555E-1,2.0262701E-2,-1.3336297E0,-5.0085455E-1,8.8869524E-1,-1.3895957E0,-4.448246E-1,2.131205E-1,-7.253959E-2,-1.5499648E0,-5.6669545E-1,6.690042E-2,-6.99442E-1,1.0515691E-2,-5.8079887E-2,-1.0874495E-1,-1.4864849E0,3.703045E-1,-5.358871E-1,6.6856074E-1,-4.5458877E-1,7.077342E-1,1.1204913E-1,-2.4397421E-1,8.4337944E-1,-6.255073E-2,9.822695E-3,-3.1912163E-2,5.1825363E-2,-7.4441664E-2,-1.9055288E-2,3.2891095E-2,-5.522427E-2,-3.1269338E-2,5.703981E-2,-1.5269083E-2,-7.1356915E-2,-6.546753E-2,1.3894607E-2,-2.1144962E-2,3.6552813E-2,-3.6928773E-2,-8.6308494E-2,1.7594337E-2,-4.8858672E-2,-2.4858423E-2,5.5246618E-2,-1.6918546E-2,-8.021592E-2,-4.8208117E-2,2.66439E-2,-1.7988965E-2,-8.098074E-2,4.2932253E-2,7.1876743E-3,-4.0643744E-2,1.45698115E-2,3.714033E-2,-3.7089303E-2,2.9993318E-3,-4.989469E-2,6.5296628E-3,4.6352796E-2,1.5903754E-2,-2.9885685E-2,-5.8384664E-2,1.9246997E-2,4.3290533E-2,-5.8887865E-2],"categories":[],"categories_nodes":[],"categories_segments":[],"categories_sizes":[],"default_left":[0,0,0,0,0,0,0,0,0,0,0,0,0,0,0,0,0,0,0,0,0,0,0,0,0,0,0,0,0,0,0,0,0,0,0,0,0,0,0,0,0,0,0,0,0,0,0,0,0,0,0,0,0,0,0,0,0,0,0,0,0,0,0,0,0,0,0,0,0,0,0,0,0,0,0,0,0,0,0,0,0,0,0,0,0,0,0,0,0,0,0,0,0,0,0,0,0,0,0,0,0],"id":2,"left_children":[1,3,5,7,9,11,13,15,17,19,21,23,25,27,29,31,33,35,-1,37,39,41,43,-1,45,47,49,-1,51,53,55,57,59,-1,61,63,65,67,69,71,-1,73,75,77,79,-1,-1,81,83,85,87,89,91,93,95,97,99,-1,-1,-1,-1,-1,-1,-1,-1,-1,-1,-1,-1,-1,-1,-1,-1,-1,-1,-1,-1,-1,-1,-1,-1,-1,-1,-1,-1,-1,-1,-1,-1,-1,-1,-1,-1,-1,-1,-1,-1,-1,-1,-1,-1],"loss_changes":[1.5649689E2,1.3407173E1,4.296722E1,6.3455753E0,1.0605476E1,1.7447605E1,2.2528908E1,4.1161766E0,6.014579E0,5.5798035E0,9.210411E0,5.117607E-1,1.3964235E1,4.7419296E1,1.799604E1,7.0018396E0,4.838642E0,6.190783E0,0E0,3.6501694E0,7.327903E0,5.3016853E0,7.949995E0,0E0,1.8945857E0,1.1996708E1,9.855392E0,0E0,2.0001156E1,8.254996E0,1.1124138E1,2.4449878E0,4.0821276E0,0E0,6.4946747E-1,4.0407205E0,4.996027E0,1.6604309E0,4.5733757E0,2.773784E0,0E0,7.207489E-1,5.2404857E0,1.4575593E1,1.0055507E1,0E0,0E0,9.004396E0,1.1369171E0,5.265553E0,3.8968081E0,6.3036575E0,6.3431177E0,4.052862E0,1.2135893E1,6.541296E0,9.571869E0,0E0,0E0,0E0,0E0,0E0,0E0,0E0,0E0,0E0,0E0,0E0,0E0,0E0,0E0,0E0,0E0,0E0,0E0,0E0,0E0,0E0,0E0,0E0,0E0,0E0,0E0,0E0,0E0,0E0,0E0,0E0,0E0,0E0,0E0,0E0,0E0,0E0,0E0,0E0,0E0,0E0,0E0,0E0,0E0],"parents":[2147483647,0,0,1,1,2,2,3,3,4,4,5,5,6,6,7,7,8,8,9,9,10,10,11,11,12,12,13,13,14,14,15,15,16,16,17,17,19,19,20,20,21,21,22,22,24,24,25,25,26,26,28,28,29,29,30,30,31,31,32,32,34,34,35,35,36,36,37,37,38,38,39,39,41,41,42,42,43,43,44,44,47,47,48,48,49,49,50,50,51,51,52,52,53,53,54,54,55,55,56,56],"right_children":[2,4,6,8,10,12,14,16,18,20,22,24,26,28,30,32,34,36,-1,38,40,42,44,-1,46,48,50,-1,52,54,56,58,60,-1,62,64,66,68,70,72,-1,74,76,78,80,-1,-1,82,84,86,88,90,92,94,96,98,100,-1,-1,-1,-1,-1,-1,-1,-1,-1,-1,-1,-1,-1,-1,-1,-1,-1,-1,-1,-1,-1,-1,-1,-1,-1,-1,-1,-1,-1,-1,-1,-1,-1,-1,-1,-1,-1,-1,-1,-1,-1,-1,-1,-1],"split_conditions":[-6.0858727E-1,-1.2716475E-1,-7.255562E-1,-2.6786268E-1,-1.9655037E-1,-1.440367E0,-1.517956E0,7.383937E-1,1.8984088E0,7.607155E-1,-9.607663E-1,6.5926716E-2,-1.30036445E-2,-9.619754E-1,-1.3740963E-1,-4.037527E-1,-4.6227646E-1,1.9520894E-1,-5.8947057E-2,-6.4165336E-1,2.5817075E-1,4.1953686E-1,-7.5318617E-1,-8.033782E-2,1.02611564E-1,2.571686E-1,1.5425443E-2,-8.232048E-2,-2.2013192E-1,-1.742394E-1,-8.712246E-1,1.482266E0,1.6135117E-1,2.0262701E-2,1.4618756E0,-7.226094E-1,-1.1184304E0,-3.3620366E-1,3.693638E-2,-1.9356239E-1,-7.253959E-2,-3.432019E-1,8.878056E-1,-6.822935E-1,8.703981E-1,1.0515691E-2,-5.8079887E-2,-9.78253E-1,-9.879592E-1,-2.922271E-1,3.949787E-1,9.5159113E-1,1.1596571E0,-3.2365415E-1,6.637632E-1,-4.544276E-1,1.1586906E0,-6.255073E-2,9.822695E-3,-3.1912163E-2,5.1825363E-2,-7.4441664E-2,-1.9055288E-2,3.2891095E-2,-5.522427E-2,-3.1269338E-2,5.703981E-2,-1.5269083E-2,-7.1356915E-2,-6.546753E-2,1.3894607E-2,-2.1144962E-2,3.6552813E-2,-3.6928773E-2,-8.6308494E-2,1.7594337E-2,-4.8858672E-2,-2.4858423E-2,5.5246618E-2,-1.6918546E-2,-8.021592E-2,-4.8208117E-2,2.66439E-2,-1.7988965E-2,-8.098074E-2,4.2932253E-2,7.1876743E-3,-4.0643744E-2,1.45698115E-2,3.714033E-2,-3.7089303E-2,2.9993318E-3,-4.989469E-2,6.5296628E-3,4.6352796E-2,1.5903754E-2,-2.9885685E-2,-5.8384664E-2,1.9246997E-2,4.3290533E-2,-5.8887865E-2],"split_indices":[4,1,6,3,3,7,10,7,6,1,6,1,1,7,4,6,6,8,0,4,6,7,6,0,1,7,4,0,8,10,8,8,7,0,7,4,6,3,7,6,0,5,7,4,10,0,0,6,5,7,1,7,6,3,6,6,1,0,0,0,0,0,0,0,0,0,0,0,0,0,0,0,0,0,0,0,0,0,0,0,0,0,0,0,0,0,0,0,0,0,0,0,0,0,0,0,0,0,0,0,0],"split_type":[0,0,0,0,0,0,0,0,0,0,0,0,0,0,0,0,0,0,0,0,0,0,0,0,0,0,0,0,0,0,0,0,0,0,0,0,0,0,0,0,0,0,0,0,0,0,0,0,0,0,0,0,0,0,0,0,0,0,0,0,0,0,0,0,0,0,0,0,0,0,0,0,0,0,0,0,0,0,0,0,0,0,0,0,0,0,0,0,0,0,0,0,0,0,0,0,0,0,0,0,0],"sum_hessian":[6.7588794E2,1.7970088E2,4.9618704E2,3.4403065E1,1.4529782E2,9.784143E1,3.983456E2,1.8947289E1,1.5455774E1,6.5959564E1,7.933826E1,1.02255E1,8.761593E1,8.8555214E1,3.097904E2,1.0220344E1,8.726946E0,1.3958232E1,1.4975427E0,5.623739E1,9.722175E0,2.49449E1,5.4393356E1,7.4835515E0,2.7419486E0,2.4933926E1,6.2682003E1,1.3142907E1,7.541231E1,1.1266669E2,1.971237E2,4.7322006E0,5.488143E0,1.4956759E0,7.23127E0,3.7384975E0,1.0219734E1,5.0500084E1,5.737305E0,6.4817567E0,3.2404175E0,1.2958477E1,1.1986423E1,2.2955149E1,3.1438206E1,1.2491064E0,1.4928422E0,1.4469675E1,1.0464251E1,4.771001E1,1.4971995E1,5.3937702E1,2.1474607E1,3.1974768E1,8.069192E1,9.486115E0,1.8763759E2,3.4842675E0,1.2479334E0,1.246998E0,4.2411447E0,5.7339454E0,1.4973247E0,1.2497715E0,2.488726E0,1.2473897E0,8.972344E0,1.9958147E0,4.8504272E1,2.2427652E0,3.4945397E0,2.9915974E0,3.4901593E0,3.2383025E0,9.720175E0,3.7460709E0,8.240352E0,1.521068E1,7.74447E0,2.345353E1,7.984676E0,5.986169E0,8.483506E0,1.4970326E0,8.967217E0,1.4235244E1,3.3474766E1,1.1229572E1,3.742423E0,5.1689877E1,2.247828E0,1.1485778E1,9.988829E0,9.244218E0,2.2730549E1,6.2966278E1,1.772564E1,3.495464E0,5.9906516E0,1.8614334E2,1.4942524E0],"tree_param":{"num_deleted":"0","num_feature":"11","num_nodes":"101","size_leaf_vector":"1"}},{"base_weights":[-2.8487375E-2,-5.2967006E-1,2.1169142E-1,-1.4154786E0,-4.0571612E-1,3.3163E-1,-1.3288529E0,-1.089147E-2,-1.5912435E0,-2.730499E-1,-1.2221167E0,-5.739925E-1,4.0617967E-1,8.759775E-3,-1.4164186E0,-5.4896157E-2,4.4053894E-2,-8.265493E-2,-1.9984106E-2,-3.875935E-1,5.9476E-1,-5.586116E-1,-1.4927288E0,5.358739E-1,-9.042045E-1,5.6802636E-1,5.819351E-2,-1.5596087E0,-1.9014725E-1,-9.9855036E-1,-2.4396835E-1,1.0875134E0,-1.1318431E0,4.9597595E-2,-6.2300116E-2,-8.0626667E-1,-8.419709E-2,-3.6619846E-2,9.251514E-1,-1.4829974E0,-1.8767433E-1,6.8076277E-1,1.2940408E-1,-7.794935E-2,1.0332394E0,-8.045051E-2,-2.5455121E-2,4.2778365E-2,-5.8543365E-2,1.6272968E-2,-5.6925446E-2,2.26991E-2,-2.0396976E-2,6.409281E-2,-3.470348E-2,-8.936454E-3,-7.007522E-2,3.409847E-2,-5.5513848E-2,8.125968E-3,-6.221654E-2,-1.18862875E-2,6.165378E-2,-8.325595E-2,-5.7932185E-3,-3.427673E-2,5.9402164E-2,4.3616828E-2,2.167985E-2,1.9363852E-2,-7.462166E-2,3.3380043E-2,-1.5553921E-2,-3.198361E-2,6.107564E-2],"categories":[],"categories_nodes":[],"categories_segments":[],"categories_sizes":[],"default_left":[0,0,0,0,0,0,0,0,0,0,0,0,0,0,0,0,0,0,0,0,0,0,0,0,0,0,0,0,0,0,0,0,0,0,0,0,0,0,0,0,0,0,0,0,0,0,0,0,0,0,0,0,0,0,0,0,0,0,0,0,0,0,0,0,0,0,0,0,0,0,0,0,0,0,0],"id":3,"left_children":[1,3,5,7,9,11,13,15,17,19,21,23,25,-1,27,-1,-1,-1,-1,29,31,33,35,37,39,41,43,45,47,49,51,53,55,57,-1,59,-1,-1,61,63,65,67,69,71,73,-1,-1,-1,-1,-1,-1,-1,-1,-1,-1,-1,-1,-1,-1,-1,-1,-1,-1,-1,-1,-1,-1,-1,-1,-1,-1,-1,-1,-1,-1],"loss_changes":[8.2430626E1,2.3783115E1,8.599392E1,6.6063194E0,2.0895432E1,2.9289726E1,4.6792336E0,4.8368917E0,1.0963058E0,1.711839E1,4.0340195E0,1.2633018E1,2.2395493E1,0E0,5.305382E0,0E0,0E0,0E0,0E0,1.297925E1,1.8420639E1,4.0134897E0,1.0914917E0,4.7402067E0,1.0470995E1,1.3347031E1,1.7009964E1,6.562195E-1,5.590759E0,5.625578E0,1.42997055E1,6.5086346E0,1.02841E0,5.1408296E0,0E0,2.7416782E0,0E0,0E0,2.7058997E0,3.3408642E0,9.531003E0,9.845184E0,2.4328695E1,1.9819883E1,5.7248917E0,0E0,0E0,0E0,0E0,0E0,0E0,0E0,0E0,0E0,0E0,0E0,0E0,0E0,0E0,0E0,0E0,0E0,0E0,0E0,0E0,0E0,0E0,0E0,0E0,0E0,0E0,0E0,0E0,0E0,0E0],"parents":[2147483647,0,0,1,1,2,2,3,3,4,4,5,5,6,6,7,7,8,8,9,9,10,10,11,11,12,12,14,14,19,19,20,20,21,21,22,22,23,23,24,24,25,25,26,26,27,27,28,28,29,29,30,30,31,31,32,32,33,33,35,35,38,38,39,39,40,40,41,41,42,42,43,43,44,44],"right_children":[2,4,6,8,10,12,14,16,18,20,22,24,26,-1,28,-1,-1,-1,-1,30,32,34,36,38,40,42,44,46,48,50,52,54,56,58,-1,60,-1,-1,62,64,66,68,70,72,74,-1,-1,-1,-1,-1,-1,-1,-1,-1,-1,-1,-1,-1,-1,-1,-1,-1,-1,-1,-1,-1,-1,-1,-1,-1,-1,-1,-1,-1,-1],"split_conditions":[-6.3259673E-1,-1.3363985E0,1.8867822E0,-8.443119E-1,-3.6016154E-1,-1.6859491E0,-1.0705302E0,1.3878384E-1,7.1103245E-1,5.687718E-1,-8.411041E-1,-4.2300388E-1,-2.2013192E-1,8.759775E-3,-1.687553E-1,-5.4896157E-2,4.4053894E-2,-8.265493E-2,-1.9984106E-2,-1.0707816E0,-2.0707121E-1,-8.353193E-1,-1.9654877E-1,6.704557E-1,3.7574813E-1,6.294559E-1,1.2991188E0,2.4589844E0,2.1054475E0,-8.6276704E-1,-3.8790542E-1,-6.735751E-1,-9.378354E-1,7.064092E-1,-6.2300116E-2,-6.5733805E-2,-8.419709E-2,-3.6619846E-2,3.2173964E-1,1.493468E0,-1.5085411E-1,9.846133E-1,3.7574813E-1,-8.411041E-1,-5.327488E-1,-8.045051E-2,-2.5455121E-2,4.2778365E-2,-5.8543365E-2,1.6272968E-2,-5.6925446E-2,2.26991E-2,-2.0396976E-2,6.409281E-2,-3.470348E-2,-8.936454E-3,-7.007522E-2,3.409847E-2,-5.5513848E-2,8.125968E-3,-6.221654E-2,-1.18862875E-2,6.165378E-2,-8.325595E-2,-5.7932185E-3,-3.427673E-2,5.9402164E-2,4.3616828E-2,2.167985E-2,1.9363852E-2,-7.462166E-2,3.3380043E-2,-1.5553921E-2,-3.198361E-2,6.107564E-2],"split_indices":[6,7,2,8,2,9,0,0,0,0,9,0,8,0,3,0,0,0,0,6,8,6,7,2,10,2,2,8,2,0,7,6,2,7,0,0,0,0,6,7,6,10,10,9,0,0,0,0,0,0,0,0,0,0,0,0,0,0,0,0,0,0,0,0,0,0,0,0,0,0,0,0,0,0,0],"split_type":[0,0,0,0,0,0,0,0,0,0,0,0,0,0,0,0,0,0,0,0,0,0,0,0,0,0,0,0,0,0,0,0,0,0,0,0,0,0,0,0,0,0,0,0,0,0,0,0,0,0,0,0,0,0,0,0,0,0,0,0,0,0,0,0,0,0,0,0,0,0,0,0,0,0,0],"sum_hessian":[6.8285925E2,2.2083536E2,4.620239E2,2.5829723E1,1.9500563E2,4.2937946E2,3.2644463E1,2.9908624E0,2.283886E1,1.688945E2,2.6111134E1,3.214808E1,3.9723135E2,1.7409402E0,3.090352E1,1.2439628E0,1.7468996E0,2.1343557E1,1.4953021E0,1.4969005E2,1.920446E1,8.452057E0,1.7659077E1,7.2287865E0,2.4919294E1,2.7069846E2,1.2653291E2,2.742886E1,3.4746614E0,2.7358631E1,1.2233141E2,1.5228544E1,3.975915E0,4.976582E0,3.4754753E0,4.9837623E0,1.2675314E1,1.4906865E0,5.7381E0,1.3192816E1,1.1726479E1,2.1490955E2,5.578891E1,1.1183743E2,1.4695484E1,2.5689138E1,1.739721E0,1.7433687E0,1.7312925E0,2.4888353E0,2.4869797E1,2.2935747E1,9.939567E1,1.3983644E1,1.2449006E0,1.2435157E0,2.7323992E0,3.4873087E0,1.4892732E0,1.7477E0,3.2360625E0,1.2490455E0,4.489054E0,1.1449602E1,1.7432134E0,8.978813E0,2.7476652E0,1.1964526E2,9.526428E1,4.8792145E1,6.9967647E0,2.6196615E1,8.5640816E1,1.2440298E0,1.3451454E1],"tree_param":{"num_deleted":"0","num_feature":"11","num_nodes":"75","size_leaf_vector":"1"}},{"base_weights":[-9.890046E-3,-7.138188E-1,2.7153814E-1,-9.788907E-1,-3.3708182E-1,-3.152158E-1,4.0141237E-1,-4.4029677E-1,-1.0870832E0,1.8053265E-1,-6.234655E-1,1.1871763E-1,-9.0728784E-1,4.378789E-1,-1.2981769E0,2.230447E-1,-1.0209266E0,-1.2187414E0,-6.83948E-1,-9.63301E-1,5.6795555E-1,-8.0183965E-1,-2.4021536E-1,2.912967E-1,-7.385515E-1,-7.488131E-2,-6.4161426E-1,2.7454337E-1,7.598872E-1,-7.811758E-2,-7.660764E-3,-8.182874E-1,6.9639105E-1,-1.4314553E0,2.929763E-1,1.297789E-3,-1.2465656E0,-9.674223E-1,1.610493E-1,-2.7230987E-1,-6.361732E-2,-3.7093037E-1,9.209894E-1,-1.1499609E0,-5.1090914E-1,4.536952E-1,-6.638485E-1,5.6623068E-2,1.0584666E0,-1.1289879E0,2.7878422E-2,-3.367327E-2,-1.443316E0,-3.1386432E-1,3.9561906E-1,-3.672409E-1,8.336914E-1,-7.954779E-3,-5.4260164E-2,-1.7812055E-2,5.0264042E-2,-8.047467E-2,-1.0004427E-2,3.3826366E-2,-1.100098E-2,-3.6356752E-3,-6.3814424E-2,-8.522695E-3,-5.9099246E-2,5.559813E-2,-4.45597E-2,-5.3768706E-2,3.69447E-2,3.9922312E-2,-4.1789394E-2,8.139851E-2,3.418797E-3,6.220865E-3,-6.4746596E-2,2.421676E-2,-3.673187E-2,-2.2646522E-2,5.7882667E-2,3.0962547E-2,-4.951225E-2,-2.392449E-2,2.4345744E-2,7.771245E-2,-2.433637E-2,-6.467122E-2,-9.392157E-3,-1.8768959E-2,3.6660384E-2,-8.172638E-2,-2.1601377E-2,-4.180744E-2,1.6730217E-3,1.744071E-2,6.7880146E-2,2.3555553E-2,-5.4443788E-2,-4.2195752E-2,4.3240912E-2],"categories":[],"categories_nodes":[],"categories_segments":[],"categories_sizes":[],"default_left":[0,0,0,0,0,0,0,0,0,0,0,0,0,0,0,0,0,0,0,0,0,0,0,0,0,0,0,0,0,0,0,0,0,0,0,0,0,0,0,0,0,0,0,0,0,0,0,0,0,0,0,0,0,0,0,0,0,0,0,0,0,0,0,0,0,0,0,0,0,0,0,0,0,0,0,0,0,0,0,0,0,0,0,0,0,0,0,0,0,0,0,0,0,0,0,0,0,0,0,0,0,0,0],"id":4,"left_children":[1,3,5,7,9,11,13,15,17,19,21,23,25,27,29,31,33,35,37,39,41,43,45,47,49,-1,51,53,55,-1,-1,57,59,61,63,-1,65,67,69,71,-1,73,75,77,79,81,83,85,87,89,-1,91,93,95,97,99,101,-1,-1,-1,-1,-1,-1,-1,-1,-1,-1,-1,-1,-1,-1,-1,-1,-1,-1,-1,-1,-1,-1,-1,-1,-1,-1,-1,-1,-1,-1,-1,-1,-1,-1,-1,-1,-1,-1,-1,-1,-1,-1,-1,-1,-1,-1],"loss_changes":[1.3431184E2,1.9006874E1,3.7037453E1,6.1140594E0,1.2193494E1,2.2804539E1,2.5175415E1,8.164218E0,4.130699E0,1.3755094E1,3.4095745E0,7.8881583E0,4.9171505E0,2.0273842E1,2.3594217E0,5.7151623E0,6.442979E0,2.42984E0,6.217202E0,1.3430843E0,7.929732E0,3.010891E0,5.640502E0,7.8416805E0,5.170792E0,0E0,1.3401453E1,1.8642899E1,1.1161461E1,0E0,0E0,4.8221254E-1,2.8671982E0,1.5805798E0,8.352791E-1,0E0,2.2704086E0,3.0630684E0,8.20916E0,3.8132896E0,0E0,4.455481E0,1.009038E1,3.001711E0,5.066087E0,5.2977867E0,5.5064383E0,8.214811E0,8.589067E0,8.7549496E-1,0E0,4.6563034E0,1.5906143E0,8.176119E0,9.253044E0,5.7846603E0,7.1411896E0,0E0,0E0,0E0,0E0,0E0,0E0,0E0,0E0,0E0,0E0,0E0,0E0,0E0,0E0,0E0,0E0,0E0,0E0,0E0,0E0,0E0,0E0,0E0,0E0,0E0,0E0,0E0,0E0,0E0,0E0,0E0,0E0,0E0,0E0,0E0,0E0,0E0,0E0,0E0,0E0,0E0,0E0,0E0,0E0,0E0,0E0],"parents":[2147483647,0,0,1,1,2,2,3,3,4,4,5,5,6,6,7,7,8,8,9,9,10,10,11,11,12,12,13,13,14,14,15,15,16,16,17,17,18,18,19,19,20,20,21,21,22,22,23,23,24,24,26,26,27,27,28,28,31,31,32,32,33,33,34,34,36,36,37,37,38,38,39,39,41,41,42,42,43,43,44,44,45,45,46,46,47,47,48,48,49,49,51,51,52,52,53,53,54,54,55,55,56,56],"right_children":[2,4,6,8,10,12,14,16,18,20,22,24,26,28,30,32,34,36,38,40,42,44,46,48,50,-1,52,54,56,-1,-1,58,60,62,64,-1,66,68,70,72,-1,74,76,78,80,82,84,86,88,90,-1,92,94,96,98,100,102,-1,-1,-1,-1,-1,-1,-1,-1,-1,-1,-1,-1,-1,-1,-1,-1,-1,-1,-1,-1,-1,-1,-1,-1,-1,-1,-1,-1,-1,-1,-1,-1,-1,-1,-1,-1,-1,-1,-1,-1,-1,-1,-1,-1,-1,-1],"split_conditions":[-5.8592427E-1,-6.878929E-1,-7.5318617E-1,-1.2716475E-1,-4.107991E-3,-8.411041E-1,1.9346306E0,8.2402E-1,-4.139219E-1,-8.411041E-1,-2.4870306E-1,1.26336E-1,-9.619754E-1,4.878703E-1,-3.005475E-1,-9.607663E-1,-2.5756693E-1,-3.3719411E-1,1.6879443E0,2.7080358E-3,3.1884003E-1,-2.185337E-1,6.5926716E-2,4.1953686E-1,3.3214608E-1,-7.488131E-2,6.007706E-1,-1.2171175E0,-8.51953E-1,-7.811758E-2,-7.660764E-3,-1.1318008E0,-3.3224186E-1,-7.033945E-1,1.7765547E0,1.297789E-3,-9.0749526E-1,7.9212725E-1,2.2864795E0,-2.702549E-1,-6.361732E-2,-4.161489E-1,8.878056E-1,-7.597057E-1,-1.262285E-1,1.6040685E-2,7.0197E-2,-9.387759E-1,-8.4012884E-1,1.5723914E0,2.7878422E-2,-2.3362407E-1,2.8084603E-1,7.902961E-2,1.7170178E0,-7.960275E-2,-1.6859491E0,-7.954779E-3,-5.4260164E-2,-1.7812055E-2,5.0264042E-2,-8.047467E-2,-1.0004427E-2,3.3826366E-2,-1.100098E-2,-3.6356752E-3,-6.3814424E-2,-8.522695E-3,-5.9099246E-2,5.559813E-2,-4.45597E-2,-5.3768706E-2,3.69447E-2,3.9922312E-2,-4.1789394E-2,8.139851E-2,3.418797E-3,6.220865E-3,-6.4746596E-2,2.421676E-2,-3.673187E-2,-2.2646522E-2,5.7882667E-2,3.0962547E-2,-4.951225E-2,-2.392449E-2,2.4345744E-2,7.771245E-2,-2.433637E-2,-6.467122E-2,-9.392157E-3,-1.8768959E-2,3.6660384E-2,-8.172638E-2,-2.1601377E-2,-4.180744E-2,1.6730217E-3,1.744071E-2,6.7880146E-2,2.3555553E-2,-5.4443788E-2,-4.2195752E-2,4.3240912E-2],"split_indices":[4,4,6,1,1,9,1,7,6,9,6,3,7,4,3,6,1,3,8,5,7,3,1,7,5,0,7,7,8,0,0,6,3,4,6,0,5,7,8,5,0,5,7,5,3,7,6,6,6,3,0,8,3,9,7,5,9,0,0,0,0,0,0,0,0,0,0,0,0,0,0,0,0,0,0,0,0,0,0,0,0,0,0,0,0,0,0,0,0,0,0,0,0,0,0,0,0,0,0,0,0,0,0],"split_type":[0,0,0,0,0,0,0,0,0,0,0,0,0,0,0,0,0,0,0,0,0,0,0,0,0,0,0,0,0,0,0,0,0,0,0,0,0,0,0,0,0,0,0,0,0,0,0,0,0,0,0,0,0,0,0,0,0,0,0,0,0,0,0,0,0,0,0,0,0,0,0,0,0,0,0,0,0,0,0,0,0,0,0,0,0,0,0,0,0,0,0,0,0,0,0,0,0,0,0,0,0,0,0],"sum_hessian":[6.760034E2,1.926348E2,4.833686E2,1.1213695E2,8.049784E1,8.734206E1,3.9602655E2,1.9605957E1,9.253099E1,2.8804941E1,5.16929E1,5.086342E1,3.6478638E1,3.8843463E2,7.591928E0,9.438633E0,1.0167323E1,6.822614E1,2.430485E1,6.9118505E0,2.189309E1,3.4529705E1,1.7163195E1,4.288944E1,7.973979E0,9.882409E0,2.6596228E1,2.5894162E2,1.29493E2,5.872446E0,1.7194821E0,2.7218988E0,6.716734E0,7.67866E0,2.4886637E0,1.4932536E0,6.673289E1,1.8090935E1,6.213914E0,2.7173316E0,4.194519E0,5.968718E0,1.5924372E1,1.437554E1,2.0154165E1,6.4792423E0,1.0683952E1,3.3665215E1,9.224221E0,6.2271056E0,1.7468731E0,1.5718605E1,1.0877623E1,4.3917515E1,2.1502411E2,7.7137485E0,1.2177924E2,1.2444875E0,1.4774113E0,1.4890537E0,5.22768E0,6.440393E0,1.2382671E0,1.241589E0,1.2470747E0,1.7331105E0,6.499978E1,4.218017E0,1.3872918E1,3.2343104E0,2.9796035E0,1.479167E0,1.2381645E0,1.4936749E0,4.4750433E0,8.208531E0,7.715841E0,1.4827855E0,1.2892755E1,3.4852698E0,1.6668896E1,2.9878252E0,3.491417E0,1.9846895E0,8.699264E0,1.4955044E1,1.8710173E1,6.9790893E0,2.245132E0,4.982292E0,1.2448136E0,1.1226726E1,4.4918795E0,8.629668E0,2.2479548E0,1.697868E1,2.6938835E1,2.06347E2,8.677116E0,3.7288992E0,3.9848492E0,1.7427001E0,1.20036545E2],"tree_param":{"num_deleted":"0","num_feature":"11","num_nodes":"103","size_leaf_vector":"1"}},{"base_weights":[-3.0288136E-2,-4.086109E-1,2.4157584E-1,-5.480804E-1,1.23952985E-1,3.559557E-1,-1.1923069E0,-1.380979E0,-4.5596287E-1,5.560826E-1,-6.4596444E-1,5.36839E-1,-1.0147383E-1,3.6963996E-2,-1.3212218E0,-7.5998515E-2,-4.256845E-1,-3.6990312E-1,-1.1543655E0,7.964831E-1,-6.895946E-2,-7.3264286E-2,-8.0874115E-2,6.502911E-1,-7.2798185E-2,1.0332885E-1,-7.9813355E-1,1.8637735E-2,-1.4305493E0,-4.1892078E-2,1.5616736E-2,-1.8119249E-1,-6.967754E-1,3.781795E-2,-1.3301607E0,1.4516923E0,9.701035E-2,-3.432741E-1,5.050073E-2,7.1402776E-1,-1.8109383E-1,8.118929E-2,-8.651306E-1,-3.2477586E-3,1.2144301E0,-1.0295936E0,5.9424587E-2,-1.5817817E0,3.3717845E-2,1.6477909E-2,-1.6370485E-2,-1.6229993E-2,-6.1974853E-2,-2.001251E-2,-7.2505414E-2,7.920149E-2,1.2540079E-2,3.7616313E-2,-4.434234E-2,-4.1122552E-2,2.4901414E-2,6.1212074E-2,3.173548E-2,4.0948194E-2,-6.2422764E-2,-1.1705586E-2,3.2621957E-2,1.850712E-2,-6.344038E-2,1.8404033E-2,-3.6006566E-2,7.771024E-2,-2.4998335E-3,-6.597894E-2,-2.158914E-2,-8.237571E-2,-3.8741704E-2,5.2047092E-2,-4.99139E-2],"categories":[],"categories_nodes":[],"categories_segments":[],"categories_sizes":[],"default_left":[0,0,0,0,0,0,0,0,0,0,0,0,0,0,0,0,0,0,0,0,0,0,0,0,0,0,0,0,0,0,0,0,0,0,0,0,0,0,0,0,0,0,0,0,0,0,0,0,0,0,0,0,0,0,0,0,0,0,0,0,0,0,0,0,0,0,0,0,0,0,0,0,0,0,0,0,0,0,0],"id":5,"left_children":[1,3,5,7,9,11,13,15,17,19,21,23,25,-1,27,-1,29,31,33,35,-1,37,-1,39,41,43,45,-1,47,-1,-1,49,51,-1,53,55,57,59,-1,61,63,65,67,69,71,73,-1,75,77,-1,-1,-1,-1,-1,-1,-1,-1,-1,-1,-1,-1,-1,-1,-1,-1,-1,-1,-1,-1,-1,-1,-1,-1,-1,-1,-1,-1,-1,-1],"loss_changes":[7.0185455E1,2.125896E1,6.555679E1,1.6731163E1,2.0329706E1,3.0549843E1,8.339607E0,2.2794724E0,1.190847E1,1.9235233E1,1.2144972E1,1.8326134E1,1.51040535E1,0E0,5.7331123E0,0E0,1.5357459E0,1.1235403E1,8.410494E0,1.6041782E1,0E0,4.70908E0,0E0,1.194149E1,5.2391057E0,9.743704E0,1.2275018E1,0E0,5.9397316E0,0E0,0E0,8.929582E0,1.3143944E1,0E0,1.7116432E0,2.4888039E0,1.2369018E1,5.5233073E0,0E0,7.6099854E0,1.8816608E1,6.7062654E0,3.9499545E0,2.0508957E1,3.1716175E0,3.2547646E0,0E0,2.5291443E-3,4.6434894E0,0E0,0E0,0E0,0E0,0E0,0E0,0E0,0E0,0E0,0E0,0E0,0E0,0E0,0E0,0E0,0E0,0E0,0E0,0E0,0E0,0E0,0E0,0E0,0E0,0E0,0E0,0E0,0E0,0E0,0E0],"parents":[2147483647,0,0,1,1,2,2,3,3,4,4,5,5,6,6,7,7,8,8,9,9,10,10,11,11,12,12,14,14,16,16,17,17,18,18,19,19,21,21,23,23,24,24,25,25,26,26,28,28,31,31,32,32,34,34,35,35,36,36,37,37,39,39,40,40,41,41,42,42,43,43,44,44,45,45,47,47,48,48],"right_children":[2,4,6,8,10,12,14,16,18,20,22,24,26,-1,28,-1,30,32,34,36,-1,38,-1,40,42,44,46,-1,48,-1,-1,50,52,-1,54,56,58,60,-1,62,64,66,68,70,72,74,-1,76,78,-1,-1,-1,-1,-1,-1,-1,-1,-1,-1,-1,-1,-1,-1,-1,-1,-1,-1,-1,-1,-1,-1,-1,-1,-1,-1,-1,-1,-1,-1],"split_conditions":[-4.544276E-1,4.007049E-1,1.8867822E0,-1.4084742E0,-7.0986986E-1,-1.011054E-1,-1.0404345E0,1.445046E-1,5.3451514E-1,6.798171E-1,3.948251E-1,-1.0344817E-1,1.0472695E0,3.6963996E-2,-3.7970989E0,-7.5998515E-2,4.1381255E-2,-5.8687055E-1,-1.0705302E0,8.70483E-2,-6.895946E-2,7.251186E-1,-8.0874115E-2,1.326452E0,1.0941199E0,1.5997838E0,8.413725E-1,1.8637735E-2,-1.0818043E-1,-4.1892078E-2,1.5616736E-2,-4.0572754E-1,-6.5733805E-2,3.781795E-2,-1.5529403E-1,-4.942552E-1,-6.683279E-1,-1.4293827E-1,5.050073E-2,-3.5428154E-1,-5.0223607E-1,4.0012777E-1,-4.2300388E-1,2.824333E-1,5.5850215E-2,1.5256611E0,5.9424587E-2,7.4339306E-1,2.1054475E0,1.6477909E-2,-1.6370485E-2,-1.6229993E-2,-6.1974853E-2,-2.001251E-2,-7.2505414E-2,7.920149E-2,1.2540079E-2,3.7616313E-2,-4.434234E-2,-4.1122552E-2,2.4901414E-2,6.1212074E-2,3.173548E-2,4.0948194E-2,-6.2422764E-2,-1.1705586E-2,3.2621957E-2,1.850712E-2,-6.344038E-2,1.8404033E-2,-3.6006566E-2,7.771024E-2,-2.4998335E-3,-6.597894E-2,-2.158914E-2,-8.237571E-2,-3.8741704E-2,5.2047092E-2,-4.99139E-2],"split_indices":[6,0,2,7,2,8,0,0,5,8,7,3,7,0,1,0,1,2,0,1,0,5,0,2,2,2,0,0,3,0,0,7,0,0,1,6,8,3,0,1,0,6,0,2,6,7,0,6,2,0,0,0,0,0,0,0,0,0,0,0,0,0,0,0,0,0,0,0,0,0,0,0,0,0,0,0,0,0,0],"split_type":[0,0,0,0,0,0,0,0,0,0,0,0,0,0,0,0,0,0,0,0,0,0,0,0,0,0,0,0,0,0,0,0,0,0,0,0,0,0,0,0,0,0,0,0,0,0,0,0,0,0,0,0,0,0,0,0,0,0,0,0,0,0,0,0,0,0,0,0,0,0,0,0,0,0,0,0,0,0,0],"sum_hessian":[6.804307E2,2.8429962E2,3.9613107E2,2.2527483E2,5.9024796E1,3.6756262E2,2.8568466E1,2.1040604E1,2.0423422E2,3.798358E1,2.1041212E1,2.6327936E2,1.04283264E2,1.4911603E0,2.7077307E1,1.7852097E1,3.188506E0,1.8319046E2,2.104376E1,3.4310013E1,3.6735692E0,1.3914289E1,7.1269236E0,2.2191481E2,4.1364536E1,8.1249405E1,2.3033863E1,1.4955131E0,2.5581793E1,1.9591401E0,1.229366E0,1.1712558E2,6.606488E1,1.4947518E0,1.954901E1,1.7160263E1,1.714975E1,1.1684913E1,2.2293763E0,2.062446E2,1.5670214E1,3.5385082E1,5.979455E0,7.50479E1,6.2015023E0,2.1061718E1,1.9721457E0,2.311425E1,2.4675424E0,2.578883E1,9.133675E1,4.0138023E1,2.592686E1,2.72899E0,1.6820019E1,1.5169542E1,1.9907197E0,1.0434795E1,6.714955E0,7.4589553E0,4.2259574E0,2.5806944E1,1.8043765E2,8.210323E0,7.4598904E0,2.3180689E1,1.22043915E1,1.4932141E0,4.486241E0,4.9759983E1,2.5287918E1,4.707368E0,1.4941343E0,1.3369237E1,7.69248E0,2.0410027E1,2.704225E0,1.2443718E0,1.2231706E0],"tree_param":{"num_deleted":"0","num_feature":"11","num_nodes":"79","size_leaf_vector":"1"}},{"base_weights":[-8.990582E-3,-6.716688E-1,2.2986174E-1,-2.6451308E-1,-8.373458E-1,3.4247258E-1,-8.1130433E-1,-6.322542E-2,-1.1791139E0,-9.269977E-1,-3.7304698E-3,-2.1787816E-1,4.8249304E-1,1.0406714E-1,-1.2215862E0,-8.8358843E-1,2.2459547E-1,-1.0281253E-2,-6.4972445E-2,-5.170056E-1,-1.0852877E0,6.649516E-2,-6.5732175E-1,-4.5346633E-1,5.568709E-1,1.2961279E-1,6.485501E-1,-6.005153E-2,6.917081E-1,-1.5709215E-1,-1.4079446E0,3.2208797E-2,-1.2101363E0,4.119584E-1,-6.3958627E-1,7.9301625E-1,-6.933167E-1,-1.2218975E0,-6.585572E-1,-6.624908E-2,-6.043758E-2,6.6405386E-2,-5.322064E-1,8.524367E-1,-6.2232334E-2,1.1821078E0,3.337211E-3,4.2686355E-1,9.0027016E-1,9.3154454E-1,-3.6490265E-2,5.032795E-1,-4.642613E-2,-3.0499095E-1,-1.511228E0,-6.460029E-3,-6.73129E-2,5.0061075E-3,4.0429246E-2,-5.131891E-2,1.9219717E-2,7.142504E-2,-1.450274E-2,2.375109E-2,-3.957133E-2,-4.746692E-3,-6.218329E-2,-1.3530082E-2,-5.542459E-2,-6.484278E-2,6.3962474E-2,-2.9802153E-2,5.2153964E-2,-3.422227E-2,5.8912437E-2,7.429706E-2,3.8416341E-3,-3.0259574E-2,1.0180113E-2,2.613014E-2,-4.5140237E-2,1.19224945E-2,5.3096022E-2,6.6557474E-2,1.6229007E-3,3.9052118E-2,1.0851673E-3,1.0738767E-2,-3.2509696E-2,-4.7378544E-2,-8.1082754E-2],"categories":[],"categories_nodes":[],"categories_segments":[],"categories_sizes":[],"default_left":[0,0,0,0,0,0,0,0,0,0,0,0,0,0,0,0,0,0,0,0,0,0,0,0,0,0,0,0,0,0,0,0,0,0,0,0,0,0,0,0,0,0,0,0,0,0,0,0,0,0,0,0,0,0,0,0,0,0,0,0,0,0,0,0,0,0,0,0,0,0,0,0,0,0,0,0,0,0,0,0,0,0,0,0,0,0,0,0,0,0,0],"id":6,"left_children":[1,3,5,7,9,11,13,15,17,19,21,23,25,27,29,31,33,-1,-1,35,37,-1,39,41,43,45,47,-1,49,51,53,-1,55,57,59,61,63,65,67,69,-1,-1,71,73,-1,75,77,79,81,83,-1,85,-1,87,89,-1,-1,-1,-1,-1,-1,-1,-1,-1,-1,-1,-1,-1,-1,-1,-1,-1,-1,-1,-1,-1,-1,-1,-1,-1,-1,-1,-1,-1,-1,-1,-1,-1,-1,-1,-1],"loss_changes":[1.0688078E2,1.184639E1,5.8476704E1,9.720131E0,9.465141E0,3.5305325E1,1.8433613E1,1.0744236E1,8.504076E-1,6.862465E0,1.247283E1,1.674912E1,2.0967598E1,1.3107469E1,6.471451E0,6.667794E0,5.746031E0,0E0,0E0,8.350124E0,3.9532242E0,0E0,3.0486655E0,1.0506567E1,1.25217E1,1.5440751E1,1.3234123E1,0E0,4.6592784E0,3.601261E0,2.7953987E0,0E0,1.3079948E0,3.4360209E0,2.939263E0,3.4926684E0,3.8490152E0,1.369957E0,3.5334587E0,1.1082189E1,0E0,0E0,7.421137E0,1.0362325E1,0E0,4.0654507E0,1.2890374E1,1.7233004E1,1.1876511E1,3.7028227E0,0E0,5.1315856E-1,0E0,8.035925E-1,7.449722E-2,0E0,0E0,0E0,0E0,0E0,0E0,0E0,0E0,0E0,0E0,0E0,0E0,0E0,0E0,0E0,0E0,0E0,0E0,0E0,0E0,0E0,0E0,0E0,0E0,0E0,0E0,0E0,0E0,0E0,0E0,0E0,0E0,0E0,0E0,0E0,0E0],"parents":[2147483647,0,0,1,1,2,2,3,3,4,4,5,5,6,6,7,7,8,8,9,9,10,10,11,11,12,12,13,13,14,14,15,15,16,16,19,19,20,20,22,22,23,23,24,24,25,25,26,26,28,28,29,29,30,30,32,32,33,33,34,34,35,35,36,36,37,37,38,38,39,39,42,42,43,43,45,45,46,46,47,47,48,48,49,49,51,51,53,53,54,54],"right_children":[2,4,6,8,10,12,14,16,18,20,22,24,26,28,30,32,34,-1,-1,36,38,-1,40,42,44,46,48,-1,50,52,54,-1,56,58,60,62,64,66,68,70,-1,-1,72,74,-1,76,78,80,82,84,-1,86,-1,88,90,-1,-1,-1,-1,-1,-1,-1,-1,-1,-1,-1,-1,-1,-1,-1,-1,-1,-1,-1,-1,-1,-1,-1,-1,-1,-1,-1,-1,-1,-1,-1,-1,-1,-1,-1,-1],"split_conditions":[-6.0858727E-1,-3.893516E-1,1.326452E0,1.3674518E0,1.2991188E0,-7.485456E-1,-5.498577E-1,-9.607663E-1,-1.1335695E0,-8.692667E-1,-3.3807656E-1,2.971087E-1,-1.6856016E-1,-2.7855045E-1,-9.2677784E-1,-3.6829615E-1,1.6532322E0,-1.0281253E-2,-6.4972445E-2,-7.597057E-1,-6.799653E-1,6.649516E-2,1.8321158E0,-1.4037551E0,-5.9797895E-1,-8.602024E-1,4.4137296E-1,-6.005153E-2,3.815618E-1,8.0468E-1,-5.0275797E-1,3.2208797E-2,-1.1536871E0,2.4579035E-1,-6.799653E-1,-7.937359E-1,-7.2832674E-1,-3.7890145E-1,2.8592452E-2,1.65445E0,-6.043758E-2,6.6405386E-2,1.39809E0,-1.2171175E0,-6.2232334E-2,2.180573E-1,-2.8202057E-1,6.029966E-1,-1.517956E0,9.5933557E-1,-3.6490265E-2,-2.932766E-1,-4.642613E-2,2.5817075E-1,-1.6859491E0,-6.460029E-3,-6.73129E-2,5.0061075E-3,4.0429246E-2,-5.131891E-2,1.9219717E-2,7.142504E-2,-1.450274E-2,2.375109E-2,-3.957133E-2,-4.746692E-3,-6.218329E-2,-1.3530082E-2,-5.542459E-2,-6.484278E-2,6.3962474E-2,-2.9802153E-2,5.2153964E-2,-3.422227E-2,5.8912437E-2,7.429706E-2,3.8416341E-3,-3.0259574E-2,1.0180113E-2,2.613014E-2,-4.5140237E-2,1.19224945E-2,5.3096022E-2,6.6557474E-2,1.6229007E-3,3.9052118E-2,1.0851673E-3,1.0738767E-2,-3.2509696E-2,-4.7378544E-2,-8.1082754E-2],"split_indices":[4,0,2,2,2,6,0,6,0,2,6,0,4,6,5,5,7,0,0,5,4,0,2,0,2,2,6,0,5,0,4,0,6,2,4,6,4,0,5,2,0,0,7,7,0,7,5,2,10,7,0,0,0,6,9,0,0,0,0,0,0,0,0,0,0,0,0,0,0,0,0,0,0,0,0,0,0,0,0,0,0,0,0,0,0,0,0,0,0,0,0],"split_type":[0,0,0,0,0,0,0,0,0,0,0,0,0,0,0,0,0,0,0,0,0,0,0,0,0,0,0,0,0,0,0,0,0,0,0,0,0,0,0,0,0,0,0,0,0,0,0,0,0,0,0,0,0,0,0,0,0,0,0,0,0,0,0,0,0,0,0,0,0,0,0,0,0,0,0,0,0,0,0,0,0,0,0,0,0,0,0,0,0,0,0],"sum_hessian":[6.7327905E2,1.7789906E2,4.9537997E2,5.2203667E1,1.25695404E2,4.4763553E2,4.774446E1,4.3663273E1,8.540395E0,1.1338887E2,1.2306531E1,8.938157E1,3.5825397E2,1.5007619E1,3.2736843E1,1.0802752E1,3.2860523E1,1.2375557E0,7.302839E0,3.2771774E1,8.0617096E1,3.707245E0,8.599286E0,6.8857765E1,2.05238E1,1.1520904E2,2.4304492E2,4.335359E0,1.067226E1,5.151875E0,2.7584969E1,1.731093E0,9.071658E0,2.7435532E1,5.4249907E0,3.4725206E0,2.9299255E1,5.9655952E1,2.096114E1,4.691089E0,3.9081964E0,2.2429006E0,6.661487E1,1.8083717E1,2.4400811E0,1.144604E1,1.03763E2,1.306654E2,1.1237951E2,9.426509E0,1.2457511E0,2.9630241E0,2.1888509E0,2.7004178E0,2.488455E1,1.2326225E0,7.839036E0,1.60607E1,1.1374832E1,3.93592E0,1.4890708E0,1.9874576E0,1.485063E0,1.9721576E0,2.7327097E1,1.232063E0,5.842389E1,1.2115765E1,8.845376E0,2.469036E0,2.222053E0,6.461793E1,1.9969382E0,2.970568E0,1.511315E1,8.707888E0,2.7381532E0,2.5192055E1,7.8570946E1,1.2245531E2,8.210104E0,2.2546368E1,8.983314E1,6.1932993E0,3.2332096E0,1.4847856E0,1.4782387E0,1.2285058E0,1.4719119E0,5.6460695E0,1.9238482E1],"tree_param":{"num_deleted":"0","num_feature":"11","num_nodes":"91","size_leaf_vector":"1"}},{"base_weights":[5.227909E-3,-5.929075E-1,2.3509562E-1,-1.7016989E-1,-7.5506115E-1,3.6239633E-1,-7.8325754E-1,9.4879285E-2,-8.1981003E-1,-8.8956827E-1,5.053349E-1,-2.1091305E-1,4.9192497E-1,-1.4856089E0,-3.9643016E-1,-2.5938365E-1,8.7509817E-1,1.5291917E-1,-1.1318882E0,-1.2050259E0,-6.3744843E-1,1.072167E0,-5.3319592E-2,-3.8057512E-1,6.130529E-1,4.374418E-1,1.4490116E0,-7.657046E-2,-2.1201065E-2,8.9503574E-1,-8.1104493E-1,8.443354E-1,-4.9507707E-1,-4.0495437E-2,1.2234852E0,4.963217E-2,-5.0700646E-2,-3.01062E-1,-7.513453E-2,-1.2617395E0,3.2618813E-2,-9.581625E-1,-2.6278168E-1,-1.3006137E-3,1.2525753E0,1.1400597E0,-4.9292803E-1,1.168709E0,-3.0283317E-1,4.9790928E-1,-5.4208106E-1,5.592279E-1,7.825567E-2,1.1099474E0,-1.4221321E-2,-2.4206875E-1,-1.176383E0,-3.2250356E-2,7.348544E-2,2.3501374E-2,-4.0705252E-2,1.0102259E-2,6.9955185E-2,3.3657096E-2,-5.9045937E-2,-3.191593E-2,-6.923638E-2,-5.022109E-3,-5.570954E-2,2.6062924E-2,-2.814968E-2,2.662426E-2,7.5757615E-2,7.001071E-2,9.792237E-3,-1.4011137E-2,-6.1317384E-2,6.611979E-2,5.3016893E-3,3.091289E-2,-6.733056E-2,3.260591E-2,1.2661581E-2,2.614517E-2,-5.2706342E-2,5.286779E-2,-5.8938554E-3,7.265222E-2,1.5723104E-2,4.549692E-2,-5.0322212E-2,-7.385708E-2,1.4694124E-2],"categories":[],"categories_nodes":[],"categories_segments":[],"categories_sizes":[],"default_left":[0,0,0,0,0,0,0,0,0,0,0,0,0,0,0,0,0,0,0,0,0,0,0,0,0,0,0,0,0,0,0,0,0,0,0,0,0,0,0,0,0,0,0,0,0,0,0,0,0,0,0,0,0,0,0,0,0,0,0,0,0,0,0,0,0,0,0,0,0,0,0,0,0,0,0,0,0,0,0,0,0,0,0,0,0,0,0,0,0,0,0,0,0],"id":7,"left_children":[1,3,5,7,9,11,13,15,17,19,21,23,25,27,29,31,33,35,37,39,41,43,-1,45,47,49,51,-1,-1,53,55,57,59,-1,61,-1,-1,63,-1,65,-1,67,69,-1,71,73,75,77,79,81,83,85,-1,87,-1,89,91,-1,-1,-1,-1,-1,-1,-1,-1,-1,-1,-1,-1,-1,-1,-1,-1,-1,-1,-1,-1,-1,-1,-1,-1,-1,-1,-1,-1,-1,-1,-1,-1,-1,-1,-1,-1],"loss_changes":[9.344883E1,1.2805893E1,6.3930973E1,9.307457E0,2.3520653E1,3.256231E1,1.4318718E1,1.0997448E1,4.9197226E0,9.040405E0,1.3402439E1,1.1592209E1,1.797361E1,2.8045654E-1,2.0402412E1,7.5900254E0,8.268184E0,5.591498E0,3.2312746E0,6.475563E0,8.2397E0,2.1349783E0,0E0,1.2179004E1,7.6095943E0,2.0351768E1,1.0655365E0,0E0,0E0,2.6998487E0,5.606474E0,5.8108196E0,7.5716577E0,0E0,1.6315222E0,0E0,0E0,5.02958E0,0E0,3.1345596E0,0E0,4.9330826E0,8.289324E0,0E0,9.2039204E-1,9.491081E-1,9.643034E0,1.3426142E0,6.771873E0,1.1903687E1,1.156238E1,1.3808192E0,0E0,1.7701635E0,0E0,1.1782982E1,7.951441E0,0E0,0E0,0E0,0E0,0E0,0E0,0E0,0E0,0E0,0E0,0E0,0E0,0E0,0E0,0E0,0E0,0E0,0E0,0E0,0E0,0E0,0E0,0E0,0E0,0E0,0E0,0E0,0E0,0E0,0E0,0E0,0E0,0E0,0E0,0E0,0E0],"parents":[2147483647,0,0,1,1,2,2,3,3,4,4,5,5,6,6,7,7,8,8,9,9,10,10,11,11,12,12,13,13,14,14,15,15,16,16,17,17,18,18,19,19,20,20,21,21,23,23,24,24,25,25,26,26,29,29,30,30,31,31,32,32,34,34,37,37,39,39,41,41,42,42,44,44,45,45,46,46,47,47,48,48,49,49,50,50,51,51,53,53,55,55,56,56],"right_children":[2,4,6,8,10,12,14,16,18,20,22,24,26,28,30,32,34,36,38,40,42,44,-1,46,48,50,52,-1,-1,54,56,58,60,-1,62,-1,-1,64,-1,66,-1,68,70,-1,72,74,76,78,80,82,84,86,-1,88,-1,90,92,-1,-1,-1,-1,-1,-1,-1,-1,-1,-1,-1,-1,-1,-1,-1,-1,-1,-1,-1,-1,-1,-1,-1,-1,-1,-1,-1,-1,-1,-1,-1,-1,-1,-1,-1,-1],"split_conditions":[-5.8592427E-1,-3.893516E-1,1.2307858E0,7.387886E-1,1.326452E0,-7.605136E-1,-1.9820964E-1,1.3745868E-1,-4.8824587E-1,-2.2131158E-1,1.8867822E0,5.2378714E-1,1.5256611E0,1.5602767E0,-5.498577E-1,-1.0404345E0,-3.3224186E-1,1.3674518E0,7.383937E-1,1.1531632E0,4.1953686E-1,-3.2828006E-1,-5.3319592E-2,-1.1335695E0,1.4198972E-1,9.3776995E-1,6.704557E-1,-7.657046E-2,-2.1201065E-2,3.015554E-1,8.031942E-1,-7.165384E-1,-8.602024E-1,-4.0495437E-2,-3.7614572E-1,4.963217E-2,-5.0700646E-2,-3.1144243E-1,-7.513453E-2,-3.2530874E-1,3.2618813E-2,-1.2820938E-1,7.602345E-1,-1.3006137E-3,1.558784E0,-1.7971273E-1,-6.0484135E-1,-8.353193E-1,7.3970073E-1,8.506755E-2,-1.3765814E0,-1.0404345E0,7.825567E-2,9.5933557E-1,-1.4221321E-2,-9.859926E-2,2.0181665E0,-3.2250356E-2,7.348544E-2,2.3501374E-2,-4.0705252E-2,1.0102259E-2,6.9955185E-2,3.3657096E-2,-5.9045937E-2,-3.191593E-2,-6.923638E-2,-5.022109E-3,-5.570954E-2,2.6062924E-2,-2.814968E-2,2.662426E-2,7.5757615E-2,7.001071E-2,9.792237E-3,-1.4011137E-2,-6.1317384E-2,6.611979E-2,5.3016893E-3,3.091289E-2,-6.733056E-2,3.260591E-2,1.2661581E-2,2.614517E-2,-5.2706342E-2,5.286779E-2,-5.8938554E-3,7.265222E-2,1.5723104E-2,4.549692E-2,-5.0322212E-2,-7.385708E-2,1.4694124E-2],"split_indices":[4,0,2,2,2,6,6,2,6,3,2,0,7,4,0,0,3,2,7,0,7,3,0,0,1,2,2,0,0,5,6,4,2,0,5,0,0,3,0,3,0,3,7,0,2,3,2,6,0,5,7,0,0,7,0,1,6,0,0,0,0,0,0,0,0,0,0,0,0,0,0,0,0,0,0,0,0,0,0,0,0,0,0,0,0,0,0,0,0,0,0,0,0],"split_type":[0,0,0,0,0,0,0,0,0,0,0,0,0,0,0,0,0,0,0,0,0,0,0,0,0,0,0,0,0,0,0,0,0,0,0,0,0,0,0,0,0,0,0,0,0,0,0,0,0,0,0,0,0,0,0,0,0,0,0,0,0,0,0,0,0,0,0,0,0,0,0,0,0,0,0,0,0,0,0,0,0,0,0,0,0,0,0,0,0,0,0,0,0],"sum_hessian":[6.776535E2,1.8768967E2,4.8996387E2,5.2602745E1,1.3508691E2,4.360935E2,5.387036E1,3.7966568E1,1.4636175E1,1.2232665E2,1.2760259E1,8.02535E1,3.5584E2,1.8123518E1,3.5746845E1,2.65699E1,1.1396668E1,3.6789865E0,1.0957189E1,5.265901E1,6.966765E1,9.611706E0,3.148553E0,6.6996445E1,1.3257059E1,3.38053E2,1.778697E1,1.694969E1,1.1738278E0,8.405668E0,2.7341177E1,4.2210364E0,2.2348866E1,1.7256519E0,9.671017E0,2.2262988E0,1.4526879E0,3.9403327E0,7.016856E0,5.1409966E1,1.249046E0,3.6697384E1,3.2970264E1,1.4769624E0,8.134744E0,3.9801507E0,6.3016293E1,8.07937E0,5.1776896E0,3.1886093E2,1.91921E1,2.7243922E0,1.5062578E1,7.1599755E0,1.2456928E0,1.134113E1,1.6000048E1,1.2389798E0,2.9820569E0,5.4347296E0,1.6914135E1,1.7343113E0,7.936705E0,1.9814041E0,1.9589286E0,9.490935E0,4.191903E1,5.9011707E0,3.0796211E1,8.925064E0,2.4045198E1,2.9827585E0,5.151985E0,2.7417827E0,1.2383679E0,4.99205E1,1.3095792E1,6.845023E0,1.2343467E0,2.9670575E0,2.2106323E0,1.9456837E2,1.2429255E2,6.224597E0,1.2967504E1,1.2460924E0,1.4782997E0,4.4248857E0,2.73509E0,4.4476085E0,6.8935223E0,1.3279007E1,2.7210395E0],"tree_param":{"num_deleted":"0","num_feature":"11","num_nodes":"93","size_leaf_vector":"1"}},{"base_weights":[6.2304614E-3,-7.2134477E-1,1.629736E-1,-9.140703E-1,-2.0164117E-1,2.2064093E-1,-1.3465983E0,-4.6396476E-1,-1.1050698E0,6.329345E-1,-4.3898645E-1,-2.0396803E-1,3.8291344E-1,-7.375263E-2,-5.881606E-1,6.576118E-1,-6.390703E-1,1.3470135E-2,-1.1383903E0,1.0381402E0,-4.446348E-2,1.0017744E0,-6.622313E-1,-1.0700137E-1,-7.1587265E-2,6.1242025E-2,5.798332E-1,1.2763338E-2,-4.7920313E-2,1.4444984E-3,5.9973724E-2,-8.780422E-1,2.632697E-1,-1.332891E0,-8.883194E-1,6.705817E-2,-8.47183E-3,1.2049927E-2,6.2833965E-2,3.007535E-1,-1.013067E0,-1.2111404E0,1.3373625E-2,2.6178426E-1,-3.2746968E-1,5.033572E-1,1.1988814E0,-2.5257492E-2,-6.857999E-2,5.0578326E-2,-2.2760747E-2,-7.013836E-2,-9.906905E-3,1.0075168E-3,-5.053171E-2,-3.1853285E-2,5.9822973E-2,-6.2900625E-2,8.087465E-3,-7.113143E-2,-2.9588846E-2,-8.32771E-3,2.2567702E-2,3.182381E-2,-1.1679366E-3,2.3670778E-2,-3.2352697E-2,3.1077022E-2,-9.446601E-3,-7.279915E-3,6.364942E-2],"categories":[],"categories_nodes":[],"categories_segments":[],"categories_sizes":[],"default_left":[0,0,0,0,0,0,0,0,0,0,0,0,0,0,0,0,0,0,0,0,0,0,0,0,0,0,0,0,0,0,0,0,0,0,0,0,0,0,0,0,0,0,0,0,0,0,0,0,0,0,0,0,0,0,0,0,0,0,0,0,0,0,0,0,0,0,0,0,0,0,0],"id":8,"left_children":[1,3,5,7,9,11,13,15,17,19,21,23,25,-1,27,29,31,-1,33,35,-1,37,39,41,-1,43,45,-1,-1,-1,-1,47,49,51,53,-1,-1,-1,-1,55,57,59,61,63,65,67,69,-1,-1,-1,-1,-1,-1,-1,-1,-1,-1,-1,-1,-1,-1,-1,-1,-1,-1,-1,-1,-1,-1,-1,-1],"loss_changes":[7.674179E1,1.1762341E1,4.849111E1,6.9431305E0,6.923383E0,3.6879234E1,1.1307411E0,5.833152E0,3.0621185E0,5.7577314E0,9.254887E0,1.7506292E1,2.4464031E1,0E0,1.6917218E0,1.4012383E0,5.4811106E0,0E0,1.6823654E0,2.661221E0,0E0,4.692738E-1,8.321743E0,1.8431747E1,0E0,1.1621527E1,1.0748711E1,0E0,0E0,0E0,0E0,2.8922138E0,3.614867E0,2.1921005E0,3.2184944E0,0E0,0E0,0E0,0E0,6.732791E0,5.274481E0,9.4368935E-1,9.998616E0,1.0504049E1,1.3310639E1,1.7720116E1,2.7402153E0,0E0,0E0,0E0,0E0,0E0,0E0,0E0,0E0,0E0,0E0,0E0,0E0,0E0,0E0,0E0,0E0,0E0,0E0,0E0,0E0,0E0,0E0,0E0,0E0],"parents":[2147483647,0,0,1,1,2,2,3,3,4,4,5,5,6,6,7,7,8,8,9,9,10,10,11,11,12,12,14,14,15,15,16,16,18,18,19,19,21,21,22,22,23,23,25,25,26,26,31,31,32,32,33,33,34,34,39,39,40,40,41,41,42,42,43,43,44,44,45,45,46,46],"right_children":[2,4,6,8,10,12,14,16,18,20,22,24,26,-1,28,30,32,-1,34,36,-1,38,40,42,-1,44,46,-1,-1,-1,-1,48,50,52,54,-1,-1,-1,-1,56,58,60,62,64,66,68,70,-1,-1,-1,-1,-1,-1,-1,-1,-1,-1,-1,-1,-1,-1,-1,-1,-1,-1,-1,-1,-1,-1,-1,-1],"split_conditions":[-6.799653E-1,1.9212504E-1,2.1054475E0,-8.602024E-1,8.2402E-1,-6.3259673E-1,3.948251E-1,-5.1119375E-1,-1.0055304E0,2.6111114E0,3.2879093E-1,1.7845845E-1,-1.3740963E-1,-7.375263E-2,2.3651128E0,-9.677892E-1,-9.050872E-1,1.3470135E-2,3.775212E-1,3.5332423E-1,-4.446348E-2,2.60458E-1,-3.8172838E-1,-1.440367E0,-7.1587265E-2,5.707183E-1,1.3343045E0,1.2763338E-2,-4.7920313E-2,1.4444984E-3,5.9973724E-2,3.7574813E-1,-9.250759E-1,-5.461836E-2,-1.1536871E0,6.705817E-2,-8.47183E-3,1.2049927E-2,6.2833965E-2,6.991377E-1,-6.912526E-1,3.0543816E-1,2.4500617E-1,3.6410713E-1,4.0571347E-2,7.1145546E-1,7.902961E-2,-2.5257492E-2,-6.857999E-2,5.0578326E-2,-2.2760747E-2,-7.013836E-2,-9.906905E-3,1.0075168E-3,-5.053171E-2,-3.1853285E-2,5.9822973E-2,-6.2900625E-2,8.087465E-3,-7.113143E-2,-2.9588846E-2,-8.32771E-3,2.2567702E-2,3.182381E-2,-1.1679366E-3,2.3670778E-2,-3.2352697E-2,3.1077022E-2,-9.446601E-3,-7.279915E-3,6.364942E-2],"split_indices":[4,2,2,2,7,6,7,0,0,2,2,2,4,0,2,2,2,0,7,5,0,2,6,7,0,2,7,0,0,0,0,10,6,6,6,0,0,0,0,9,4,0,0,10,6,2,9,0,0,0,0,0,0,0,0,0,0,0,0,0,0,0,0,0,0,0,0,0,0,0,0],"split_type":[0,0,0,0,0,0,0,0,0,0,0,0,0,0,0,0,0,0,0,0,0,0,0,0,0,0,0,0,0,0,0,0,0,0,0,0,0,0,0,0,0,0,0,0,0,0,0,0,0,0,0,0,0,0,0,0,0,0,0,0,0,0,0,0,0,0,0,0,0,0,0],"sum_hessian":[6.708924E2,1.18275475E2,5.526169E2,8.5726166E1,3.2549305E1,5.331055E2,1.9511387E1,2.656135E1,5.9164818E1,6.8380365E0,2.571127E1,1.4733243E2,3.857731E2,1.5877422E1,3.633964E0,3.214769E0,2.334658E1,1.2326522E0,5.7932163E1,5.6516013E0,1.1864353E0,2.9815886E0,2.2729681E1,1.3755577E2,9.7766485E0,1.4698381E2,2.3878928E2,1.2033212E0,2.4306428E0,1.9756933E0,1.2390757E0,1.847948E1,4.8671002E0,3.0151115E1,2.778105E1,4.429469E0,1.222132E0,1.2365352E0,1.7450534E0,6.107733E0,1.6621948E1,1.2631551E1,1.24924225E2,9.717586E1,4.980796E1,2.1414708E2,2.4642195E1,1.1679145E1,6.8003364E0,2.1842754E0,2.6828249E0,2.817967E1,1.9714434E0,3.3956664E0,2.4385384E1,3.1247852E0,2.9829473E0,1.3695635E1,2.9263139E0,8.44947E0,4.1820807E0,8.8986984E1,3.5937244E1,4.1461407E1,5.571445E1,1.4069111E1,3.573885E1,1.830074E2,3.1139673E1,1.2369126E0,2.3405283E1],"tree_param":{"num_deleted":"0","num_feature":"11","num_nodes":"71","size_leaf_vector":"1"}},{"base_weights":[7.1349705E-4,-5.7781005E-1,2.0111427E-1,6.926022E-1,-6.214787E-1,2.904713E-1,-6.6108286E-1,5.0600242E-2,1.4907801E-1,-7.636849E-1,-2.749958E-1,-7.963585E-2,4.234755E-1,-7.246658E-2,-2.6541415E-1,-2.3937972E-2,3.4848835E-2,-4.2734504E-1,-9.2224324E-1,-6.746926E-5,-1.0997723E0,-7.6593724E-3,-7.0976235E-2,1.0912822E-1,5.682672E-1,2.84564E-1,-6.217355E-1,-1.8173364E-1,-9.275683E-1,-6.3085127E-1,-1.185593E0,-3.565528E-1,8.308533E-1,-1.0165777E-2,-1.2455323E0,-2.9175317E-1,2.635129E-1,4.4551343E-1,-1.4556086E-1,-7.1882164E-1,6.109892E-1,-3.417079E-1,6.3455963E-1,-1.0225283E-1,-7.330142E-2,-2.7394215E-2,3.996705E-2,-5.7144213E-2,1.4388682E-2,-6.487691E-2,-1.4821112E-2,-6.102633E-2,-1.687807E-3,4.708698E-2,-3.421487E-2,-2.8836144E-2,5.8619864E-2,-7.2128914E-2,-2.0648066E-2,-6.4058887E-4,-5.748531E-2,-6.668299E-3,2.9927243E-2,3.0944794E-2,-4.3393865E-2,-4.2109773E-2,2.3938087E-3,-6.555457E-2,8.334658E-3,4.0644113E-2,2.427043E-2,5.3828187E-2,-5.7193644E-2,5.370711E-2,-1.7914396E-2,-5.7956614E-2,3.6172934E-2],"categories":[],"categories_nodes":[],"categories_segments":[],"categories_sizes":[],"default_left":[0,0,0,0,0,0,0,0,0,0,0,0,0,0,0,0,0,0,0,0,0,0,0,0,0,0,0,0,0,0,0,0,0,0,0,0,0,0,0,0,0,0,0,0,0,0,0,0,0,0,0,0,0,0,0,0,0,0,0,0,0,0,0,0,0,0,0,0,0,0,0,0,0,0,0,0,0],"id":9,"left_children":[1,3,5,7,9,11,13,-1,15,17,19,21,23,-1,25,-1,-1,27,29,31,33,35,-1,37,39,41,43,45,47,49,51,53,55,-1,57,59,61,63,65,67,69,71,73,75,-1,-1,-1,-1,-1,-1,-1,-1,-1,-1,-1,-1,-1,-1,-1,-1,-1,-1,-1,-1,-1,-1,-1,-1,-1,-1,-1,-1,-1,-1,-1,-1,-1],"loss_changes":[7.689299E1,9.896854E0,3.8143185E1,9.1564584E-1,7.9441566E0,2.2039219E1,1.4137663E1,0E0,1.5193084E0,5.8332977E0,1.12742405E1,1.1467524E1,1.4912899E1,0E0,6.492165E0,0E0,0E0,4.6568666E0,5.275757E0,1.1638237E1,1.3709774E0,8.856043E0,0E0,9.059979E0,1.28122635E1,3.1443472E0,8.564909E0,1.0347229E1,3.6497116E0,8.40033E0,1.5721359E0,1.2343523E1,6.3469925E0,0E0,1.1262913E0,1.341769E1,7.902351E0,1.08953495E1,8.193815E0,4.2508736E0,5.140915E0,7.4183445E0,4.276913E0,1.2511592E1,0E0,0E0,0E0,0E0,0E0,0E0,0E0,0E0,0E0,0E0,0E0,0E0,0E0,0E0,0E0,0E0,0E0,0E0,0E0,0E0,0E0,0E0,0E0,0E0,0E0,0E0,0E0,0E0,0E0,0E0,0E0,0E0,0E0],"parents":[2147483647,0,0,1,1,2,2,3,3,4,4,5,5,6,6,8,8,9,9,10,10,11,11,12,12,14,14,17,17,18,18,19,19,20,20,21,21,23,23,24,24,25,25,26,26,27,27,28,28,29,29,30,30,31,31,32,32,34,34,35,35,36,36,37,37,38,38,39,39,40,40,41,41,42,42,43,43],"right_children":[2,4,6,8,10,12,14,-1,16,18,20,22,24,-1,26,-1,-1,28,30,32,34,36,-1,38,40,42,44,46,48,50,52,54,56,-1,58,60,62,64,66,68,70,72,74,76,-1,-1,-1,-1,-1,-1,-1,-1,-1,-1,-1,-1,-1,-1,-1,-1,-1,-1,-1,-1,-1,-1,-1,-1,-1,-1,-1,-1,-1,-1,-1,-1,-1],"split_conditions":[-6.128605E-1,-1.2326846E0,1.326452E0,2.6300645E-2,1.7845845E-1,-6.3259673E-1,-1.517956E0,5.0600242E-2,5.7897115E-1,-8.602024E-1,1.8321158E0,1.7845845E-1,-1.6856016E-1,-7.246658E-2,-1.742394E-1,-2.3937972E-2,3.4848835E-2,-7.8518087E-1,-6.1795615E-2,1.2991188E0,-3.2828006E-1,3.7574813E-1,-7.0976235E-2,-1.742394E-1,-1.6859491E0,-1.9042742E-1,7.800052E-1,-8.7387574E-1,5.3451514E-1,-2.6489136E-1,9.721971E-1,3.2879093E-1,-3.977359E-1,-1.0165777E-2,2.2864795E0,7.902961E-2,-5.8749086E-1,9.57454E-1,-3.3143628E-1,3.7574813E-1,-2.3260485E-1,1.817777E-2,1.5637987E0,-6.0628843E-2,-7.330142E-2,-2.7394215E-2,3.996705E-2,-5.7144213E-2,1.4388682E-2,-6.487691E-2,-1.4821112E-2,-6.102633E-2,-1.687807E-3,4.708698E-2,-3.421487E-2,-2.8836144E-2,5.8619864E-2,-7.2128914E-2,-2.0648066E-2,-6.4058887E-4,-5.748531E-2,-6.668299E-3,2.9927243E-2,3.0944794E-2,-4.3393865E-2,-4.2109773E-2,2.3938087E-3,-6.555457E-2,8.334658E-3,4.0644113E-2,2.427043E-2,5.3828187E-2,-5.7193644E-2,5.370711E-2,-1.7914396E-2,-5.7956614E-2,3.6172934E-2],"split_indices":[4,5,2,3,2,6,10,0,3,2,2,2,4,0,10,0,0,6,5,2,3,10,0,10,9,4,6,6,5,3,5,2,5,0,8,9,8,2,5,10,5,6,6,6,0,0,0,0,0,0,0,0,0,0,0,0,0,0,0,0,0,0,0,0,0,0,0,0,0,0,0,0,0,0,0,0,0],"split_type":[0,0,0,0,0,0,0,0,0,0,0,0,0,0,0,0,0,0,0,0,0,0,0,0,0,0,0,0,0,0,0,0,0,0,0,0,0,0,0,0,0,0,0,0,0,0,0,0,0,0,0,0,0,0,0,0,0,0,0,0,0,0,0,0,0,0,0,0,0,0,0,0,0,0,0,0,0],"sum_hessian":[6.6123096E2,1.6963623E2,4.9159473E2,5.1434026E0,1.6449283E2,4.4603168E2,4.5563053E1,2.696733E0,2.4466698E0,1.1577246E2,4.872037E1,1.18020515E2,3.2801117E2,1.4337327E1,3.1225727E1,1.1989648E0,1.247705E0,3.8275726E1,7.7496735E1,3.7290245E1,1.1430127E1,1.12958305E2,5.062206E0,1.03992966E2,2.2401819E2,1.2355906E1,1.8869822E1,2.658547E1,1.1690256E1,3.840156E1,3.9095173E1,2.6494394E1,1.0795849E1,1.9335048E0,9.496623E0,5.512777E1,5.7830536E1,4.4486877E1,5.9506092E1,6.6884704E0,2.1732973E2,4.4381285E0,7.917777E0,1.2376083E1,6.493737E0,1.968158E1,6.9038916E0,9.981503E0,1.7087533E0,1.1866248E1,2.6535315E1,3.7886497E1,1.2086761E0,4.962618E0,2.1531776E1,1.9736086E0,8.822241E0,7.0867186E0,2.4099042E0,4.2367874E1,1.2759894E1,2.6747442E1,3.1083094E1,3.9766083E1,4.7207937E0,1.2203427E1,4.7302666E1,3.7198682E0,2.9686022E0,8.1243484E1,1.3608624E2,1.4797596E0,2.958369E0,5.4312253E0,2.4865518E0,5.2510896E0,7.124994E0],"tree_param":{"num_deleted":"0","num_feature":"11","num_nodes":"77","size_leaf_vector":"1"}},{"base_weights":[-1.346093E-3,-6.8189913E-1,1.4627846E-1,-8.2667583E-1,-2.6752925E-1,2.0579106E-1,-1.3364539E0,-6.950213E-1,-6.946599E-2,7.517705E-1,-4.5037234E-1,-5.2324034E-2,4.2036211E-1,-7.193407E-2,5.275754E-4,-5.562166E-1,-1.2683866E0,-1.3262977E-2,5.6817096E-2,2.1086033E-1,-8.331116E-1,8.584294E-1,-1.4733133E-1,-1.0070649E-1,5.231898E-1,-2.3215114E-1,-9.232852E-1,-2.9119357E-1,-7.286396E-2,-6.343491E-1,6.3586876E-2,3.8155556E-2,-9.9100894E-1,-1.24266185E-1,1.0289668E0,-5.1946506E-2,-5.463691E-1,1.3128702E-1,-6.839698E-2,-5.015785E-1,5.6973374E-1,-1.8744515E-2,2.5168438E-2,3.1609207E-3,-5.9533637E-2,2.1701168E-2,-4.452625E-2,1.00071905E-2,-4.78654E-2,2.5063539E-2,-2.4755888E-2,-5.4824747E-2,-8.593944E-3,-4.8603203E-2,5.2897375E-2,2.4278242E-2,6.807097E-2,-5.1573105E-3,6.2622696E-2,1.6691808E-2,-4.3240592E-2,-4.1998453E-2,2.0421317E-2,-7.2906926E-2,2.3270531E-4,4.0770885E-2,2.0504985E-2],"categories":[],"categories_nodes":[],"categories_segments":[],"categories_sizes":[],"default_left":[0,0,0,0,0,0,0,0,0,0,0,0,0,0,0,0,0,0,0,0,0,0,0,0,0,0,0,0,0,0,0,0,0,0,0,0,0,0,0,0,0,0,0,0,0,0,0,0,0,0,0,0,0,0,0,0,0,0,0,0,0,0,0,0,0,0,0],"id":10,"left_children":[1,3,5,7,9,11,13,15,-1,17,19,21,23,-1,-1,25,27,-1,-1,29,31,33,35,37,39,41,43,45,-1,47,-1,49,51,53,55,57,59,61,-1,63,65,-1,-1,-1,-1,-1,-1,-1,-1,-1,-1,-1,-1,-1,-1,-1,-1,-1,-1,-1,-1,-1,-1,-1,-1,-1,-1],"loss_changes":[6.584305E1,6.7871056E0,4.7798225E1,5.4118614E0,6.2514935E0,2.87466E1,2.8952637E0,5.00642E0,0E0,2.3353155E0,7.1420107E0,2.0575045E1,1.5233143E1,0E0,0E0,6.870966E0,2.013523E0,0E0,0E0,1.0571084E1,2.464097E0,3.8935738E0,8.149359E0,1.4154205E1,1.157975E1,3.650207E0,7.3536415E0,1.85959E0,0E0,2.0048661E0,0E0,1.154257E0,1.1048584E0,5.25309E0,2.8174915E0,1.1783669E1,1.1877387E1,1.1403719E1,0E0,5.2459E0,8.567184E0,0E0,0E0,0E0,0E0,0E0,0E0,0E0,0E0,0E0,0E0,0E0,0E0,0E0,0E0,0E0,0E0,0E0,0E0,0E0,0E0,0E0,0E0,0E0,0E0,0E0,0E0],"parents":[2147483647,0,0,1,1,2,2,3,3,4,4,5,5,6,6,7,7,9,9,10,10,11,11,12,12,15,15,16,16,19,19,20,20,21,21,22,22,23,23,24,24,25,25,26,26,27,27,29,29,31,31,32,32,33,33,34,34,35,35,36,36,37,37,39,39,40,40],"right_children":[2,4,6,8,10,12,14,16,-1,18,20,22,24,-1,-1,26,28,-1,-1,30,32,34,36,38,40,42,44,46,-1,48,-1,50,52,54,56,58,60,62,-1,64,66,-1,-1,-1,-1,-1,-1,-1,-1,-1,-1,-1,-1,-1,-1,-1,-1,-1,-1,-1,-1,-1,-1,-1,-1,-1,-1],"split_conditions":[-6.799653E-1,1.9212504E-1,2.1054475E0,-3.6820513E-1,3.2879093E-1,-1.6856016E-1,1.5912408E0,2.1707797E-1,-6.946599E-2,1.6334119E0,-3.3807656E-1,-1.0055304E0,-6.3259673E-1,-7.193407E-2,5.275754E-4,4.0358096E-2,1.1560732E-1,-1.3262977E-2,5.6817096E-2,6.991377E-1,3.1149983E-1,-8.902425E-1,5.707183E-1,1.7845845E-1,-1.6859491E0,-5.322042E-1,-3.893516E-1,-7.682203E-1,-7.286396E-2,-1.0404345E0,6.3586876E-2,6.991377E-1,3.745024E-1,-2.6805532E-1,7.4142935E-3,1.0574577E0,7.0197E-2,-9.522806E-1,-6.839698E-2,-1.2873804E-2,-2.3260485E-1,-1.8744515E-2,2.5168438E-2,3.1609207E-3,-5.9533637E-2,2.1701168E-2,-4.452625E-2,1.00071905E-2,-4.78654E-2,2.5063539E-2,-2.4755888E-2,-5.4824747E-2,-8.593944E-3,-4.8603203E-2,5.2897375E-2,2.4278242E-2,6.807097E-2,-5.1573105E-3,6.2622696E-2,1.6691808E-2,-4.3240592E-2,-4.1998453E-2,2.0421317E-2,-7.2906926E-2,2.3270531E-4,4.0770885E-2,2.0504985E-2],"split_indices":[4,2,2,2,2,4,8,0,0,6,6,0,6,0,0,5,8,0,0,9,8,10,2,2,9,2,0,6,0,0,0,9,5,8,5,0,6,2,0,2,5,0,0,0,0,0,0,0,0,0,0,0,0,0,0,0,0,0,0,0,0,0,0,0,0,0,0],"split_type":[0,0,0,0,0,0,0,0,0,0,0,0,0,0,0,0,0,0,0,0,0,0,0,0,0,0,0,0,0,0,0,0,0,0,0,0,0,0,0,0,0,0,0,0,0,0,0,0,0,0,0,0,0,0,0,0,0,0,0,0,0,0,0,0,0,0,0],"sum_hessian":[6.533814E2,1.1582162E2,5.375598E2,8.509518E1,3.0726435E1,5.176442E2,1.9915537E1,7.077064E1,1.4324543E1,4.2001576E0,2.6526278E1,2.3532257E2,2.823217E2,1.8447458E1,1.4680791E0,5.8563286E1,1.2207352E1,1.2375649E0,2.9625926E0,9.889659E0,1.663662E1,2.1470255E1,2.1385231E2,4.653434E1,2.3578734E2,3.1970587E1,2.6592697E1,2.3891578E0,9.818193E0,5.728093E0,4.161566E0,2.668786E0,1.3967833E1,3.2150939E0,1.8255161E1,1.7350772E2,4.0344597E1,4.0091206E1,6.4431357E0,9.819209E0,2.2596814E2,2.718518E1,4.785405E0,5.833621E0,2.0759077E1,1.205849E0,1.1833088E0,1.7043935E0,4.0236998E0,1.4604694E0,1.2083167E0,1.2074316E1,1.8935164E0,1.9758891E0,1.2392048E0,7.8631706E0,1.0391991E1,1.6784064E2,5.6670766E0,1.0705438E1,2.963916E1,8.449262E0,3.1641943E1,2.747415E0,7.0717945E0,8.737935E1,1.3858878E2],"tree_param":{"num_deleted":"0","num_feature":"11","num_nodes":"67","size_leaf_vector":"1"}},{"base_weights":[3.8044956E-3,6.0976148E-2,-1.126786E0,1.5201323E-1,-3.653244E-1,-6.132312E-1,-7.034298E-2,1.1363016E0,1.1947868E-1,-2.2833626E-1,-8.1010735E-1,-5.606961E-2,-6.449079E-2,7.825985E-2,-2.9924572E-1,2.085377E-2,3.8999552E-1,-1.2645864E-1,-7.604722E-1,2.795403E-2,-9.3251616E-1,4.7275823E-2,-8.1171685E-1,-4.2057328E-2,1.9554168E-2,1.5743084E-1,-4.7387213E-1,2.259567E-1,1.0810328E0,-4.453509E-1,1.08199656E-1,2.011731E-2,-1.0178087E0,-1.1400973E0,-9.5189646E-2,1.0408475E-2,-5.8754202E-2,1.6510544E-2,-1.8885914E-3,-3.1055713E-2,1.8211028E-2,1.6296819E-2,-3.7224725E-2,7.048967E-2,-4.4349603E-2,3.7807595E-2,-2.8759385E-2,9.285982E-3,-4.5972344E-2,5.4936385E-4,-5.8682043E-2,-7.2851465E-3,-6.387206E-2,2.8911382E-2,-4.2937543E-2],"categories":[],"categories_nodes":[],"categories_segments":[],"categories_sizes":[],"default_left":[0,0,0,0,0,0,0,0,0,0,0,0,0,0,0,0,0,0,0,0,0,0,0,0,0,0,0,0,0,0,0,0,0,0,0,0,0,0,0,0,0,0,0,0,0,0,0,0,0,0,0,0,0,0,0],"id":11,"left_children":[1,3,5,7,9,11,-1,13,15,17,19,21,-1,-1,23,25,27,29,31,-1,33,-1,35,-1,-1,37,39,41,43,45,47,-1,49,51,53,-1,-1,-1,-1,-1,-1,-1,-1,-1,-1,-1,-1,-1,-1,-1,-1,-1,-1,-1,-1],"loss_changes":[4.2453636E1,2.4315771E1,3.6844482E0,1.6382515E1,6.5354166E0,4.801652E0,0E0,1.0557716E1,1.3343256E1,4.5508447E0,4.808386E0,6.9251366E0,0E0,0E0,2.0531788E0,2.4925293E1,1.49054165E1,5.5215893E0,4.4714293E0,0E0,4.0377064E0,0E0,2.162578E0,0E0,0E0,9.758594E0,1.0075836E1,1.0844753E1,1.7668026E1,5.302452E0,3.591621E0,0E0,1.8402023E0,2.4121284E0,3.4943306E0,0E0,0E0,0E0,0E0,0E0,0E0,0E0,0E0,0E0,0E0,0E0,0E0,0E0,0E0,0E0,0E0,0E0,0E0,0E0,0E0],"parents":[2147483647,0,0,1,1,2,2,3,3,4,4,5,5,7,7,8,8,9,9,10,10,11,11,14,14,15,15,16,16,17,17,18,18,20,20,22,22,25,25,26,26,27,27,28,28,29,29,30,30,32,32,33,33,34,34],"right_children":[2,4,6,8,10,12,-1,14,16,18,20,22,-1,-1,24,26,28,30,32,-1,34,-1,36,-1,-1,38,40,42,44,46,48,-1,50,52,54,-1,-1,-1,-1,-1,-1,-1,-1,-1,-1,-1,-1,-1,-1,-1,-1,-1,-1,-1,-1],"split_conditions":[1.9414485E0,4.4128727E-2,-1.6859491E0,-1.7834367E0,1.1623455E0,-2.3454489E-1,-7.034298E-2,1.558784E0,4.970534E-1,1.3220515E0,-9.2677784E-1,6.3266337E-1,-6.449079E-2,7.825985E-2,-4.665594E-1,7.9212725E-1,1.2705189E0,-2.895019E-1,-1.517956E0,2.795403E-2,3.015554E-1,4.7275823E-2,-3.7970989E0,-4.2057328E-2,1.9554168E-2,-1.6268103E-1,1.2991188E0,6.8412226E-1,-8.902425E-1,-8.2256794E-1,5.8393085E-1,2.011731E-2,-6.5069526E-1,-9.018581E-1,4.5921504E-1,1.0408475E-2,-5.8754202E-2,1.6510544E-2,-1.8885914E-3,-3.1055713E-2,1.8211028E-2,1.6296819E-2,-3.7224725E-2,7.048967E-2,-4.4349603E-2,3.7807595E-2,-2.8759385E-2,9.285982E-3,-4.5972344E-2,5.4936385E-4,-5.8682043E-2,-7.2851465E-3,-6.387206E-2,2.8911382E-2,-4.2937543E-2],"split_indices":[2,3,9,0,3,1,0,2,0,9,5,7,0,0,1,7,7,7,10,0,5,0,1,0,0,9,2,2,10,0,5,0,0,10,5,0,0,0,0,0,0,0,0,0,0,0,0,0,0,0,0,0,0,0,0],"split_type":[0,0,0,0,0,0,0,0,0,0,0,0,0,0,0,0,0,0,0,0,0,0,0,0,0,0,0,0,0,0,0,0,0,0,0,0,0,0,0,0,0,0,0,0,0,0,0,0,0,0,0,0,0,0,0],"sum_hessian":[6.547305E2,6.2411633E2,3.0614223E1,5.1481934E2,1.09296974E2,1.1929439E1,1.8684784E1,1.5386795E1,4.9943256E2,8.471811E1,2.4578863E1,7.1359315E0,4.7935066E0,1.1777689E1,3.6091068E0,3.667867E2,1.3264584E2,7.21438E1,1.2574312E1,1.7243251E0,2.2854538E1,2.9605503E0,4.175381E0,1.899527E0,1.7095798E0,2.879698E2,7.8816925E1,1.0827132E2,2.4374529E1,3.0202208E1,4.194159E1,2.1763964E0,1.0397916E1,1.8024502E1,4.8300357E0,1.2090292E0,2.9663517E0,1.5239157E2,1.3557822E2,6.725924E1,1.155769E1,9.8760735E1,9.51058E0,2.112862E1,3.245908E0,2.474984E0,2.7727224E1,3.976148E1,2.1801097E0,1.4900656E0,8.90785E0,2.4374917E0,1.558701E1,2.6954904E0,2.1345456E0],"tree_param":{"num_deleted":"0","num_feature":"11","num_nodes":"55","size_leaf_vector":"1"}},{"base_weights":[-8.684219E-4,-3.0626035E-1,2.210129E-1,-4.4118175E-1,4.6779394E-2,2.98475E-1,-1.051039E0,3.4401298E-1,-5.4097056E-1,2.7035657E-1,-9.2666644E-1,4.23445E-1,-5.145727E-2,3.0113233E-2,-1.1765366E0,7.2858924E-1,-5.2925516E-2,-6.975637E-2,-4.7140563E-1,4.914388E-1,-3.2489818E-1,-3.7902076E-2,-7.548429E-2,1.040149E0,3.4366634E-1,-7.366208E-1,1.0391099E-1,-1.2279192E0,-9.164183E-3,1.3003736E0,1.5459387E-1,-2.201517E-1,-6.692962E-1,-9.098495E-2,7.3490095E-1,-1.120469E0,2.4411777E-1,-4.9628E-2,4.8171785E-2,-6.3412994E-2,1.1491321E0,6.062151E-2,5.0277305E-1,-6.8670236E-2,-3.2850912E-1,5.5373704E-1,-3.8319364E-1,-6.417271E-2,-2.2653105E-2,8.891026E-3,7.657436E-2,6.238256E-2,-1.6419256E-2,-3.347738E-2,7.4789175E-3,-4.3521654E-2,-1.7003197E-2,1.3084628E-2,-5.2628864E-2,1.813872E-2,5.4247398E-2,-7.172253E-2,-9.951454E-3,2.9143615E-2,-3.9095532E-2,2.5016678E-2,-2.7454147E-2,6.1245244E-2,-5.1912647E-3,1.2949987E-2,-2.4925416E-2,3.0105138E-2,-8.41974E-3,7.4239112E-3,-5.0828714E-2,4.64583E-2,4.088696E-3,-3.4197275E-2,2.0588791E-2],"categories":[],"categories_nodes":[],"categories_segments":[],"categories_sizes":[],"default_left":[0,0,0,0,0,0,0,0,0,0,0,0,0,0,0,0,0,0,0,0,0,0,0,0,0,0,0,0,0,0,0,0,0,0,0,0,0,0,0,0,0,0,0,0,0,0,0,0,0,0,0,0,0,0,0,0,0,0,0,0,0,0,0,0,0,0,0,0,0,0,0,0,0,0,0,0,0,0,0],"id":12,"left_children":[1,3,5,7,9,11,13,15,17,19,21,23,25,-1,27,29,-1,-1,31,33,35,37,-1,39,41,43,45,47,-1,49,51,53,55,57,59,61,63,-1,-1,65,67,69,71,-1,73,75,77,-1,-1,-1,-1,-1,-1,-1,-1,-1,-1,-1,-1,-1,-1,-1,-1,-1,-1,-1,-1,-1,-1,-1,-1,-1,-1,-1,-1,-1,-1,-1,-1],"loss_changes":[4.476366E1,1.3262068E1,3.801583E1,1.59525795E1,1.7176128E1,1.5827927E1,5.3113976E0,1.3339052E1,9.973724E0,8.584368E0,7.586418E0,1.2751118E1,1.0296435E1,0E0,8.4451294E-1,5.9950056E0,0E0,0E0,8.153908E0,6.742444E0,8.3945265E0,7.522783E0,0E0,3.6840248E0,1.0661127E1,4.1927366E0,1.7551554E1,2.6843643E-1,0E0,2.1463165E0,5.982517E0,1.2570203E1,5.85635E0,5.2837257E0,3.9454422E0,1.9304771E0,4.3763485E0,0E0,0E0,1.2730851E0,2.7265472E0,9.731203E0,1.0224216E1,0E0,4.1564364E0,7.2863083E0,9.506624E0,0E0,0E0,0E0,0E0,0E0,0E0,0E0,0E0,0E0,0E0,0E0,0E0,0E0,0E0,0E0,0E0,0E0,0E0,0E0,0E0,0E0,0E0,0E0,0E0,0E0,0E0,0E0,0E0,0E0,0E0,0E0,0E0],"parents":[2147483647,0,0,1,1,2,2,3,3,4,4,5,5,6,6,7,7,8,8,9,9,10,10,11,11,12,12,14,14,15,15,18,18,19,19,20,20,21,21,23,23,24,24,25,25,26,26,27,27,29,29,30,30,31,31,32,32,33,33,34,34,35,35,36,36,39,39,40,40,41,41,42,42,44,44,45,45,46,46],"right_children":[2,4,6,8,10,12,14,16,18,20,22,24,26,-1,28,30,-1,-1,32,34,36,38,-1,40,42,44,46,48,-1,50,52,54,56,58,60,62,64,-1,-1,66,68,70,72,-1,74,76,78,-1,-1,-1,-1,-1,-1,-1,-1,-1,-1,-1,-1,-1,-1,-1,-1,-1,-1,-1,-1,-1,-1,-1,-1,-1,-1,-1,-1,-1,-1,-1,-1],"split_conditions":[-4.4870842E-1,2.5813645E-1,2.0097814E0,-9.604985E-1,7.9212725E-1,-1.3679458E-2,-1.0404345E0,9.847872E-1,-1.5041525E0,-4.792958E-1,-8.411041E-1,-3.047753E-1,-1.517956E0,3.0113233E-2,2.4589844E0,-4.197982E-1,-5.2925516E-2,-6.975637E-2,-6.5733805E-2,-6.4050937E-1,3.7574813E-1,6.6214925E-1,-7.548429E-2,-1.0091374E0,3.603173E-1,-1.9740233E-1,8.2402E-1,3.5027498E-1,-9.164183E-3,3.7574813E-1,-1.6261538E0,-9.387759E-1,-3.6180146E-2,1.8987446E-1,-7.156506E-1,1.7974902E-2,-5.0648254E-1,-4.9628E-2,4.8171785E-2,-1.6455164E0,-3.1934264E-1,5.3378975E-1,1.2991188E0,-6.8670236E-2,6.431225E-1,2.831638E-1,1.2991188E0,-6.417271E-2,-2.2653105E-2,8.891026E-3,7.657436E-2,6.238256E-2,-1.6419256E-2,-3.347738E-2,7.4789175E-3,-4.3521654E-2,-1.7003197E-2,1.3084628E-2,-5.2628864E-2,1.813872E-2,5.4247398E-2,-7.172253E-2,-9.951454E-3,2.9143615E-2,-3.9095532E-2,2.5016678E-2,-2.7454147E-2,6.1245244E-2,-5.1912647E-3,1.2949987E-2,-2.4925416E-2,3.0105138E-2,-8.41974E-3,7.4239112E-3,-5.0828714E-2,4.64583E-2,4.088696E-3,-3.4197275E-2,2.0588791E-2],"split_indices":[6,0,2,0,7,8,0,2,7,8,9,6,10,0,8,7,0,0,0,7,10,0,0,5,6,0,7,6,0,10,0,6,0,5,8,8,6,0,0,5,8,2,2,0,2,10,2,0,0,0,0,0,0,0,0,0,0,0,0,0,0,0,0,0,0,0,0,0,0,0,0,0,0,0,0,0,0,0,0],"split_type":[0,0,0,0,0,0,0,0,0,0,0,0,0,0,0,0,0,0,0,0,0,0,0,0,0,0,0,0,0,0,0,0,0,0,0,0,0,0,0,0,0,0,0,0,0,0,0,0,0,0,0,0,0,0,0,0,0,0,0,0,0,0,0,0,0,0,0,0,0,0,0,0,0,0,0,0,0,0,0],"sum_hessian":[6.586143E2,2.7699078E2,3.8162354E2,2.0022212E2,7.676868E1,3.6043976E2,2.1183764E1,2.2300642E1,1.7792148E2,6.3017365E1,1.375131E1,2.6543564E2,9.5004105E1,1.2265244E0,1.995724E1,1.7878748E1,4.4218936E0,1.1964133E1,1.6595735E2,4.6078033E1,1.6939333E1,5.8692064E0,7.8821044E0,2.9025461E1,2.3641019E2,1.6869524E1,7.813458E1,1.875096E1,1.2062804E0,8.322665E0,9.556083E0,7.405064E1,9.1906715E1,1.3767923E1,3.231011E1,6.659377E0,1.0279956E1,3.0091252E0,2.860081E0,2.646383E0,2.6379078E1,8.5568344E1,1.5084184E2,5.6650224E0,1.1204501E1,4.0550583E1,3.7584E1,1.6884455E1,1.8665035E0,1.7230356E0,6.5996294E0,2.443291E0,7.112792E0,3.305832E1,4.0992317E1,5.6031647E1,3.587507E1,1.0605911E1,3.162012E0,1.6648182E1,1.5661925E1,4.5516486E0,2.1077282E0,8.053062E0,2.226893E0,1.210773E0,1.4356102E0,2.4895885E1,1.4831917E0,6.3555687E1,2.201266E1,1.314855E2,1.9356333E1,7.080379E0,4.1241217E0,2.2045494E1,1.8505089E1,2.736933E1,1.0214671E1],"tree_param":{"num_deleted":"0","num_feature":"11","num_nodes":"79","size_leaf_vector":"1"}},{"base_weights":[-5.9206844E-3,-6.738654E-1,1.3490008E-1,-7.800371E-1,7.743626E-2,1.8636897E-1,-1.2513945E0,-3.2709524E-1,-9.315156E-1,1.1082776E0,-8.557013E-1,6.571163E-2,5.485368E-1,-3.358181E-1,-6.7660004E-2,-5.695867E-1,6.3645357E-1,-4.846486E-1,-1.1055901E0,6.597788E-2,6.763366E-3,1.1138533E-2,-6.320392E-2,7.2410357E-1,-2.5312393E-3,7.556229E-1,2.4626611E-1,1.1767415E-2,-3.931639E-2,9.835326E-2,-9.8759294E-1,1.015805E0,-2.2690026E-2,-1.7554404E-1,-1.1621162E0,-1.3778099E0,-8.54322E-1,8.690788E-1,-7.8240746E-1,-5.4244214E-1,4.886481E-2,8.568895E-1,-2.1535897E-1,-1.6033924E-1,6.7118645E-1,1.8753616E-2,-3.607718E-2,-6.5102205E-2,-2.0381317E-2,1.2407894E-3,6.7315236E-2,-2.428735E-2,5.249309E-2,-6.740113E-2,-1.3911568E-2,-2.0717924E-2,-7.0479594E-2,-2.2870163E-2,-5.8003046E-2,-4.219729E-2,4.8634045E-2,-8.938457E-3,-5.243068E-2,2.0526802E-2,-3.8293082E-2,-1.2582301E-2,7.983024E-3,2.6694978E-2,5.3667326E-2,1.9595271E-2,-4.020769E-2,1.0650522E-2,-5.1239133E-2,4.2846974E-2,7.07679E-3],"categories":[],"categories_nodes":[],"categories_segments":[],"categories_sizes":[],"default_left":[0,0,0,0,0,0,0,0,0,0,0,0,0,0,0,0,0,0,0,0,0,0,0,0,0,0,0,0,0,0,0,0,0,0,0,0,0,0,0,0,0,0,0,0,0,0,0,0,0,0,0,0,0,0,0,0,0,0,0,0,0,0,0,0,0,0,0,0,0,0,0,0,0,0,0],"id":13,"left_children":[1,3,5,7,9,11,13,15,17,19,21,23,25,27,-1,29,31,33,35,-1,-1,-1,-1,37,39,41,43,-1,-1,45,47,49,-1,51,53,55,57,59,61,63,65,67,69,71,73,-1,-1,-1,-1,-1,-1,-1,-1,-1,-1,-1,-1,-1,-1,-1,-1,-1,-1,-1,-1,-1,-1,-1,-1,-1,-1,-1,-1,-1,-1],"loss_changes":[6.1610764E1,9.157669E0,3.883397E1,6.5575676E0,1.5406963E1,2.2796326E1,1.3628311E0,6.5793505E0,5.2523804E0,1.3792362E0,4.004807E0,1.7662472E1,7.978718E0,1.0293127E0,0E0,6.1796207E0,2.8689044E0,4.537111E0,2.432335E0,0E0,0E0,0E0,0E0,8.743275E0,9.937067E0,7.7481384E0,9.526298E0,0E0,0E0,2.3795037E0,1.9294596E0,1.4823518E0,0E0,6.8675184E0,7.613106E-1,1.4151764E-1,3.118803E0,6.8818684E0,4.1789055E-1,6.9414864E0,1.0928435E1,4.3109665E0,3.1984415E0,9.4695E0,2.5202856E0,0E0,0E0,0E0,0E0,0E0,0E0,0E0,0E0,0E0,0E0,0E0,0E0,0E0,0E0,0E0,0E0,0E0,0E0,0E0,0E0,0E0,0E0,0E0,0E0,0E0,0E0,0E0,0E0,0E0,0E0],"parents":[2147483647,0,0,1,1,2,2,3,3,4,4,5,5,6,6,7,7,8,8,9,9,10,10,11,11,12,12,13,13,15,15,16,16,17,17,18,18,23,23,24,24,25,25,26,26,29,29,30,30,31,31,33,33,34,34,35,35,36,36,37,37,38,38,39,39,40,40,41,41,42,42,43,43,44,44],"right_children":[2,4,6,8,10,12,14,16,18,20,22,24,26,28,-1,30,32,34,36,-1,-1,-1,-1,38,40,42,44,-1,-1,46,48,50,-1,52,54,56,58,60,62,64,66,68,70,72,74,-1,-1,-1,-1,-1,-1,-1,-1,-1,-1,-1,-1,-1,-1,-1,-1,-1,-1,-1,-1,-1,-1,-1,-1,-1,-1,-1,-1,-1,-1],"split_conditions":[-6.799653E-1,1.2991188E0,2.1054475E0,-8.602024E-1,1.9414485E0,4.878703E-1,-3.3490992E0,-9.050872E-1,-3.668264E-1,1.2854573E0,-2.648752E0,-1.0055304E0,4.0358096E-2,-5.14222E-1,-6.7660004E-2,-6.5733805E-2,1.1429478E0,2.4037406E-1,-1.8565543E-1,6.597788E-2,6.763366E-3,1.1138533E-2,-6.320392E-2,1.558784E0,-1.5041525E0,-1.183049E-1,-6.5240203E-3,1.1767415E-2,-3.931639E-2,-7.092297E-1,4.1381255E-2,-2.8483474E-1,-2.2690026E-2,1.1443911E-2,7.980656E-1,-7.597057E-1,2.6896062E-1,-1.517956E0,-3.9755564E0,-2.7708068E-1,-1.8695998E-1,-8.902425E-1,-4.0572754E-1,-2.0420606E-1,-1.742394E-1,1.8753616E-2,-3.607718E-2,-6.5102205E-2,-2.0381317E-2,1.2407894E-3,6.7315236E-2,-2.428735E-2,5.249309E-2,-6.740113E-2,-1.3911568E-2,-2.0717924E-2,-7.0479594E-2,-2.2870163E-2,-5.8003046E-2,-4.219729E-2,4.8634045E-2,-8.938457E-3,-5.243068E-2,2.0526802E-2,-3.8293082E-2,-1.2582301E-2,7.983024E-3,2.6694978E-2,5.3667326E-2,1.9595271E-2,-4.020769E-2,1.0650522E-2,-5.1239133E-2,4.2846974E-2,7.07679E-3],"split_indices":[4,2,2,2,2,4,1,2,0,1,1,0,5,4,0,0,7,5,3,0,0,0,0,2,7,3,7,0,0,4,1,3,0,3,5,5,3,10,0,0,0,10,7,2,10,0,0,0,0,0,0,0,0,0,0,0,0,0,0,0,0,0,0,0,0,0,0,0,0,0,0,0,0,0,0],"split_type":[0,0,0,0,0,0,0,0,0,0,0,0,0,0,0,0,0,0,0,0,0,0,0,0,0,0,0,0,0,0,0,0,0,0,0,0,0,0,0,0,0,0,0,0,0,0,0,0,0,0,0,0,0,0,0,0,0,0,0,0,0,0,0,0,0,0,0,0,0,0,0,0,0,0,0],"sum_hessian":[6.530457E2,1.1304804E2,5.399977E2,9.9017006E1,1.4031039E1,5.2150146E2,1.8496195E1,2.5607206E1,7.34098E1,6.5773363E0,7.453703E0,3.920652E2,1.294363E2,2.2809923E0,1.6215202E1,2.0785173E1,4.822033E0,2.1640524E1,5.1769276E1,5.111305E0,1.4660311E0,2.1720617E0,5.281641E0,3.591872E1,3.5614645E2,7.592211E1,5.351418E1,1.2164036E0,1.0645885E0,8.295057E0,1.2490116E1,3.6279738E0,1.1940593E0,1.5724916E1,5.9156065E0,2.269666E1,2.9072615E1,3.315158E1,2.7671394E0,3.0125597E1,3.2602087E2,6.885819E1,7.0639234E0,2.7664623E1,2.5849556E1,6.607524E0,1.6875336E0,7.2916417E0,5.1984744E0,1.1762186E0,2.451755E0,1.3030052E1,2.6948643E0,4.4537444E0,1.461862E0,1.1730757E0,2.1523584E1,1.3736092E1,1.5336523E1,1.4830941E0,3.1668488E1,1.358409E0,1.4087303E0,5.562343E0,2.4563253E1,8.747941E1,2.3854146E2,2.9020817E1,3.9837376E1,3.642036E0,3.4218874E0,1.984656E1,7.818063E0,1.8680285E1,7.169271E0],"tree_param":{"num_deleted":"0","num_feature":"11","num_nodes":"75","size_leaf_vector":"1"}},{"base_weights":[5.5802646E-3,-6.255302E-1,1.3961767E-1,-7.3315984E-1,-2.8067198E-1,1.903088E-1,-1.1667873E0,5.599345E-1,-7.7621543E-1,-5.496134E-1,4.787825E-1,-1.4656843E-1,3.2209775E-1,-6.740814E-1,-6.4423315E-2,4.4678528E-2,-1.6078098E-3,-9.0475446E-1,-3.2736334E-1,2.1625888E-1,-8.0994505E-1,8.5564524E-1,-4.1983034E-2,-3.6468334E-2,-1.0990018E0,6.198553E-2,4.8900315E-1,-1.6020098E-1,-4.7916394E-2,-4.5946032E-1,-1.1016873E0,7.614489E-2,-1.0789523E0,7.9519105E-1,-4.6779286E-2,-6.428593E-2,-4.0127048E-1,-1.8031208E-2,6.318805E-2,-1.1226507E0,7.078816E-2,-5.923147E-1,-1.2806559E0,1.8518722E-1,-4.1200063E-1,-5.1349443E-1,5.3395396E-1,1.1315227E-2,-2.3953153E-2,-3.6432385E-2,2.7819438E-2,-5.9151024E-2,-7.362713E-3,-2.0933459E-2,4.531054E-2,-6.4598344E-2,-2.1178764E-4,1.38403475E-2,6.293499E-2,1.9978477E-2,-4.143994E-2,-6.887015E-2,-2.5696827E-2,-1.1170928E-2,1.7362518E-2,4.9557667E-2,-6.1172266E-2,-1.882284E-2,-6.763405E-2,2.9385855E-2,-6.1689382E-3,9.98545E-3,-5.586032E-2,-4.960189E-2,1.4291845E-2,2.3220813E-2,5.571368E-2],"categories":[],"categories_nodes":[],"categories_segments":[],"categories_sizes":[],"default_left":[0,0,0,0,0,0,0,0,0,0,0,0,0,0,0,0,0,0,0,0,0,0,0,0,0,0,0,0,0,0,0,0,0,0,0,0,0,0,0,0,0,0,0,0,0,0,0,0,0,0,0,0,0,0,0,0,0,0,0,0,0,0,0,0,0,0,0,0,0,0,0,0,0,0,0,0,0],"id":14,"left_children":[1,3,5,7,9,11,13,15,17,19,21,23,25,27,-1,-1,-1,29,31,33,35,37,-1,39,41,43,45,47,-1,49,51,53,55,57,-1,-1,59,-1,-1,61,63,65,67,69,71,73,75,-1,-1,-1,-1,-1,-1,-1,-1,-1,-1,-1,-1,-1,-1,-1,-1,-1,-1,-1,-1,-1,-1,-1,-1,-1,-1,-1,-1,-1,-1],"loss_changes":[5.5500156E1,4.060238E0,3.6056892E1,5.276985E0,6.1779423E0,2.3212063E1,3.516426E-1,6.9713974E-1,4.584347E0,4.5318637E0,4.7468963E0,1.5417669E1,1.626566E1,7.415836E-1,0E0,0E0,0E0,5.2107964E0,6.2685614E0,4.966774E0,2.6959019E0,3.8314123E0,0E0,1.5593641E1,6.4418983E-1,8.710708E0,1.0571133E1,5.253611E-1,0E0,6.341069E0,3.279171E0,6.2146306E0,1.6409512E0,7.940748E-1,0E0,0E0,3.8712537E0,0E0,0E0,1.1572123E0,1.0012195E1,7.091362E0,1.6532898E-1,1.4734636E1,1.3515712E1,4.229501E0,8.327541E0,0E0,0E0,0E0,0E0,0E0,0E0,0E0,0E0,0E0,0E0,0E0,0E0,0E0,0E0,0E0,0E0,0E0,0E0,0E0,0E0,0E0,0E0,0E0,0E0,0E0,0E0,0E0,0E0,0E0,0E0],"parents":[2147483647,0,0,1,1,2,2,3,3,4,4,5,5,6,6,7,7,8,8,9,9,10,10,11,11,12,12,13,13,17,17,18,18,19,19,20,20,21,21,23,23,24,24,25,25,26,26,27,27,29,29,30,30,31,31,32,32,33,33,36,36,39,39,40,40,41,41,42,42,43,43,44,44,45,45,46,46],"right_children":[2,4,6,8,10,12,14,16,18,20,22,24,26,28,-1,-1,-1,30,32,34,36,38,-1,40,42,44,46,48,-1,50,52,54,56,58,-1,-1,60,-1,-1,62,64,66,68,70,72,74,76,-1,-1,-1,-1,-1,-1,-1,-1,-1,-1,-1,-1,-1,-1,-1,-1,-1,-1,-1,-1,-1,-1,-1,-1,-1,-1,-1,-1,-1,-1],"split_conditions":[-6.799653E-1,6.991377E-1,2.0097814E0,-1.0105349E0,5.707183E-1,-6.3259673E-1,-1.6859491E0,-1.742394E-1,-4.5756236E-2,-7.2667634E-1,1.9414485E0,-1.0853993E-1,-1.3740963E-1,-2.0823253E-2,-6.4423315E-2,4.4678528E-2,-1.6078098E-3,-8.602024E-1,1.8984088E0,-7.191806E-1,-2.2131158E-1,-4.5144585E-1,-4.1983034E-2,-1.5041525E0,1.7845845E-1,9.57454E-1,-1.6859491E0,-2.5621885E-1,-4.7916394E-2,-9.050872E-1,1.8126961E0,-2.6092955E-1,1.5307811E-1,5.7897115E-1,-4.6779286E-2,-6.428593E-2,-2.2844155E-1,-1.8031208E-2,6.318805E-2,-1.9042742E-1,3.7574813E-1,-8.353193E-1,-1.2703347E0,2.831638E-1,7.616255E-1,4.8116633E-1,1.3343045E0,1.1315227E-2,-2.3953153E-2,-3.6432385E-2,2.7819438E-2,-5.9151024E-2,-7.362713E-3,-2.0933459E-2,4.531054E-2,-6.4598344E-2,-2.1178764E-4,1.38403475E-2,6.293499E-2,1.9978477E-2,-4.143994E-2,-6.887015E-2,-2.5696827E-2,-1.1170928E-2,1.7362518E-2,4.9557667E-2,-6.1172266E-2,-1.882284E-2,-6.763405E-2,2.9385855E-2,-6.1689382E-3,9.98545E-3,-5.586032E-2,-4.960189E-2,1.4291845E-2,2.3220813E-2,5.571368E-2],"split_indices":[4,9,2,2,2,6,9,10,6,4,2,2,4,5,0,0,0,2,6,6,3,5,0,7,2,2,9,3,0,2,7,3,3,3,0,0,7,0,0,4,10,6,5,10,6,6,7,0,0,0,0,0,0,0,0,0,0,0,0,0,0,0,0,0,0,0,0,0,0,0,0,0,0,0,0,0,0],"split_type":[0,0,0,0,0,0,0,0,0,0,0,0,0,0,0,0,0,0,0,0,0,0,0,0,0,0,0,0,0,0,0,0,0,0,0,0,0,0,0,0,0,0,0,0,0,0,0,0,0,0,0,0,0,0,0,0,0,0,0,0,0,0,0,0,0,0,0,0,0,0,0,0,0,0,0,0,0],"sum_hessian":[6.5405676E2,1.13934296E2,5.401225E2,8.59755E1,2.7958794E1,5.207699E2,1.9352594E1,2.3836014E0,8.3591896E1,2.0851185E1,7.1076093E0,1.4640897E2,3.7436093E2,5.127997E0,1.4224597E1,1.1988726E0,1.184729E0,6.4193054E1,1.9398844E1,5.332561E0,1.5518623E1,5.8005915E0,1.3070179E0,1.3216872E2,1.4240249E1,1.4685988E2,2.2750104E2,2.383158E0,2.7448387E0,2.0706255E1,4.3486797E1,1.3207028E1,6.1918154E0,3.754924E0,1.5776372E0,6.1790214E0,9.3396015E0,1.4865963E0,4.3139954E0,1.1027427E1,1.2114129E2,4.882416E0,9.357833E0,1.1704584E2,2.9814049E1,9.315787E0,2.1818526E2,1.2085277E0,1.1746303E0,1.6592237E1,4.1140175E0,3.9851322E1,3.6354775E0,8.585004E0,4.622024E0,4.998867E0,1.1929486E0,2.5265033E0,1.2284207E0,3.2733693E0,6.0662327E0,6.8837204E0,4.143706E0,5.8780197E1,6.236109E1,1.2288544E0,3.6535616E0,1.1498195E0,8.208013E0,5.0397156E1,6.664868E1,1.6349216E1,1.3464832E1,5.6763744E0,3.6394134E0,1.9644608E2,2.1739182E1],"tree_param":{"num_deleted":"0","num_feature":"11","num_nodes":"77","size_leaf_vector":"1"}},{"base_weights":[-2.4033112E-3,-2.8454468E-1,2.0542072E-1,-9.098195E-2,-5.539704E-1,3.9399216E-1,-1.7824277E-1,3.0421348E-2,-1.2199317E0,-2.156449E-1,-7.87166E-1,5.1511294E-1,-3.4931332E-1,-9.0094966E-1,5.511668E-2,-4.492001E-2,8.6958843E-1,-1.3469778E0,-1.3782466E-2,4.5684662E-1,-4.1143084E-1,-3.4314373E-1,-1.0374259E0,3.1806266E-1,7.995375E-1,9.7259283E-1,-5.9808207E-1,-1.1728525E0,4.26064E-1,9.08557E-1,-2.6210317E-1,1.08745195E-1,-7.6607513E-1,-4.4998266E-2,1.1769683E0,-1.672998E-2,-7.050739E-2,-4.681459E-2,7.4542254E-1,-6.351659E-1,6.2816644E-1,-8.751744E-1,1.1120557E-1,-1.2351528E0,-6.648622E-1,6.385677E-2,6.607213E-1,1.3877739E0,5.148885E-1,6.1948627E-2,1.7137533E-2,-1.5383588E-2,-1.0090553E0,-4.3236378E-1,-7.201742E-2,8.746384E-1,-2.86713E-2,1.1888851E0,2.2551835E-1,5.607865E-2,-3.4459183E-1,-1.7847292E-2,1.628216E-2,-7.1895845E-2,-2.442773E-2,7.337256E-2,-1.0928142E-2,4.9013536E-2,-7.7428073E-3,-7.268765E-4,-4.4122335E-2,6.3573375E-2,-3.1425685E-2,7.634317E-3,-6.274023E-2,3.4911167E-2,-3.582869E-2,-6.474025E-2,-7.956142E-3,5.808343E-3,-4.7373213E-2,3.134193E-2,-1.09770885E-2,3.65853E-2,-4.317583E-2,7.2443925E-2,5.256184E-4,5.6825727E-3,5.825175E-2,-5.9530374E-2,2.6125709E-2,-6.727512E-2,-3.221884E-2,-7.2832786E-2,9.753183E-3,-1.1704673E-2,6.854693E-2,6.4789754E-4,6.407136E-2,2.80764E-2,-4.269325E-2,-4.6485998E-2,-6.763961E-3],"categories":[],"categories_nodes":[],"categories_segments":[],"categories_sizes":[],"default_left":[0,0,0,0,0,0,0,0,0,0,0,0,0,0,0,0,0,0,0,0,0,0,0,0,0,0,0,0,0,0,0,0,0,0,0,0,0,0,0,0,0,0,0,0,0,0,0,0,0,0,0,0,0,0,0,0,0,0,0,0,0,0,0,0,0,0,0,0,0,0,0,0,0,0,0,0,0,0,0,0,0,0,0,0,0,0,0,0,0,0,0,0,0,0,0,0,0,0,0,0,0,0,0],"id":15,"left_children":[1,3,5,7,9,11,13,15,17,19,21,23,25,27,29,31,33,35,-1,37,39,41,43,45,47,49,51,53,55,57,59,61,63,-1,65,-1,-1,-1,67,69,71,73,75,77,79,81,83,85,87,-1,-1,89,91,93,-1,95,-1,97,99,-1,101,-1,-1,-1,-1,-1,-1,-1,-1,-1,-1,-1,-1,-1,-1,-1,-1,-1,-1,-1,-1,-1,-1,-1,-1,-1,-1,-1,-1,-1,-1,-1,-1,-1,-1,-1,-1,-1,-1,-1,-1,-1,-1],"loss_changes":[3.8201866E1,1.436105E1,2.7213211E1,2.2241573E1,8.92968E0,2.2854065E1,2.101646E1,9.348986E0,1.5187321E0,6.565361E0,7.1888657E0,1.1905823E1,1.2382296E1,1.1469427E1,2.5935318E1,1.5162382E1,7.6845055E0,3.997593E-1,0E0,5.2793236E0,9.247124E0,6.3746395E0,2.3412018E0,1.1266835E1,1.4043053E1,5.927925E-1,7.36512E0,4.427971E0,3.1483817E0,4.6996098E0,8.373172E0,1.1534787E1,3.7771273E0,0E0,4.703326E0,0E0,0E0,0E0,2.265461E0,4.867688E0,6.6519656E0,4.903122E0,7.737681E0,1.5192757E0,3.8733244E0,1.2206262E1,6.603077E0,2.3539085E0,1.5776245E1,0E0,0E0,9.322051E0,1.3485928E0,5.5512667E0,0E0,2.781041E0,0E0,1.9597111E0,3.6651452E0,0E0,8.055824E0,0E0,0E0,0E0,0E0,0E0,0E0,0E0,0E0,0E0,0E0,0E0,0E0,0E0,0E0,0E0,0E0,0E0,0E0,0E0,0E0,0E0,0E0,0E0,0E0,0E0,0E0,0E0,0E0,0E0,0E0,0E0,0E0,0E0,0E0,0E0,0E0,0E0,0E0,0E0,0E0,0E0,0E0],"parents":[2147483647,0,0,1,1,2,2,3,3,4,4,5,5,6,6,7,7,8,8,9,9,10,10,11,11,12,12,13,13,14,14,15,15,16,16,17,17,19,19,20,20,21,21,22,22,23,23,24,24,25,25,26,26,27,27,28,28,29,29,30,30,31,31,32,32,34,34,38,38,39,39,40,40,41,41,42,42,43,43,44,44,45,45,46,46,47,47,48,48,51,51,52,52,53,53,55,55,57,57,58,58,60,60],"right_children":[2,4,6,8,10,12,14,16,18,20,22,24,26,28,30,32,34,36,-1,38,40,42,44,46,48,50,52,54,56,58,60,62,64,-1,66,-1,-1,-1,68,70,72,74,76,78,80,82,84,86,88,-1,-1,90,92,94,-1,96,-1,98,100,-1,102,-1,-1,-1,-1,-1,-1,-1,-1,-1,-1,-1,-1,-1,-1,-1,-1,-1,-1,-1,-1,-1,-1,-1,-1,-1,-1,-1,-1,-1,-1,-1,-1,-1,-1,-1,-1,-1,-1,-1,-1,-1,-1],"split_conditions":[-4.544276E-1,-2.0707121E-1,6.431225E-1,-1.3587311E-1,3.1465195E-2,1.7765547E0,-1.517956E0,-4.0642518E-1,3.657128E-1,-8.328692E-1,-8.466609E-1,4.9526078E-1,-9.050872E-1,2.3033312E-1,-6.758267E-1,-6.0484135E-1,-1.517956E0,-1.4256412E0,-1.3782466E-2,-1.1965677E0,-5.6825477E-1,4.1381255E-2,-1.9260006E-2,1.6135117E-1,-3.047437E-1,1.7974902E-2,-2.0707121E-1,9.3776995E-1,1.0884373E0,1.326452E0,-1.147972E0,-9.378354E-1,-9.1812456E-1,-4.4998266E-2,9.435299E-2,-1.672998E-2,-7.050739E-2,-4.681459E-2,3.6205135E-2,-2.8745288E-1,-4.8824587E-1,4.2173508E-1,-7.8518087E-1,1.8445889E0,2.8084603E-1,-2.7855045E-1,1.0252911E0,1.7463765E0,1.9487952E-1,6.1948627E-2,1.7137533E-2,-7.406119E-1,-2.6588178E-1,7.5245523E-1,-7.201742E-2,-8.11416E-2,-2.86713E-2,-1.4256412E0,3.015554E-1,5.607865E-2,8.9459413E-1,-1.7847292E-2,1.628216E-2,-7.1895845E-2,-2.442773E-2,7.337256E-2,-1.0928142E-2,4.9013536E-2,-7.7428073E-3,-7.268765E-4,-4.4122335E-2,6.3573375E-2,-3.1425685E-2,7.634317E-3,-6.274023E-2,3.4911167E-2,-3.582869E-2,-6.474025E-2,-7.956142E-3,5.808343E-3,-4.7373213E-2,3.134193E-2,-1.09770885E-2,3.65853E-2,-4.317583E-2,7.2443925E-2,5.256184E-4,5.6825727E-3,5.825175E-2,-5.9530374E-2,2.6125709E-2,-6.727512E-2,-3.221884E-2,-7.2832786E-2,9.753183E-3,-1.1704673E-2,6.854693E-2,6.4789754E-4,6.407136E-2,2.80764E-2,-4.269325E-2,-4.6485998E-2,-6.763961E-3],"split_indices":[6,8,2,2,1,6,10,2,3,2,2,6,2,3,10,2,10,5,0,6,6,1,3,7,2,8,8,2,6,2,5,2,6,0,1,0,0,0,3,5,6,8,6,7,3,6,1,5,1,0,0,2,3,2,0,6,0,5,5,0,2,0,0,0,0,0,0,0,0,0,0,0,0,0,0,0,0,0,0,0,0,0,0,0,0,0,0,0,0,0,0,0,0,0,0,0,0,0,0,0,0,0,0],"split_type":[0,0,0,0,0,0,0,0,0,0,0,0,0,0,0,0,0,0,0,0,0,0,0,0,0,0,0,0,0,0,0,0,0,0,0,0,0,0,0,0,0,0,0,0,0,0,0,0,0,0,0,0,0,0,0,0,0,0,0,0,0,0,0,0,0,0,0,0,0,0,0,0,0,0,0,0,0,0,0,0,0,0,0,0,0,0,0,0,0,0,0,0,0,0,0,0,0,0,0,0,0,0,0],"sum_hessian":[6.4951465E2,2.7534195E2,3.7417267E2,1.610075E2,1.1433444E2,2.5085164E2,1.2332104E2,1.4625302E2,1.4754483E1,4.743679E1,6.689765E1,2.1596706E2,3.4884586E1,2.940229E1,9.391875E1,1.3507253E2,1.1180491E1,1.2628902E1,2.1255803E0,1.0395751E1,3.704104E1,2.496853E1,4.1929123E1,1.2883087E2,8.713618E1,5.0643005E0,2.9820286E1,2.4498716E1,4.903574E0,2.4944517E1,6.897423E1,1.12046616E2,2.3025913E1,1.3693615E0,9.811131E0,1.1115602E0,1.1517343E1,1.3987199E0,8.99703E0,3.0801233E1,6.239806E0,1.1074444E1,1.3894087E1,2.5879225E1,1.60499E1,7.464261E1,5.4188263E1,2.7151445E1,5.9984734E1,2.879398E0,2.1849027E0,1.2762461E1,1.7057823E1,7.1957073E0,1.7303009E1,3.4707882E0,1.4327857E0,1.7160883E1,7.783634E0,3.1718845E0,6.5802345E1,3.5398514E1,7.66481E1,5.508717E0,1.7517197E1,8.078116E0,1.7330133E0,7.0651517E0,1.9318792E0,9.077412E0,2.1723822E1,4.119332E0,2.1204743E0,3.1482522E0,7.9261913E0,8.220821E0,5.673265E0,2.4327274E1,1.5519505E0,4.420864E0,1.1629036E1,2.4587252E1,5.005536E1,5.2273792E1,1.9144706E0,2.594821E1,1.2032365E0,3.781937E1,2.2165363E1,3.6262398E0,9.136221E0,7.473408E0,9.584415E0,2.2313452E0,4.964362E0,1.2365855E0,2.2342026E0,1.335156E0,1.5825727E1,6.301699E0,1.4819351E0,1.643024E1,4.93721E1],"tree_param":{"num_deleted":"0","num_feature":"11","num_nodes":"103","size_leaf_vector":"1"}},{"base_weights":[1.1884984E-2,-4.1747493E-1,1.787457E-1,-6.2637025E-1,-2.2342947E-1,-1.4217368E-1,2.68646E-1,-6.8630403E-1,2.518767E-1,1.9137457E-1,-4.0789944E-1,-1.1761627E0,-6.4517185E-2,3.260185E-1,-3.8827592E-1,-1.3894746E-1,-8.130295E-1,-4.987967E-1,4.609495E-2,-7.0724565E-1,4.5275846E-1,-2.0336863E-1,-8.1655586E-1,-6.875621E-2,-8.4679463E-4,8.418664E-3,-1.1572003E0,1.1507205E0,2.7183536E-1,-1.4683688E-1,-1.2445123E0,8.834762E-2,-5.6572746E-2,3.1757724E-2,-8.6692435E-1,-5.7486985E-3,-3.1627502E-2,7.3850504E-3,-9.5704854E-1,-4.714081E-1,6.8924034E-1,-1.3357622E-2,-5.4721636E-1,-1.0205916E0,-2.2251804E-1,-5.6516986E-2,8.321685E-2,-6.4754E-2,-1.5450026E-2,-1.0394064E-3,1.2170631E0,1.22056715E-2,4.249621E-1,-4.1944408E-1,5.4696288E-2,-1.4701985E-2,-7.0741944E-2,-1.684522E-2,3.4607925E-2,-4.740378E-2,-2.3931522E-2,-6.0287442E-2,-1.1831494E-3,-3.7983324E-2,1.5919587E-2,-2.4832109E-2,3.9784163E-2,-4.9383968E-2,7.5201355E-3,-5.2469622E-2,-1.6709665E-2,9.624343E-3,-5.8465004E-2,2.127582E-2,-4.3499928E-2,-4.6076E-3,2.2690246E-2,6.804257E-2,2.7612975E-2,-1.594828E-2,1.8846352E-2,4.5452103E-2,1.5906954E-2,-3.4795925E-2,3.3750217E-2],"categories":[],"categories_nodes":[],"categories_segments":[],"categories_sizes":[],"default_left":[0,0,0,0,0,0,0,0,0,0,0,0,0,0,0,0,0,0,0,0,0,0,0,0,0,0,0,0,0,0,0,0,0,0,0,0,0,0,0,0,0,0,0,0,0,0,0,0,0,0,0,0,0,0,0,0,0,0,0,0,0,0,0,0,0,0,0,0,0,0,0,0,0,0,0,0,0,0,0,0,0,0,0,0,0],"id":16,"left_children":[1,3,5,7,9,11,13,15,17,19,21,23,25,27,29,31,33,35,-1,37,39,41,43,-1,-1,45,47,49,51,53,55,57,-1,-1,59,-1,-1,-1,61,63,65,67,69,71,73,-1,75,-1,-1,-1,77,79,81,83,-1,-1,-1,-1,-1,-1,-1,-1,-1,-1,-1,-1,-1,-1,-1,-1,-1,-1,-1,-1,-1,-1,-1,-1,-1,-1,-1,-1,-1,-1,-1],"loss_changes":[4.560711E1,7.0820312E0,1.3262753E1,4.659897E0,7.264749E0,8.030926E0,1.3635056E1,5.440876E0,3.5668006E0,7.270798E0,5.2943172E0,1.5900145E0,7.5781884E0,1.4440926E1,5.8629766E0,3.7677953E0,5.6089745E0,1.10147715E-1,0E0,1.6487551E0,5.4680853E0,2.9242592E0,2.3738441E0,0E0,0E0,7.761462E0,2.9561472E-1,1.5832767E0,1.2364035E1,8.558331E0,6.0368824E-1,3.8682237E0,0E0,0E0,1.5284538E0,0E0,0E0,0E0,1.2704582E0,1.468708E0,2.8117666E0,4.923214E0,1.3550262E0,3.0561943E0,3.2087429E0,0E0,5.5919538E0,0E0,0E0,0E0,1.0635586E0,1.4186035E1,9.8292465E0,6.6290035E0,0E0,0E0,0E0,0E0,0E0,0E0,0E0,0E0,0E0,0E0,0E0,0E0,0E0,0E0,0E0,0E0,0E0,0E0,0E0,0E0,0E0,0E0,0E0,0E0,0E0,0E0,0E0,0E0,0E0,0E0,0E0],"parents":[2147483647,0,0,1,1,2,2,3,3,4,4,5,5,6,6,7,7,8,8,9,9,10,10,11,11,12,12,13,13,14,14,15,15,16,16,17,17,19,19,20,20,21,21,22,22,25,25,26,26,27,27,28,28,29,29,30,30,31,31,34,34,38,38,39,39,40,40,41,41,42,42,43,43,44,44,46,46,50,50,51,51,52,52,53,53],"right_children":[2,4,6,8,10,12,14,16,18,20,22,24,26,28,30,32,34,36,-1,38,40,42,44,-1,-1,46,48,50,52,54,56,58,-1,-1,60,-1,-1,-1,62,64,66,68,70,72,74,-1,76,-1,-1,-1,78,80,82,84,-1,-1,-1,-1,-1,-1,-1,-1,-1,-1,-1,-1,-1,-1,-1,-1,-1,-1,-1,-1,-1,-1,-1,-1,-1,-1,-1,-1,-1,-1,-1],"split_conditions":[-5.8165103E-1,-2.2725429E-1,-1.517956E0,8.413725E-1,-3.300742E-1,-1.3347675E0,1.397509E0,-4.811311E-1,-3.1936604E-1,-1.014431E0,4.334409E-1,9.206595E-1,1.9346306E0,-1.3390965E0,7.2417206E-1,-6.4536667E-1,-3.3818457E-1,1.5377673E0,4.609495E-2,-3.1261122E-1,-1.6859491E0,6.5926716E-2,1.6742706E-1,-6.875621E-2,-8.4679463E-4,-1.6859491E0,-3.045093E-1,-1.1318008E0,-4.6227646E-1,3.5027498E-1,-3.3058217E-1,-4.9217483E-1,-5.6572746E-2,3.1757724E-2,6.991377E-1,-5.7486985E-3,-3.1627502E-2,7.3850504E-3,-6.863899E-1,-4.544276E-1,-1.517956E0,-7.2667634E-1,-8.902425E-1,-7.276489E-1,-8.590406E-1,-5.6516986E-2,4.4500348E-1,-6.4754E-2,-1.5450026E-2,-1.0394064E-3,3.5460377E-1,1.6376309E-1,-7.756329E-1,2.304527E-1,5.4696288E-2,-1.4701985E-2,-7.0741944E-2,-1.684522E-2,3.4607925E-2,-4.740378E-2,-2.3931522E-2,-6.0287442E-2,-1.1831494E-3,-3.7983324E-2,1.5919587E-2,-2.4832109E-2,3.9784163E-2,-4.9383968E-2,7.5201355E-3,-5.2469622E-2,-1.6709665E-2,9.624343E-3,-5.8465004E-2,2.127582E-2,-4.3499928E-2,-4.6076E-3,2.2690246E-2,6.804257E-2,2.7612975E-2,-1.594828E-2,1.8846352E-2,4.5452103E-2,1.5906954E-2,-3.4795925E-2,3.3750217E-2],"split_indices":[4,3,10,0,0,1,9,1,3,6,3,4,1,0,6,4,3,1,0,5,9,1,5,0,0,9,3,6,6,6,3,0,0,0,9,0,0,0,4,6,10,4,10,4,6,0,1,0,0,0,4,0,10,1,0,0,0,0,0,0,0,0,0,0,0,0,0,0,0,0,0,0,0,0,0,0,0,0,0,0,0,0,0,0,0],"split_type":[0,0,0,0,0,0,0,0,0,0,0,0,0,0,0,0,0,0,0,0,0,0,0,0,0,0,0,0,0,0,0,0,0,0,0,0,0,0,0,0,0,0,0,0,0,0,0,0,0,0,0,0,0,0,0,0,0,0,0,0,0,0,0,0,0,0,0,0,0,0,0,0,0,0,0,0,0,0,0,0,0,0,0,0,0],"sum_hessian":[6.3454425E2,1.7716577E2,4.5737845E2,8.424535E1,9.2920425E1,9.9961586E1,3.5741687E2,7.90681E1,5.1772537E0,2.8591467E1,6.432896E1,5.9948597E0,9.396672E1,3.291722E2,2.8244661E1,1.52587E1,6.3809395E1,2.562196E0,2.6150577E0,6.0581574E0,2.253331E1,4.3869907E1,2.0459051E1,4.957711E0,1.0371485E0,8.901718E1,4.9495406E0,1.904578E1,3.1012643E2,2.2945927E1,5.2987347E0,1.3156665E1,2.1020353E0,1.9025202E0,6.1906876E1,1.1426913E0,1.4195049E0,1.4622746E0,4.595883E0,4.388747E0,1.8144564E1,2.8924831E1,1.4945078E1,1.4694003E1,5.7650476E0,4.6168284E0,8.440035E1,3.804277E0,1.1452636E0,1.0575591E0,1.7988222E1,1.1545305E2,1.9467339E2,1.9355326E1,3.5906005E0,1.2195592E0,4.079175E0,7.979147E0,5.1775184E0,5.0012833E1,1.1894043E1,3.3985412E0,1.1973416E0,3.2432063E0,1.1455408E0,1.1925496E0,1.6952013E1,3.4380832E0,2.5486748E1,3.2819908E0,1.1663087E1,1.5724515E0,1.31215515E1,3.052624E0,2.7124236E0,5.77998E1,2.6600555E1,1.3928641E1,4.05958E0,6.057536E1,5.4877686E1,3.3835304E1,1.6083807E2,1.5742634E1,3.6126926E0],"tree_param":{"num_deleted":"0","num_feature":"11","num_nodes":"85","size_leaf_vector":"1"}},{"base_weights":[4.7905054E-3,-6.337367E-1,1.4079964E-1,-1.16219364E-1,-7.5363314E-1,5.9156064E-3,3.670814E-1,3.485263E-1,-4.637016E-1,1.3686593E-1,-7.9366714E-1,-8.4533244E-1,8.5900664E-2,4.251658E-3,5.594573E-1,-5.429283E-1,7.3422027E-1,-8.755142E-2,-8.2469654E-1,4.3070417E-2,-3.4788668E-1,-9.2014724E-1,-4.031159E-1,-3.3536144E-2,-9.52826E-1,1.932093E-1,-3.843593E-1,3.719173E-1,-5.53407E-1,7.1052396E-1,3.7787817E-3,-6.721941E-3,-3.4251016E-2,1.0674032E0,6.8957984E-2,-3.917968E-2,3.5991222E-1,-1.3270933E-3,-5.3931452E-2,1.2804848E-2,-4.31433E-2,-1.2291073E0,-6.7677456E-1,4.6989936E-1,-5.5986094E-1,3.4415394E-2,-4.1273527E-2,-2.4650642E-1,-1.0824308E0,-4.9904966E-1,2.4905124E-1,-5.575181E-1,4.8164618E-1,-2.78913E-1,5.880508E-1,-1.0960996E0,-1.9898339E-1,7.737344E-1,-5.3247136E-1,8.310705E-1,-4.9543077E-1,1.5161537E-2,6.1746318E-2,-2.08528E-2,2.3099134E-2,4.0287323E-2,-3.0684456E-2,-1.5316598E-2,-6.277379E-2,-4.173651E-2,7.912699E-3,-2.4755081E-2,5.7206947E-2,-4.34794E-2,-5.210162E-3,-5.4172374E-2,2.5987267E-2,-5.8838468E-2,8.407738E-4,-3.777348E-2,3.4647115E-2,1.3575578E-2,-6.51099E-2,-3.2692563E-2,3.4544606E-2,-4.119225E-2,4.2638343E-2,-5.4756142E-2,2.970619E-2,-6.0014885E-2,3.483614E-2,-6.817523E-3,-6.804113E-2,2.065528E-2,-2.5199328E-2,5.333017E-2,2.8602058E-2,2.4900248E-2,-7.959196E-2,-1.7097084E-2,5.7881493E-2,3.1085381E-2,-3.820565E-2],"categories":[],"categories_nodes":[],"categories_segments":[],"categories_sizes":[],"default_left":[0,0,0,0,0,0,0,0,0,0,0,0,0,0,0,0,0,0,0,0,0,0,0,0,0,0,0,0,0,0,0,0,0,0,0,0,0,0,0,0,0,0,0,0,0,0,0,0,0,0,0,0,0,0,0,0,0,0,0,0,0,0,0,0,0,0,0,0,0,0,0,0,0,0,0,0,0,0,0,0,0,0,0,0,0,0,0,0,0,0,0,0,0,0,0,0,0,0,0,0,0,0,0],"id":17,"left_children":[1,3,5,7,9,11,13,15,17,19,21,23,25,27,29,31,33,35,37,-1,39,41,43,45,47,49,51,53,55,57,59,-1,-1,61,63,-1,65,-1,-1,-1,-1,67,69,71,73,-1,-1,75,77,79,81,83,85,87,89,91,93,95,97,99,101,-1,-1,-1,-1,-1,-1,-1,-1,-1,-1,-1,-1,-1,-1,-1,-1,-1,-1,-1,-1,-1,-1,-1,-1,-1,-1,-1,-1,-1,-1,-1,-1,-1,-1,-1,-1,-1,-1,-1,-1,-1,-1],"loss_changes":[5.541268E1,6.864643E0,1.6051914E1,3.7560482E0,3.3452263E0,2.2579779E1,1.3707916E1,3.868928E0,1.7154124E0,1.9710882E0,3.9280205E0,2.453722E0,1.5368536E1,1.4366836E1,1.0772091E1,1.18195176E-1,1.5821795E0,2.6384213E0,1.3088241E0,0E0,1.329381E0,4.052616E0,3.419893E0,3.0647318E0,2.032505E0,9.689386E0,8.762773E0,6.1032805E0,5.137677E0,8.340881E0,1.2157816E1,0E0,0E0,2.5387335E-1,8.7304366E-1,0E0,2.7908955E0,0E0,0E0,0E0,0E0,2.820511E-1,5.218298E0,3.2049277E0,2.7339635E0,0E0,0E0,3.8910055E0,2.190094E0,6.2705326E0,8.354295E0,6.18462E0,5.5355644E0,8.634615E0,7.0587845E0,2.5530214E0,3.580934E0,5.0864754E0,6.7704782E0,4.6389785E0,5.9872313E0,0E0,0E0,0E0,0E0,0E0,0E0,0E0,0E0,0E0,0E0,0E0,0E0,0E0,0E0,0E0,0E0,0E0,0E0,0E0,0E0,0E0,0E0,0E0,0E0,0E0,0E0,0E0,0E0,0E0,0E0,0E0,0E0,0E0,0E0,0E0,0E0,0E0,0E0,0E0,0E0,0E0,0E0],"parents":[2147483647,0,0,1,1,2,2,3,3,4,4,5,5,6,6,7,7,8,8,9,9,10,10,11,11,12,12,13,13,14,14,15,15,16,16,17,17,18,18,20,20,21,21,22,22,23,23,24,24,25,25,26,26,27,27,28,28,29,29,30,30,33,33,34,34,36,36,41,41,42,42,43,43,44,44,47,47,48,48,49,49,50,50,51,51,52,52,53,53,54,54,55,55,56,56,57,57,58,58,59,59,60,60],"right_children":[2,4,6,8,10,12,14,16,18,20,22,24,26,28,30,32,34,36,38,-1,40,42,44,46,48,50,52,54,56,58,60,-1,-1,62,64,-1,66,-1,-1,-1,-1,68,70,72,74,-1,-1,76,78,80,82,84,86,88,90,92,94,96,98,100,102,-1,-1,-1,-1,-1,-1,-1,-1,-1,-1,-1,-1,-1,-1,-1,-1,-1,-1,-1,-1,-1,-1,-1,-1,-1,-1,-1,-1,-1,-1,-1,-1,-1,-1,-1,-1,-1,-1,-1,-1,-1,-1],"split_conditions":[-6.799653E-1,-1.2716475E-1,3.0230758E-1,-6.70448E-3,-8.5853714E-1,-1.4722598E0,-1.6013154E-1,-4.585052E-1,8.559128E-1,-8.411041E-1,6.991377E-1,-7.9500264E-1,8.2402E-1,1.2525243E0,-2.3913968E-1,-3.8908145E-1,1.0472695E0,-1.036332E0,-7.2629327E-1,4.3070417E-2,3.2483718E-1,-1.9754082E-1,-4.0572754E-1,-1.5679381E0,-8.51953E-1,-1.0420617E0,1.5575539E0,-1.6974564E-1,-3.8127723E-1,1.1586906E0,8.191978E-1,-6.721941E-3,-3.4251016E-2,-8.411041E-1,1.3024117E0,-3.917968E-2,3.0230758E-1,-1.3270933E-3,-5.3931452E-2,1.2804848E-2,-4.31433E-2,-1.1748756E0,-1.5085411E-1,9.611763E-1,4.1381255E-2,3.4415394E-2,-4.1273527E-2,-5.219653E-3,3.579759E-1,4.8082438E-1,1.3676829E0,1.7042887E0,-5.196464E-1,-2.1083729E-1,-6.938181E-1,-3.144138E-1,7.902961E-2,-2.5654605E-1,-4.927209E-1,4.0012777E-1,-8.308535E-1,1.5161537E-2,6.1746318E-2,-2.08528E-2,2.3099134E-2,4.0287323E-2,-3.0684456E-2,-1.5316598E-2,-6.277379E-2,-4.173651E-2,7.912699E-3,-2.4755081E-2,5.7206947E-2,-4.34794E-2,-5.210162E-3,-5.4172374E-2,2.5987267E-2,-5.8838468E-2,8.407738E-4,-3.777348E-2,3.4647115E-2,1.3575578E-2,-6.51099E-2,-3.2692563E-2,3.4544606E-2,-4.119225E-2,4.2638343E-2,-5.4756142E-2,2.970619E-2,-6.0014885E-2,3.483614E-2,-6.817523E-3,-6.804113E-2,2.065528E-2,-2.5199328E-2,5.333017E-2,2.8602058E-2,2.4900248E-2,-7.959196E-2,-1.7097084E-2,5.7881493E-2,3.1085381E-2,-3.820565E-2],"split_indices":[4,1,6,5,5,7,4,5,7,9,9,5,7,6,3,6,7,6,4,0,8,3,7,7,8,6,7,1,8,1,6,0,0,9,7,0,6,0,0,0,0,6,6,8,1,0,0,1,8,7,1,1,8,3,5,3,9,5,8,6,8,0,0,0,0,0,0,0,0,0,0,0,0,0,0,0,0,0,0,0,0,0,0,0,0,0,0,0,0,0,0,0,0,0,0,0,0,0,0,0,0,0,0],"split_type":[0,0,0,0,0,0,0,0,0,0,0,0,0,0,0,0,0,0,0,0,0,0,0,0,0,0,0,0,0,0,0,0,0,0,0,0,0,0,0,0,0,0,0,0,0,0,0,0,0,0,0,0,0,0,0,0,0,0,0,0,0,0,0,0,0,0,0,0,0,0,0,0,0,0,0,0,0,0,0,0,0,0,0,0,0,0,0,0,0,0,0,0,0,0,0,0,0,0,0,0,0,0,0],"sum_hessian":[6.360328E2,1.1104519E2,5.2498755E2,2.1257832E1,8.978736E1,3.2956418E2,1.9542339E2,9.093106E0,1.2164725E1,3.7588334E0,8.602853E1,2.7484915E1,3.0207925E2,6.806736E1,1.2735603E2,2.6229696E0,6.4701366E0,6.5658045E0,5.598921E0,1.195282E0,2.5635512E0,6.3959282E1,2.2069242E1,3.3672533E0,2.4117662E1,2.4643451E2,5.5644753E1,4.1222404E1,2.6844954E1,9.991461E1,2.7441425E1,1.1791787E0,1.443791E0,3.9082737E0,2.561863E0,2.275309E0,4.2904954E0,1.6179477E0,3.980973E0,1.4111799E0,1.1523714E0,2.6397509E1,3.7561775E1,3.0551684E0,1.9014074E1,1.8300369E0,1.5372165E0,4.1892242E0,1.9928438E1,1.7802643E1,2.2863187E2,4.6669376E1,8.975377E0,1.0204304E1,3.10181E1,9.7789E0,1.7066053E1,9.543876E1,4.4758544E0,1.0077005E1,1.736442E1,1.2079912E0,2.7002823E0,1.1180897E0,1.4437733E0,3.0611372E0,1.2293583E0,1.0838866E0,2.5313622E1,3.1587063E1,5.9747124E0,1.3659091E0,1.6892593E0,1.0778866E1,8.235209E0,1.8044024E0,2.384822E0,1.8288383E1,1.6400548E0,1.4952329E1,2.8503141E0,2.2618198E2,2.4498844E0,4.3768265E1,2.9011116E0,1.7166902E0,7.2586865E0,5.14232E0,5.061984E0,1.2014499E0,2.981665E1,2.4416833E0,7.337217E0,5.5578904E0,1.15081625E1,3.7173164E1,5.826559E1,2.5374806E0,1.9383734E0,2.1841958E0,7.89281E0,3.111864E0,1.4252556E1],"tree_param":{"num_deleted":"0","num_feature":"11","num_nodes":"103","size_leaf_vector":"1"}},{"base_weights":[-3.180499E-2,-5.798305E-1,9.7780555E-2,-7.491608E-1,-1.7499174E-1,1.8139666E-1,-6.1521506E-1,3.2322386E-1,-8.154212E-1,5.3135544E-1,