{"learner":{"attributes":{"scikit_learn":"{\"_estimator_type\": \"classifier\"}"},"feature_names":["ema_spread_pct","macd_histogram","squeeze_number_today","minutes_since_last_squeeze","window_volume_vs_1min_avg","distance_from_vwap_percent","day_gain","spy_percent_change_concurrent","spread_percent","market_session_encoded","price_category_encoded"],"feature_types":["float","float","float","float","float","float","float","float","float","float","float"],"gradient_booster":{"model":{"cats":{"enc":[],"feature_segments":[],"sorted_idx":[]},"gbtree_model_param":{"num_parallel_tree":"1","num_trees":"200"},"iteration_indptr":[0,1,2,3,4,5,6,7,8,9,10,11,12,13,14,15,16,17,18,19,20,21,22,23,24,25,26,27,28,29,30,31,32,33,34,35,36,37,38,39,40,41,42,43,44,45,46,47,48,49,50,51,52,53,54,55,56,57,58,59,60,61,62,63,64,65,66,67,68,69,70,71,72,73,74,75,76,77,78,79,80,81,82,83,84,85,86,87,88,89,90,91,92,93,94,95,96,97,98,99,100,101,102,103,104,105,106,107,108,109,110,111,112,113,114,115,116,117,118,119,120,121,122,123,124,125,126,127,128,129,130,131,132,133,134,135,136,137,138,139,140,141,142,143,144,145,146,147,148,149,150,151,152,153,154,155,156,157,158,159,160,161,162,163,164,165,166,167,168,169,170,171,172,173,174,175,176,177,178,179,180,181,182,183,184,185,186,187,188,189,190,191,192,193,194,195,196,197,198,199,200],"tree_info":[0,0,0,0,0,0,0,0,0,0,0,0,0,0,0,0,0,0,0,0,0,0,0,0,0,0,0,0,0,0,0,0,0,0,0,0,0,0,0,0,0,0,0,0,0,0,0,0,0,0,0,0,0,0,0,0,0,0,0,0,0,0,0,0,0,0,0,0,0,0,0,0,0,0,0,0,0,0,0,0,0,0,0,0,0,0,0,0,0,0,0,0,0,0,0,0,0,0,0,0,0,0,0,0,0,0,0,0,0,0,0,0,0,0,0,0,0,0,0,0,0,0,0,0,0,0,0,0,0,0,0,0,0,0,0,0,0,0,0,0,0,0,0,0,0,0,0,0,0,0,0,0,0,0,0,0,0,0,0,0,0,0,0,0,0,0,0,0,0,0,0,0,0,0,0,0,0,0,0,0,0,0,0,0,0,0,0,0,0,0,0,0,0,0,0,0,0,0,0,0],"trees":[{"base_weights":[3.6697246E-2,-5.263158E-1,3.1670824E-1,-8.333333E-1,-0E0,4.513567E-1,-1.7938144E0,-2.5925925E-1,-9.8E-1,-6.938776E-1,3.3333334E-1,2.422998E-1,8.2439923E-1,-9.569892E-2,2.5E-2,-8.5714287E-1,1.14285715E-1,-5.185185E-1,-1.197026E0,5.714286E-2,-9.5454544E-1,1.0526316E-1,9.285714E-1,-5.7742782E-2,4.321608E-1,-8E-2,9.0909094E-1,9.09091E-3,-1.0857143E0,8E-1,-3.6363637E-1,9.3333334E-1,-6.7741936E-1,-7.619048E-1,-1.3650794E0,-3.783784E-1,-1.2727273E0,3.1932774E-1,-5.945946E-1,1.4042553E0,-5.3846158E-2,4.6728972E-1,-2.589928E-1,5.568628E-1,-2.857143E-1,-7.5E-1,9.0909094E-1,6.758621E-1,1.215311E0,-9.09091E-3,-6.428572E-2,-2.727273E-2,6.52174E-2,1.1111111E-2,-5.2380957E-2,6.0000002E-2,1.1111111E-2,-0E0,-4.2E-2,2.6315792E-2,-5.362319E-2,-7.464789E-2,-4.509804E-2,-6.0000002E-2,7.692308E-3,-2.2222223E-2,-7.560976E-2,6.8E-2,2.0408162E-3,1.1111111E-2,-5.652174E-2,-0E0,7.674419E-2,7.692308E-2,5.882353E-3,-6.428572E-2,-7.0866146E-3,3.129103E-2,-1.754386E-3,-5.1111113E-2,2.0000001E-2,3.3333335E-2,-5.555556E-2,-0E0,6.25E-2,4.117647E-2,-6.363636E-2,6.292683E-2,-2.5E-2],"categories":[],"categories_nodes":[],"categories_segments":[],"categories_sizes":[],"default_left":[0,0,0,0,0,0,0,0,0,0,0,0,0,0,0,0,0,0,0,0,0,0,0,0,0,0,0,0,0,0,0,0,0,0,0,0,0,0,0,0,0,0,0,0,0,0,0,0,0,0,0,0,0,0,0,0,0,0,0,0,0,0,0,0,0,0,0,0,0,0,0,0,0,0,0,0,0,0,0,0,0,0,0,0,0,0,0,0,0],"id":0,"left_children":[1,3,5,7,9,11,13,15,17,19,21,23,25,-1,-1,27,29,31,33,-1,35,37,39,41,43,45,47,-1,49,51,53,55,57,59,61,63,65,67,69,71,-1,73,75,77,79,81,83,85,87,-1,-1,-1,-1,-1,-1,-1,-1,-1,-1,-1,-1,-1,-1,-1,-1,-1,-1,-1,-1,-1,-1,-1,-1,-1,-1,-1,-1,-1,-1,-1,-1,-1,-1,-1,-1,-1,-1,-1,-1],"loss_changes":[9.4677765E1,3.2236843E1,1.147653E2,1.0354813E1,1.7462585E1,2.925988E1,7.6411133E0,6.128042E0,9.394669E0,1.2820964E1,6.8258147E0,1.389627E1,1.0432213E1,0E0,0E0,2.6909084E0,6.0259743E0,8.4184E0,3.8775024E0,0E0,3.5515976E0,5.882831E0,1.4868017E1,1.0185408E1,1.3520025E1,8.965454E0,8.016762E0,0E0,1.348052E0,5.800791E0,4.6406927E0,4.4444442E-1,3.4141932E0,8.965894E0,1.4516907E0,4.2295218E0,2.0551853E0,8.5672035E0,4.299778E0,2.155367E0,0E0,9.837611E0,8.185148E0,5.2264595E0,1.1898413E1,4.833333E0,1.7045455E0,2.1909496E1,4.5033646E0,0E0,0E0,0E0,0E0,0E0,0E0,0E0,0E0,0E0,0E0,0E0,0E0,0E0,0E0,0E0,0E0,0E0,0E0,0E0,0E0,0E0,0E0,0E0,0E0,0E0,0E0,0E0,0E0,0E0,0E0,0E0,0E0,0E0,0E0,0E0,0E0,0E0,0E0,0E0,0E0],"parents":[2147483647,0,0,1,1,2,2,3,3,4,4,5,5,6,6,7,7,8,8,9,9,10,10,11,11,12,12,15,15,16,16,17,17,18,18,20,20,21,21,22,22,23,23,24,24,25,25,26,26,28,28,29,29,30,30,31,31,32,32,33,33,34,34,35,35,36,36,37,37,38,38,39,39,41,41,42,42,43,43,44,44,45,45,46,46,47,47,48,48],"right_children":[2,4,6,8,10,12,14,16,18,20,22,24,26,-1,-1,28,30,32,34,-1,36,38,40,42,44,46,48,-1,50,52,54,56,58,60,62,64,66,68,70,72,-1,74,76,78,80,82,84,86,88,-1,-1,-1,-1,-1,-1,-1,-1,-1,-1,-1,-1,-1,-1,-1,-1,-1,-1,-1,-1,-1,-1,-1,-1,-1,-1,-1,-1,-1,-1,-1,-1,-1,-1,-1,-1,-1,-1,-1,-1],"split_conditions":[-5.8686733E-1,-2.862056E-1,2.0781143E0,-2.8185362E-1,-9.9013336E-2,2.1299705E-1,6.964489E-1,-6.728397E-1,-8.578695E-1,-1.8928218E0,1.2034527E0,2.5906885E-2,-8.626204E-1,-9.569892E-2,2.5E-2,-9.847651E-2,2.670065E-2,-6.679337E-1,3.4800183E-2,5.714286E-2,5.990343E-1,1.2910067E0,1.9277819E0,-3.9763635E-1,9.57454E-1,-1.2583207E-1,-9.9013336E-2,9.09091E-3,-2.8470033E-1,-9.451009E-1,-5.671448E-1,-2.6588178E-1,3.3865753E-4,-7.2487867E-1,1.3318486E0,-1.3276322E-1,6.964489E-1,-3.274657E-1,-8.200461E-2,-1.6775556E-1,-5.3846158E-2,-5.684296E-1,-1.6317236E0,5.3242004E-1,-9.9013336E-2,-6.331315E-3,-9.4964355E-1,9.984538E-1,1.791116E0,-9.09091E-3,-6.428572E-2,-2.727273E-2,6.52174E-2,1.1111111E-2,-5.2380957E-2,6.0000002E-2,1.1111111E-2,-0E0,-4.2E-2,2.6315792E-2,-5.362319E-2,-7.464789E-2,-4.509804E-2,-6.0000002E-2,7.692308E-3,-2.2222223E-2,-7.560976E-2,6.8E-2,2.0408162E-3,1.1111111E-2,-5.652174E-2,-0E0,7.674419E-2,7.692308E-2,5.882353E-3,-6.428572E-2,-7.0866146E-3,3.129103E-2,-1.754386E-3,-5.1111113E-2,2.0000001E-2,3.3333335E-2,-5.555556E-2,-0E0,6.25E-2,4.117647E-2,-6.363636E-2,6.292683E-2,-2.5E-2],"split_indices":[4,2,2,8,9,4,7,8,2,1,2,1,8,0,0,5,7,5,1,0,8,8,2,1,2,7,9,0,3,7,8,3,1,4,9,7,7,1,5,8,0,2,7,3,9,1,8,2,2,0,0,0,0,0,0,0,0,0,0,0,0,0,0,0,0,0,0,0,0,0,0,0,0,0,0,0,0,0,0,0,0,0,0,0,0,0,0,0,0],"split_type":[0,0,0,0,0,0,0,0,0,0,0,0,0,0,0,0,0,0,0,0,0,0,0,0,0,0,0,0,0,0,0,0,0,0,0,0,0,0,0,0,0,0,0,0,0,0,0,0,0,0,0,0,0,0,0,0,0,0,0,0,0,0,0,0,0,0,0,0,0,0,0,0,0,0,0,0,0,0,0,0,0,0,0,0,0,0,0,0,0],"sum_hessian":[5.985E2,1.985E2,4E2,1.25E2,7.35E1,3.7675E2,2.325E1,2.6E1,9.9E1,2.35E1,5E1,2.425E2,1.3425E2,2.225E1,1E0,9.5E0,1.65E1,3.275E1,6.625E1,2.5E0,2.1E1,3.7E1,1.3E1,9.425E1,1.4825E2,1.15E1,1.2275E2,1.75E0,7.75E0,6.5E0,1E1,2.75E0,3E1,2E1,4.625E1,8.25E0,1.275E1,2.875E1,8.25E0,1.075E1,2.25E0,2.575E1,6.85E1,1.265E2,2.175E1,7E0,4.5E0,7.15E1,5.125E1,1.75E0,6E0,1.75E0,4.75E0,5.75E0,4.25E0,1.5E0,1.25E0,6E0,2.4E1,3.75E0,1.625E1,3.45E1,1.175E1,2.75E0,5.5E0,3.5E0,9.25E0,5.25E0,2.35E1,3.5E0,4.75E0,1E0,9.75E0,5.5E0,2.025E1,6E0,6.25E1,1.1325E2,1.325E1,1.025E1,1.15E1,1.25E0,5.75E0,1.5E0,3E0,6.7E1,4.5E0,5.025E1,1E0],"tree_param":{"num_deleted":"0","num_feature":"11","num_nodes":"89","size_leaf_vector":"1"}},{"base_weights":[3.9263247E-3,-4.99189E-1,2.4992225E-1,-7.362127E-1,2.1602125E-1,3.7818342E-1,-1.7147053E0,5.7532497E-2,-7.7676266E-1,4.0191516E-1,-6.340877E-2,1.347887E-1,8.229831E-1,4.5652274E-4,-9.132307E-2,-8.0367905E-1,4.5242533E-2,7.571016E-2,1.2795375E-1,2.4035417E-1,-3.8365114E-1,8.470851E-1,-3.868435E-2,-1.3937663E0,-7.314202E-1,-2.4451734E-1,6.464125E-1,1.3916156E0,1.690122E-1,-5.031263E-1,6.6345826E-2,6.845331E-1,1.0695821E0,-3.1367578E-2,-7.9029776E-2,-4.3274175E-2,-2.1577686E-2,3.035445E-2,-5.286185E-2,6.616369E-2,-1.9427978E-2,2.662607E-2,7.443472E-2,-9.6002845E-3,2.1661008E-2,-1.1358247E-2,-7.104105E-2,4.2897057E-2,-4.508077E-2,1.9870853E-2,6.8484955E-2],"categories":[],"categories_nodes":[],"categories_segments":[],"categories_sizes":[],"default_left":[0,0,0,0,0,0,0,0,0,0,0,0,0,0,0,0,0,0,0,0,0,0,0,0,0,0,0,0,0,0,0,0,0,0,0,0,0,0,0,0,0,0,0,0,0,0,0,0,0,0,0],"id":1,"left_children":[1,3,5,7,9,11,13,-1,15,17,-1,19,21,-1,-1,23,-1,-1,25,27,29,31,-1,33,35,37,39,41,43,45,-1,47,49,-1,-1,-1,-1,-1,-1,-1,-1,-1,-1,-1,-1,-1,-1,-1,-1,-1,-1],"loss_changes":[7.372357E1,3.3319756E1,1.01456726E2,1.2152527E1,1.4156941E1,4.0634308E1,4.7746887E0,0E0,7.274498E0,1.3432757E1,0E0,1.3470625E1,5.7702026E0,0E0,0E0,5.073761E0,0E0,0E0,7.2978325E0,1.6495966E1,9.197865E0,4.020653E0,0E0,1.0825806E0,4.829132E0,1.6035143E1,1.1534604E1,1.8707275E-1,1.8488342E1,9.741154E0,0E0,2.2423634E1,1.0288273E1,0E0,0E0,0E0,0E0,0E0,0E0,0E0,0E0,0E0,0E0,0E0,0E0,0E0,0E0,0E0,0E0,0E0,0E0],"parents":[2147483647,0,0,1,1,2,2,3,3,4,4,5,5,6,6,8,8,9,9,11,11,12,12,15,15,18,18,19,19,20,20,21,21,23,23,24,24,25,25,26,26,27,27,28,28,29,29,31,31,32,32],"right_children":[2,4,6,8,10,12,14,-1,16,18,-1,20,22,-1,-1,24,-1,-1,26,28,30,32,-1,34,36,38,40,42,44,46,-1,48,50,-1,-1,-1,-1,-1,-1,-1,-1,-1,-1,-1,-1,-1,-1,-1,-1,-1,-1],"split_conditions":[-5.8686733E-1,1.9212504E-1,2.0781143E0,-1.04913E0,2.5701115E0,2.2499162E-1,-1.634135E0,5.7532497E-2,8.7473327E-1,8.205198E-1,-6.340877E-2,9.7112066E-1,1.791116E0,4.5652274E-4,-9.132307E-2,-1.3765814E0,4.5242533E-2,7.571016E-2,1.2854522E0,-1.1228398E0,1.4937683E0,-9.9013336E-2,-3.868435E-2,-8.05536E-1,-6.811441E-1,-3.576182E-1,1.9277819E0,-4.9096966E-1,4.035849E-2,1.047031E0,6.6345826E-2,1.7845845E-1,1.2379209E-1,-3.1367578E-2,-7.9029776E-2,-4.3274175E-2,-2.1577686E-2,3.035445E-2,-5.286185E-2,6.616369E-2,-1.9427978E-2,2.662607E-2,7.443472E-2,-9.6002845E-3,2.1661008E-2,-1.1358247E-2,-7.104105E-2,4.2897057E-2,-4.508077E-2,1.9870853E-2,6.8484955E-2],"split_indices":[4,2,2,0,2,4,9,0,0,7,0,2,2,0,0,7,0,0,2,0,7,9,0,2,4,0,2,4,1,7,0,2,2,0,0,0,0,0,0,0,0,0,0,0,0,0,0,0,0,0,0],"split_type":[0,0,0,0,0,0,0,0,0,0,0,0,0,0,0,0,0,0,0,0,0,0,0,0,0,0,0,0,0,0,0,0,0,0,0,0,0,0,0,0,0,0,0,0,0,0,0,0,0,0,0],"sum_hessian":[5.936692E2,1.946133E2,3.9905588E2,1.461494E2,4.8463894E1,3.7535806E2,2.3697836E1,2.498822E0,1.4365057E2,4.371753E1,4.7463665E0,2.4344681E2,1.3191124E2,1.4987007E0,2.2199135E1,1.4190135E2,1.7492306E0,7.745124E0,3.5972404E1,2.027076E2,4.073922E1,1.3041211E2,1.499124E0,1.3485571E1,1.2841577E2,2.1240896E1,1.4731508E1,1.0748609E1,1.9195898E2,3.873933E1,1.9998894E0,7.771306E1,5.2699055E1,3.4971936E0,9.988378E0,8.743805E1,4.097773E1,1.0495855E1,1.0745041E1,8.738232E0,5.9932756E0,1.7497488E0,8.998859E0,8.123351E1,1.1072547E2,3.0742304E1,7.997026E0,7.046813E1,7.24493E0,1.6984184E1,3.571487E1],"tree_param":{"num_deleted":"0","num_feature":"11","num_nodes":"51","size_leaf_vector":"1"}},{"base_weights":[-7.845684E-3,-4.553532E-1,3.6717418E-1,-8.08366E-1,-1.5679093E-1,2.1778485E-1,9.082068E-1,5.2537303E-2,-8.3585364E-1,-1.1712288E0,-1.8654495E-2,-2.7924168E-1,3.6390063E-1,1.0732508E0,-8.683965E-1,2.4484199E-2,-8.646786E-1,6.3879252E-3,-1.3684473E0,1.4205286E-1,-6.7492455E-1,-1.5695565E0,1.12303406E-1,1.3428476E-1,7.572167E-1,1.1965139E0,2.1111251E-1,-6.642267E-2,1.9892156E-2,-1.3665614E0,-7.953659E-1,-8.207512E-2,-7.3734653E-1,1.496523E-2,7.748665E-1,-9.466796E-1,5.9454747E-2,-8.378744E-2,-2.6899165E-2,2.0368847E-1,-6.29794E-2,4.1242033E-1,-1.4276029E-1,-1.9590162E-2,8.6757576E-1,1.412333E0,7.0184815E-1,-5.0460696E-1,9.2086726E-1,-8.431624E-3,-7.3867805E-2,-8.339855E-3,-4.3146648E-2,-7.3463186E-3,-6.4239584E-2,7.2601563E-3,-4.892599E-2,4.8884567E-2,-1.9855164E-3,-5.817562E-2,1.071025E-2,4.567378E-2,-5.0669075E-3,4.9114045E-2,7.6811626E-3,-3.0252777E-4,-6.2485825E-2,4.0657166E-2,-2.0279847E-2,6.872207E-2,3.5495758E-2,-2.8853497E-4,7.3531404E-2,1.3934086E-3,6.2242966E-2,-4.9874227E-2,5.2846815E-3,5.655831E-2,8.019172E-3],"categories":[],"categories_nodes":[],"categories_segments":[],"categories_sizes":[],"default_left":[0,0,0,0,0,0,0,0,0,0,0,0,0,0,0,0,0,0,0,0,0,0,0,0,0,0,0,0,0,0,0,0,0,0,0,0,0,0,0,0,0,0,0,0,0,0,0,0,0,0,0,0,0,0,0,0,0,0,0,0,0,0,0,0,0,0,0,0,0,0,0,0,0,0,0,0,0,0,0],"id":2,"left_children":[1,3,5,7,9,11,13,-1,15,17,19,21,23,25,27,-1,29,-1,31,33,35,37,39,41,43,45,47,-1,-1,49,51,-1,53,55,57,59,-1,-1,-1,61,-1,63,65,67,69,71,73,75,77,-1,-1,-1,-1,-1,-1,-1,-1,-1,-1,-1,-1,-1,-1,-1,-1,-1,-1,-1,-1,-1,-1,-1,-1,-1,-1,-1,-1,-1,-1],"loss_changes":[9.96003E1,2.8391506E1,2.5900646E1,7.2019043E0,2.069468E1,1.8573406E1,2.1325954E1,0E0,5.103897E0,4.7098446E0,1.3926338E1,2.9656548E1,1.7689579E1,6.557976E0,4.2945566E0,0E0,3.096283E0,0E0,1.4527855E0,8.526533E0,1.4280654E1,5.9391403E-1,5.9860444E0,9.737082E0,6.2235985E0,4.971916E0,5.1538353E0,0E0,0E0,1.5027962E0,4.445114E0,0E0,1.906575E0,1.1713361E1,2.9690466E0,6.094574E0,0E0,0E0,0E0,9.555337E0,0E0,9.1304245E0,9.627115E0,3.539076E0,4.091938E0,3.141739E0,6.9024343E0,1.6822827E0,6.16426E-1,0E0,0E0,0E0,0E0,0E0,0E0,0E0,0E0,0E0,0E0,0E0,0E0,0E0,0E0,0E0,0E0,0E0,0E0,0E0,0E0,0E0,0E0,0E0,0E0,0E0,0E0,0E0,0E0,0E0,0E0],"parents":[2147483647,0,0,1,1,2,2,3,3,4,4,5,5,6,6,8,8,9,9,10,10,11,11,12,12,13,13,14,14,16,16,18,18,19,19,20,20,21,21,22,22,23,23,24,24,25,25,26,26,29,29,30,30,32,32,33,33,34,34,35,35,39,39,41,41,42,42,43,43,44,44,45,45,46,46,47,47,48,48],"right_children":[2,4,6,8,10,12,14,-1,16,18,20,22,24,26,28,-1,30,-1,32,34,36,38,40,42,44,46,48,-1,-1,50,52,-1,54,56,58,60,-1,-1,-1,62,-1,64,66,68,70,72,74,76,78,-1,-1,-1,-1,-1,-1,-1,-1,-1,-1,-1,-1,-1,-1,-1,-1,-1,-1,-1,-1,-1,-1,-1,-1,-1,-1,-1,-1,-1,-1],"split_conditions":[-4.5823476E-1,-6.072316E-1,6.211958E-1,-1.747194E0,-1.440367E0,-9.018581E-1,1.1920404E0,5.2537303E-2,-1.3079847E0,-1.9825442E0,6.6455615E-1,-5.154765E-1,-1.620766E-1,-2.05455E-1,-3.045093E-1,2.4484199E-2,-1.3127959E0,6.3879252E-3,4.7545716E-2,4.4980252E-1,1.4937683E0,-1.440367E0,1.0791622E0,8.205198E-1,-1.5998309E0,2.3331466E-1,-8.3368045E-1,-6.642267E-2,1.9892156E-2,-1.2056473E0,-3.1738514E-1,-8.207512E-2,2.9715243E-1,2.8743663E-1,-5.712957E-1,2.7787468E-1,5.9454747E-2,-8.378744E-2,-2.6899165E-2,1.053228E0,-6.29794E-2,-1.498976E-1,2.0701597E0,-3.025284E-1,-3.2629916E-1,-1.747194E0,7.980656E-1,-1.9654877E-1,-6.488734E-1,-8.431624E-3,-7.3867805E-2,-8.339855E-3,-4.3146648E-2,-7.3463186E-3,-6.4239584E-2,7.2601563E-3,-4.892599E-2,4.8884567E-2,-1.9855164E-3,-5.817562E-2,1.071025E-2,4.567378E-2,-5.0669075E-3,4.9114045E-2,7.6811626E-3,-3.0252777E-4,-6.2485825E-2,4.0657166E-2,-2.0279847E-2,6.872207E-2,3.5495758E-2,-2.8853497E-4,7.3531404E-2,1.3934086E-3,6.2242966E-2,-4.9874227E-2,5.2846815E-3,5.655831E-2,8.019172E-3],"split_indices":[6,4,4,1,7,10,1,0,5,7,7,7,4,3,3,0,7,0,1,5,7,7,7,7,7,5,10,0,0,6,3,0,1,5,6,3,0,0,0,6,0,10,6,3,3,1,5,7,8,0,0,0,0,0,0,0,0,0,0,0,0,0,0,0,0,0,0,0,0,0,0,0,0,0,0,0,0,0,0],"split_type":[0,0,0,0,0,0,0,0,0,0,0,0,0,0,0,0,0,0,0,0,0,0,0,0,0,0,0,0,0,0,0,0,0,0,0,0,0,0,0,0,0,0,0,0,0,0,0,0,0,0,0,0,0,0,0,0,0,0,0,0,0,0,0,0,0,0,0,0,0,0,0,0,0,0,0,0,0,0,0],"sum_hessian":[5.914837E2,2.6958105E2,3.2190265E2,1.22744E2,1.4683705E2,2.5335036E2,6.8552284E1,1.2459893E0,1.2149802E2,1.6702139E1,1.3013492E2,5.735178E1,1.9599858E2,6.3087444E1,5.464836E0,2.2455728E0,1.1925244E2,2.2479744E0,1.4454164E1,1.05165535E2,2.4969383E1,1.2651349E1,4.470043E1,1.2459948E2,7.13991E1,5.485655E1,8.230895E0,3.972422E0,1.4924141E0,1.2199771E1,1.0705267E2,8.9714985E0,5.4826655E0,8.842986E1,1.6735674E1,2.2221802E1,2.747582E0,1.090437E1,1.7469786E0,4.270713E1,1.9933001E0,6.1933525E1,6.266595E1,8.984009E0,6.2415092E1,3.6901546E1,1.7955002E1,4.242142E0,3.988753E0,1.2463257E0,1.0953445E1,1.0727202E1,9.632547E1,3.2480383E0,2.234627E0,7.893585E1,9.494012E0,1.3238998E1,3.4966764E0,1.8722504E1,3.4992979E0,1.2237086E1,3.0470045E1,1.8469307E1,4.3464222E1,5.6672348E1,5.993602E0,2.494996E0,6.489013E0,1.2977095E1,4.9438E1,1.4926183E0,3.5408928E1,8.480461E0,9.474541E0,1.9958681E0,2.2462745E0,2.7428377E0,1.2459154E0],"tree_param":{"num_deleted":"0","num_feature":"11","num_nodes":"79","size_leaf_vector":"1"}},{"base_weights":[9.924929E-3,-3.9655304E-1,3.5361066E-1,-1.0132034E-1,-7.3512685E-1,5.006444E-1,-1.2986517E0,2.6403832E-1,-7.547371E-1,-3.0586407E-1,-9.353765E-1,1.1602235E0,4.3298075E-1,-8.3104245E-2,-3.1081125E-1,-2.2743388E-1,5.991756E-1,-4.8557982E-1,-1.5463655E0,5.8157165E-2,-4.369976E-1,2.7345988E-1,-9.8160356E-1,6.377873E-1,7.112673E-2,5.8475804E-1,1.6978887E-1,4.8530754E-1,-8.3339393E-1,-4.5750794E-1,8.6629194E-1,9.1322714E-1,-3.3128068E-1,6.64601E-2,-6.234519E-1,-9.149494E-3,-8.369485E-2,-7.1127504E-1,8.9929976E-2,-2.6305674E-2,5.6411393E-2,-1.0138128E0,2.3996158E-2,9.5704585E-1,-4.138193E-2,6.945558E-1,-1.849412E-2,-1.0748807E-1,7.60477E-1,5.384068E-2,-8.776242E-3,-1.1109594E-2,-6.341795E-2,3.7818283E-2,-2.6903903E-2,-8.912093E-3,6.859918E-2,6.576493E-2,2.1230577E-2,-5.3246524E-2,1.1207885E-2,-5.9014615E-2,-9.475729E-3,-4.835275E-2,2.4798376E-2,5.1103514E-2,-1.0742742E-2,-5.7281323E-2,-2.4632545E-2,6.3179135E-2,-1.2776461E-2,2.7671054E-2,5.327785E-2,6.665753E-2,-9.500247E-3,2.0603333E-2,-1.54109225E-2,-5.4878034E-2,4.3471716E-2],"categories":[],"categories_nodes":[],"categories_segments":[],"categories_sizes":[],"default_left":[0,0,0,0,0,0,0,0,0,0,0,0,0,0,0,0,0,0,0,0,0,0,0,0,0,0,0,0,0,0,0,0,0,0,0,0,0,0,0,0,0,0,0,0,0,0,0,0,0,0,0,0,0,0,0,0,0,0,0,0,0,0,0,0,0,0,0,0,0,0,0,0,0,0,0,0,0,0,0],"id":3,"left_children":[1,3,5,7,9,11,13,15,17,19,21,23,25,-1,27,29,31,33,35,-1,37,39,41,43,-1,45,47,49,51,53,55,57,59,-1,61,-1,-1,63,65,-1,-1,67,-1,69,-1,71,73,75,77,-1,-1,-1,-1,-1,-1,-1,-1,-1,-1,-1,-1,-1,-1,-1,-1,-1,-1,-1,-1,-1,-1,-1,-1,-1,-1,-1,-1,-1,-1],"loss_changes":[8.421422E1,2.7533092E1,7.9999565E1,3.56984E1,1.0759094E1,1.291571E1,9.1656685E0,1.5967038E1,1.0666903E1,8.668304E0,5.137497E0,2.8446198E0,1.08571205E1,0E0,3.933912E0,1.038444E1,1.7081366E1,1.119917E1,1.9782047E0,0E0,5.789328E0,3.3215163E0,4.4474716E0,5.92165E0,0E0,1.1508007E1,1.6743078E1,1.7501581E0,1.1776078E0,3.6782928E0,4.070946E0,7.927803E0,6.442368E0,0E0,9.248767E0,0E0,0E0,8.559364E0,4.3246684E0,0E0,0E0,5.1132507E0,0E0,3.8415785E0,0E0,7.0996246E0,6.674246E0,7.438399E0,7.5583305E0,0E0,0E0,0E0,0E0,0E0,0E0,0E0,0E0,0E0,0E0,0E0,0E0,0E0,0E0,0E0,0E0,0E0,0E0,0E0,0E0,0E0,0E0,0E0,0E0,0E0,0E0,0E0,0E0,0E0,0E0],"parents":[2147483647,0,0,1,1,2,2,3,3,4,4,5,5,6,6,7,7,8,8,9,9,10,10,11,11,12,12,14,14,15,15,16,16,17,17,18,18,20,20,21,21,22,22,23,23,25,25,26,26,27,27,28,28,29,29,30,30,31,31,32,32,34,34,37,37,38,38,41,41,43,43,45,45,46,46,47,47,48,48],"right_children":[2,4,6,8,10,12,14,16,18,20,22,24,26,-1,28,30,32,34,36,-1,38,40,42,44,-1,46,48,50,52,54,56,58,60,-1,62,-1,-1,64,66,-1,-1,68,-1,70,-1,72,74,76,78,-1,-1,-1,-1,-1,-1,-1,-1,-1,-1,-1,-1,-1,-1,-1,-1,-1,-1,-1,-1,-1,-1,-1,-1,-1,-1,-1,-1,-1,-1],"split_conditions":[-4.5823476E-1,-2.1991388E-1,2.0781143E0,-6.245358E-1,-1.842235E-1,-3.3818457E-1,6.3266337E-1,-9.148687E-1,4.1079047E-1,-3.2828006E-1,-3.3719411E-1,4.8557904E-1,9.932659E-1,-8.3104245E-2,2.2831132E0,5.5771154E-1,-9.9013336E-2,-1.1847309E0,-4.483315E0,5.8157165E-2,-3.9068986E-2,1.7973621E-1,4.546824E0,4.4997653E-1,7.112673E-2,1.2067333E0,5.18035E-1,-4.7060724E-2,-3.1045198E-1,-8.140622E-1,-8.3368045E-1,-7.407987E-1,-1.3765814E0,6.64601E-2,-1.9275035E-1,-9.149494E-3,-8.369485E-2,1.047031E0,-8.9818984E-1,-2.6305674E-2,5.6411393E-2,1.3318486E0,2.3996158E-2,3.9712387E-1,-4.138193E-2,5.181779E-1,-3.332323E-1,-3.4618244E-1,-8.843232E-1,5.384068E-2,-8.776242E-3,-1.1109594E-2,-6.341795E-2,3.7818283E-2,-2.6903903E-2,-8.912093E-3,6.859918E-2,6.576493E-2,2.1230577E-2,-5.3246524E-2,1.1207885E-2,-5.9014615E-2,-9.475729E-3,-4.835275E-2,2.4798376E-2,5.1103514E-2,-1.0742742E-2,-5.7281323E-2,-2.4632545E-2,6.3179135E-2,-1.2776461E-2,2.7671054E-2,5.327785E-2,6.665753E-2,-9.500247E-3,2.0603333E-2,-1.54109225E-2,-5.4878034E-2,4.3471716E-2],"split_indices":[6,8,2,2,0,3,7,2,2,3,3,6,6,0,2,0,9,0,0,0,3,8,8,8,0,7,0,6,3,0,10,6,7,0,3,0,0,7,7,0,0,9,0,2,0,6,3,0,8,0,0,0,0,0,0,0,0,0,0,0,0,0,0,0,0,0,0,0,0,0,0,0,0,0,0,0,0,0,0],"split_type":[0,0,0,0,0,0,0,0,0,0,0,0,0,0,0,0,0,0,0,0,0,0,0,0,0,0,0,0,0,0,0,0,0,0,0,0,0,0,0,0,0,0,0,0,0,0,0,0,0,0,0,0,0,0,0,0,0,0,0,0,0,0,0,0,0,0,0,0,0,0,0,0,0,0,0,0,0,0,0],"sum_hessian":[6.0081525E2,2.7519162E2,3.2562366E2,1.4769897E2,1.27492645E2,2.9965457E2,2.5969067E1,9.511258E1,5.2586388E1,4.135974E1,8.6132904E1,2.6377924E1,2.7327664E2,1.8485563E1,7.483505E0,3.8692364E1,5.6420216E1,4.0447464E1,1.21389265E1,2.7445323E0,3.861521E1,2.9914286E0,8.314147E1,9.964124E0,1.6413801E1,1.7254929E2,1.0072737E2,2.9938734E0,4.4896317E0,3.24483E1,6.2440643E0,4.219642E1,1.4223798E1,2.2457876E0,3.8201675E1,1.2466346E0,1.0892291E1,2.5165932E1,1.3449278E1,1.7442786E0,1.2471502E0,8.164844E1,1.4930388E0,8.466519E0,1.4976048E0,1.4585153E2,2.6697754E1,6.910608E1,3.1621292E1,1.2476399E0,1.7462335E0,2.4948115E0,1.9948201E0,1.497607E0,3.0950691E1,2.2480733E0,3.995991E0,2.2220093E1,1.9976326E1,5.7334723E0,8.490325E0,1.5978133E1,2.2223541E1,2.093035E1,4.235583E0,2.7340782E0,1.0715199E1,6.421004E1,1.7438395E1,6.7245092E0,1.7420099E0,1.0746271E2,3.8388824E1,2.2435756E0,2.445418E1,1.8965202E1,5.0140877E1,1.2489946E0,3.0372297E1],"tree_param":{"num_deleted":"0","num_feature":"11","num_nodes":"79","size_leaf_vector":"1"}},{"base_weights":[-8.864085E-3,-4.5463467E-1,3.6364317E-1,-7.366829E-2,-7.255666E-1,2.0350446E-1,8.9746773E-1,-5.66828E-1,2.949466E-1,-1.3855987E0,-6.018883E-1,-1.054935E-1,3.9731392E-1,9.9301493E-1,-3.316488E-1,1.1408889E0,-7.213081E-1,9.591177E-1,1.9749916E-1,-7.676612E-2,-5.366857E-1,4.723951E-1,-6.677447E-1,3.3233723E-1,-1.2549719E0,5.86478E-1,9.654611E-2,1.0357599E0,-3.8223416E-2,-5.5549603E-2,3.585212E-2,7.0113175E-2,1.2746448E-2,2.4940178E-2,-7.952434E-1,-2.8476506E-2,7.2961986E-2,6.814965E-2,7.1559054E-1,-5.8454942E-2,1.0327809E-2,-2.4019091E-1,5.4228332E-2,1.0852067E-2,-7.552698E-1,-5.707488E-1,4.8643997E-1,-3.9110106E-1,-1.4169995E0,7.744711E-1,7.994151E-2,9.301426E-1,-2.4830341E-1,-1.4406428E-1,1.1051234E0,-9.644744E-3,-4.986525E-2,1.2809123E-2,-1.6960602E-2,4.7606964E-2,-3.5196472E-2,2.7903521E-2,-4.467692E-2,2.9469887E-2,-3.3068012E-2,-4.0687405E-2,2.1875046E-2,-4.0067177E-2,3.4058463E-2,4.535558E-3,3.8158804E-2,1.5729068E-2,-5.1448207E-2,-1.5080678E-2,-7.40186E-2,5.6978088E-2,2.8211534E-2,2.9413497E-2,-3.8739394E-2,5.664892E-2,-3.9916497E-2,-2.1883398E-2,2.1111922E-2,2.3932403E-2,-3.3408154E-2,-1.2957478E-2,5.6789286E-2],"categories":[],"categories_nodes":[],"categories_segments":[],"categories_sizes":[],"default_left":[0,0,0,0,0,0,0,0,0,0,0,0,0,0,0,0,0,0,0,0,0,0,0,0,0,0,0,0,0,0,0,0,0,0,0,0,0,0,0,0,0,0,0,0,0,0,0,0,0,0,0,0,0,0,0,0,0,0,0,0,0,0,0,0,0,0,0,0,0,0,0,0,0,0,0,0,0,0,0,0,0,0,0,0,0,0,0],"id":4,"left_children":[1,3,5,7,9,11,13,15,17,19,21,23,25,27,29,31,33,35,37,-1,39,41,43,45,47,49,51,53,-1,-1,-1,-1,-1,-1,55,-1,-1,57,59,-1,-1,61,-1,63,65,67,69,71,73,75,77,79,81,83,85,-1,-1,-1,-1,-1,-1,-1,-1,-1,-1,-1,-1,-1,-1,-1,-1,-1,-1,-1,-1,-1,-1,-1,-1,-1,-1,-1,-1,-1,-1,-1,-1],"loss_changes":[9.980449E1,2.8186947E1,2.7808918E1,2.1040668E1,1.22091675E1,1.52036495E1,9.168556E0,1.3870155E1,4.1059837E0,2.2833023E0,9.960808E0,4.9928E1,8.807329E0,6.0570908E0,5.8463225E0,6.822853E-1,4.5433254E0,7.1247087E0,3.91416E0,0E0,2.6869564E0,3.9511871E0,7.662491E0,1.030221E1,3.2733116E0,9.026962E0,1.7867102E1,5.793556E0,0E0,0E0,0E0,0E0,0E0,0E0,5.129612E0,0E0,0E0,3.7962012E0,4.6019807E0,0E0,0E0,2.9646637E0,0E0,6.499053E0,8.319084E0,3.7098475E0,6.728446E0,2.8894327E0,1.1541481E0,4.6913033E0,1.2165156E1,7.272628E0,5.795495E0,1.8562076E0,3.019287E0,0E0,0E0,0E0,0E0,0E0,0E0,0E0,0E0,0E0,0E0,0E0,0E0,0E0,0E0,0E0,0E0,0E0,0E0,0E0,0E0,0E0,0E0,0E0,0E0,0E0,0E0,0E0,0E0,0E0,0E0,0E0,0E0],"parents":[2147483647,0,0,1,1,2,2,3,3,4,4,5,5,6,6,7,7,8,8,9,9,10,10,11,11,12,12,13,13,14,14,15,15,16,16,17,17,18,18,20,20,21,21,22,22,23,23,24,24,25,25,26,26,27,27,34,34,37,37,38,38,41,41,43,43,44,44,45,45,46,46,47,47,48,48,49,49,50,50,51,51,52,52,53,53,54,54],"right_children":[2,4,6,8,10,12,14,16,18,20,22,24,26,28,30,32,34,36,38,-1,40,42,44,46,48,50,52,54,-1,-1,-1,-1,-1,-1,56,-1,-1,58,60,-1,-1,62,-1,64,66,68,70,72,74,76,78,80,82,84,86,-1,-1,-1,-1,-1,-1,-1,-1,-1,-1,-1,-1,-1,-1,-1,-1,-1,-1,-1,-1,-1,-1,-1,-1,-1,-1,-1,-1,-1,-1,-1,-1],"split_conditions":[-4.5823476E-1,-7.584418E-1,6.211958E-1,-4.965691E-1,-1.4084742E0,4.030622E-1,1.1920404E0,-3.2629916E-1,-8.1853396E-1,-1.1896097E-1,-4.1319963E-1,-7.584418E-1,9.932659E-1,2.7827134E0,-1.440367E0,-7.568058E-1,-6.891118E-1,-1.7881596E-1,4.344498E-1,-7.676612E-2,-1.6336273E-2,-6.075696E-1,-8.344043E-1,-7.085224E-1,-7.691743E-1,9.834839E-1,-3.1182444E-1,-3.8577026E-1,-3.8223416E-2,-5.5549603E-2,3.585212E-2,7.0113175E-2,1.2746448E-2,2.4940178E-2,-2.1991388E-1,-2.8476506E-2,7.2961986E-2,8.1999764E-2,-5.712957E-1,-5.8454942E-2,1.0327809E-2,-1.8579301E-1,5.4228332E-2,-7.2870874E-1,4.772417E-1,2.650793E0,-5.196464E-1,1.08169876E-1,-9.5736855E-1,-1.9730791E-1,2.1240015E-1,7.116473E-1,1.4154264E-1,-7.012568E-1,-1.634135E0,-9.644744E-3,-4.986525E-2,1.2809123E-2,-1.6960602E-2,4.7606964E-2,-3.5196472E-2,2.7903521E-2,-4.467692E-2,2.9469887E-2,-3.3068012E-2,-4.0687405E-2,2.1875046E-2,-4.0067177E-2,3.4058463E-2,4.535558E-3,3.8158804E-2,1.5729068E-2,-5.1448207E-2,-1.5080678E-2,-7.40186E-2,5.6978088E-2,2.8211534E-2,2.9413497E-2,-3.8739394E-2,5.664892E-2,-3.9916497E-2,-2.1883398E-2,2.1111922E-2,2.3932403E-2,-3.3408154E-2,-1.2957478E-2,5.6789286E-2],"split_indices":[6,9,4,4,7,9,1,3,5,4,1,9,6,6,7,6,5,4,5,0,1,6,7,4,8,7,3,6,0,0,0,0,0,0,8,0,0,4,6,0,0,8,0,6,1,8,8,1,5,5,6,9,5,8,9,0,0,0,0,0,0,0,0,0,0,0,0,0,0,0,0,0,0,0,0,0,0,0,0,0,0,0,0,0,0,0,0],"split_type":[0,0,0,0,0,0,0,0,0,0,0,0,0,0,0,0,0,0,0,0,0,0,0,0,0,0,0,0,0,0,0,0,0,0,0,0,0,0,0,0,0,0,0,0,0,0,0,0,0,0,0,0,0,0,0,0,0,0,0,0,0,0,0,0,0,0,0,0,0,0,0,0,0,0,0,0,0,0,0,0,0,0,0,0,0,0,0],"sum_hessian":[5.9904517E2,2.7260492E2,3.2644028E2,1.1382448E2,1.5878043E2,2.5217352E2,7.4266754E1,4.8457203E1,6.536728E1,2.3447159E1,1.3533327E2,9.7377106E1,1.5479642E2,6.908817E1,5.1785803E0,3.4901066E0,4.4967094E1,7.232235E0,5.8135044E1,1.9244427E1,4.2027335E0,7.46051E0,1.27872765E2,7.103217E1,2.6344933E1,9.444593E1,6.0350494E1,6.784863E1,1.2395395E0,2.9367228E0,2.2418575E0,2.2450218E0,1.2450848E0,2.240865E0,4.272623E1,1.7486415E0,5.4835935E0,4.742596E1,1.0709083E1,1.9610952E0,2.2416384E0,3.728299E0,3.7322109E0,1.4708825E1,1.1316394E2,9.960007E0,6.107217E1,4.700012E0,2.1644918E1,6.849582E1,2.595011E1,1.7163744E1,4.318675E1,3.707622E0,6.414101E1,1.1223488E1,3.1502743E1,3.270218E1,1.4723781E1,9.461647E0,1.2474357E0,1.7436873E0,1.9846116E0,7.9713807E0,6.7374444E0,1.0817803E2,4.9859023E0,8.714722E0,1.2452846E0,2.5679142E1,3.539303E1,2.4720016E0,2.228011E0,1.4733125E0,2.0171606E1,2.3414812E1,4.5081005E1,1.6467958E1,9.482151E0,1.5669457E1,1.4942869E0,3.3947178E1,9.23957E0,1.7340354E0,1.9735868E0,1.2460923E0,6.2894917E1],"tree_param":{"num_deleted":"0","num_feature":"11","num_nodes":"87","size_leaf_vector":"1"}},{"base_weights":[-2.0526184E-2,-4.0567636E-1,3.062197E-1,-2.1126625E-1,-7.1727514E-1,4.4042417E-1,-1.2226024E0,1.3149942E-1,-6.368647E-1,-8.184716E-1,4.71425E-1,6.4346075E-1,2.137228E-1,3.4974027E-2,-1.4793967E0,-3.8227057E-1,4.8097947E-1,-2.4831145E-1,-9.400253E-1,-2.654063E-1,-1.0152231E0,1.0032955E0,-5.57081E-2,7.59716E-1,2.4575835E-1,1.2735449E0,1.3584046E-1,6.624457E-1,-4.17058E-2,-1.5343922E-2,-7.89649E-2,-5.1899034E-1,7.9752994E-1,-5.966695E-1,6.4678985E-1,3.621416E-2,-8.785758E-1,-1.3765767E0,-5.976645E-1,-7.720254E-1,2.4793752E-1,2.3093162E-1,-1.1006956E0,7.090061E-2,-9.6983705E-3,8.600848E-1,1.19425645E-2,-4.3845627E-1,6.161807E-1,1.4249333E0,6.5766918E-3,3.115756E-1,-1.9198635E-1,4.0211283E-2,1.05015915E-2,-6.854478E-3,-4.1745532E-2,6.2225115E-2,-2.8977115E-3,3.2633558E-2,-4.5663986E-2,4.2003814E-2,4.7849114E-3,-1.176324E-2,4.724618E-2,2.342224E-2,-6.924367E-2,-7.291243E-2,-7.575538E-3,-5.5596884E-2,1.4939996E-2,1.4964484E-3,-6.688786E-2,-2.9063476E-2,2.8594157E-2,6.2273115E-2,-3.576041E-2,-7.5035416E-2,-4.6184793E-2,4.5141127E-2,1.1313005E-3,5.9644308E-2,-1.9942774E-2,-6.815448E-2,4.4780653E-2,4.0185478E-2,-5.1430142E-3,2.4054585E-2,7.99141E-2,6.355365E-3,3.6661174E-2,3.2130912E-2,-2.0811897E-2],"categories":[],"categories_nodes":[],"categories_segments":[],"categories_sizes":[],"default_left":[0,0,0,0,0,0,0,0,0,0,0,0,0,0,0,0,0,0,0,0,0,0,0,0,0,0,0,0,0,0,0,0,0,0,0,0,0,0,0,0,0,0,0,0,0,0,0,0,0,0,0,0,0,0,0,0,0,0,0,0,0,0,0,0,0,0,0,0,0,0,0,0,0,0,0,0,0,0,0,0,0,0,0,0,0,0,0,0,0,0,0,0,0],"id":5,"left_children":[1,3,5,7,9,11,13,15,17,19,21,23,25,27,29,31,33,35,37,39,41,43,-1,45,47,49,51,53,-1,-1,-1,55,57,59,61,63,65,67,69,71,73,75,77,-1,-1,79,81,83,85,87,-1,89,91,-1,-1,-1,-1,-1,-1,-1,-1,-1,-1,-1,-1,-1,-1,-1,-1,-1,-1,-1,-1,-1,-1,-1,-1,-1,-1,-1,-1,-1,-1,-1,-1,-1,-1,-1,-1,-1,-1,-1,-1],"loss_changes":[7.580308E1,1.6594757E1,6.740852E1,2.5124104E1,1.3111851E1,1.368726E1,8.6309395E0,1.7404013E1,8.806534E0,1.037912E1,8.652346E0,7.1160355E0,1.1663706E1,3.5419166E0,2.1022034E0,6.766623E0,1.0664264E1,6.307128E0,5.5665894E0,7.221584E0,7.9045258E0,3.8581252E0,0E0,9.126907E0,9.699835E0,1.4891233E0,7.820315E0,7.103014E-2,0E0,0E0,0E0,4.216855E0,1.7867875E0,3.8358517E0,5.2808475E0,6.4070005E0,8.098593E0,1.5823174E0,1.2193129E1,6.322812E0,4.142424E0,6.1095295E0,3.3851166E0,0E0,0E0,3.820732E0,7.957007E0,1.8060898E1,3.3934813E0,6.1535263E-1,0E0,6.7574825E0,9.181783E0,0E0,0E0,0E0,0E0,0E0,0E0,0E0,0E0,0E0,0E0,0E0,0E0,0E0,0E0,0E0,0E0,0E0,0E0,0E0,0E0,0E0,0E0,0E0,0E0,0E0,0E0,0E0,0E0,0E0,0E0,0E0,0E0,0E0,0E0,0E0,0E0,0E0,0E0,0E0,0E0],"parents":[2147483647,0,0,1,1,2,2,3,3,4,4,5,5,6,6,7,7,8,8,9,9,10,10,11,11,12,12,13,13,14,14,15,15,16,16,17,17,18,18,19,19,20,20,21,21,23,23,24,24,25,25,26,26,27,27,31,31,32,32,33,33,34,34,35,35,36,36,37,37,38,38,39,39,40,40,41,41,42,42,45,45,46,46,47,47,48,48,49,49,51,51,52,52],"right_children":[2,4,6,8,10,12,14,16,18,20,22,24,26,28,30,32,34,36,38,40,42,44,-1,46,48,50,52,54,-1,-1,-1,56,58,60,62,64,66,68,70,72,74,76,78,-1,-1,80,82,84,86,88,-1,90,92,-1,-1,-1,-1,-1,-1,-1,-1,-1,-1,-1,-1,-1,-1,-1,-1,-1,-1,-1,-1,-1,-1,-1,-1,-1,-1,-1,-1,-1,-1,-1,-1,-1,-1,-1,-1,-1,-1,-1,-1],"split_conditions":[-4.5823476E-1,-6.245358E-1,2.0781143E0,-2.1991388E-1,1.2067333E0,-2.7578628E-1,-6.021935E-1,-9.148687E-1,-8.578695E-1,-2.7496117E-1,3.2135752E-1,8.754545E-1,-1.0121995E0,2.5701115E0,-3.4891686E0,6.3751984E-1,-1.5041525E0,-7.8530294E-1,-7.7820283E-1,-7.6952463E-1,-1.1847309E0,3.4861797E-1,-5.57081E-2,2.0497124E0,1.1214532E0,1.558784E0,9.932659E-1,1.08598836E-1,-4.17058E-2,-1.5343922E-2,-7.89649E-2,-9.9363697E-1,-7.2535026E-1,-3.3378938E-1,1.1595151E-1,-8.6636984E-1,-1.653361E-1,6.590948E-1,1.1830361E-1,-3.8917753E-1,9.231954E-3,1.7845845E-1,-8.554639E-3,7.090061E-2,-9.6983705E-3,1.2431768E0,-9.148687E-1,1.5256611E0,7.603039E-1,-2.3022562E-1,6.5766918E-3,3.4999245E-1,-1.7687288E-1,4.0211283E-2,1.05015915E-2,-6.854478E-3,-4.1745532E-2,6.2225115E-2,-2.8977115E-3,3.2633558E-2,-4.5663986E-2,4.2003814E-2,4.7849114E-3,-1.176324E-2,4.724618E-2,2.342224E-2,-6.924367E-2,-7.291243E-2,-7.575538E-3,-5.5596884E-2,1.4939996E-2,1.4964484E-3,-6.688786E-2,-2.9063476E-2,2.8594157E-2,6.2273115E-2,-3.576041E-2,-7.5035416E-2,-4.6184793E-2,4.5141127E-2,1.1313005E-3,5.9644308E-2,-1.9942774E-2,-6.815448E-2,4.4780653E-2,4.0185478E-2,-5.1430142E-3,2.4054585E-2,7.99141E-2,6.355365E-3,3.6661174E-2,3.2130912E-2,-2.0811897E-2],"split_indices":[6,2,2,8,7,3,0,2,2,5,0,2,0,2,1,0,7,6,2,6,0,5,0,6,2,2,6,5,0,0,0,2,6,5,1,6,7,0,7,0,1,2,1,0,0,1,2,7,8,3,0,6,2,0,0,0,0,0,0,0,0,0,0,0,0,0,0,0,0,0,0,0,0,0,0,0,0,0,0,0,0,0,0,0,0,0,0,0,0,0,0,0,0],"split_type":[0,0,0,0,0,0,0,0,0,0,0,0,0,0,0,0,0,0,0,0,0,0,0,0,0,0,0,0,0,0,0,0,0,0,0,0,0,0,0,0,0,0,0,0,0,0,0,0,0,0,0,0,0,0,0,0,0,0,0,0,0,0,0,0,0,0,0,0,0,0,0,0,0,0,0,0,0,0,0,0,0,0,0,0,0,0,0,0,0,0,0,0,0],"sum_hessian":[6.003596E2,2.7544205E2,3.2491757E2,1.7064972E2,1.04792336E2,2.9935156E2,2.5566034E1,9.490599E1,7.574373E1,9.685807E1,7.934272E0,1.5694833E2,1.4240321E2,4.481752E0,2.1084282E1,3.8383965E1,5.6522022E1,3.39938E1,4.1749928E1,2.6031862E1,7.08262E1,6.2163086E0,1.717963E0,1.2074286E2,3.6205475E1,8.697366E0,1.3370586E2,2.7407422E0,1.7410096E0,1.9750742E0,1.910921E1,3.4899754E1,3.4842122E0,7.190488E0,4.9331535E1,2.407015E1,9.923652E0,1.7022873E1,2.4727055E1,1.2848128E1,1.3183734E1,4.4368486E0,6.638936E1,4.4800854E0,1.736223E0,1.0632178E2,1.44210825E1,1.2652015E1,2.355346E1,7.460623E0,1.2367426E0,8.7076904E1,4.662895E1,1.4946945E0,1.2460477E0,1.644913E1,1.8450623E1,1.9898324E0,1.4943798E0,1.2391967E0,5.951291E0,3.613381E1,1.3197727E1,1.9103914E1,4.966236E0,2.7314112E0,7.1922407E0,1.5780486E1,1.242386E0,1.5560266E1,9.166789E0,5.7062783E0,7.1418495E0,3.480449E0,9.703285E0,1.9883792E0,2.4484694E0,1.8070992E1,4.8318363E1,1.0108508E2,5.2366915E0,3.2304637E0,1.11906185E1,7.4598775E0,5.1921372E0,1.8587906E1,4.9655547E0,1.7434177E0,5.717205E0,6.1480865E1,2.5596039E1,9.480276E0,3.7148674E1],"tree_param":{"num_deleted":"0","num_feature":"11","num_nodes":"93","size_leaf_vector":"1"}},{"base_weights":[-2.9808525E-3,-4.3780634E-1,2.4844374E-1,-3.561274E-1,-7.6766536E-2,3.6484435E-1,-1.1902206E0,-5.9709555E-1,4.5234606E-2,4.7596104E-2,7.136144E-1,-3.7794486E-1,-7.8540884E-2,-2.0384249E-1,-8.053849E-1,-2.4544379E-1,4.24087E-1,5.361353E-1,-1.0467236E-1,1.1760882E0,6.213016E-1,4.1408997E-2,-6.723488E-1,7.394404E-1,-3.180457E-1,6.093954E-2,-8.6342794E-1,6.2049843E-2,-3.43921E-1,8.590012E-1,-4.5287144E-1,6.875932E-1,-7.147913E-1,-5.652226E-1,6.0399048E-2,2.5279278E-1,1.2928052E0,5.424628E-1,1.4028829E0,-2.3540434E-1,-6.454896E-2,9.923759E-3,5.391521E-2,-3.667694E-2,5.2803676E-3,-5.2410614E-2,-2.1690128E-2,-6.200496E-3,-4.741965E-2,5.357888E-2,5.528688E-3,1.511786E-2,-5.681145E-2,4.6396784E-2,1.2465532E-2,3.1452935E-2,-6.4564176E-2,-3.992961E-2,3.6967967E-2,5.700475E-2,4.7237493E-4,5.1719952E-2,-2.0891186E-2,7.350116E-2,3.4152463E-2,3.302441E-2,-3.2227158E-3,3.5488587E-3,8.0708295E-2,3.2523137E-2,-5.313265E-2],"categories":[],"categories_nodes":[],"categories_segments":[],"categories_sizes":[],"default_left":[0,0,0,0,0,0,0,0,0,0,0,0,0,0,0,0,0,0,0,0,0,0,0,0,0,0,0,0,0,0,0,0,0,0,0,0,0,0,0,0,0,0,0,0,0,0,0,0,0,0,0,0,0,0,0,0,0,0,0,0,0,0,0,0,0,0,0,0,0,0,0],"id":6,"left_children":[1,3,5,7,-1,9,11,13,15,17,19,21,-1,23,25,27,29,31,33,35,37,-1,39,41,43,-1,45,-1,47,49,51,53,55,57,59,61,63,65,67,69,-1,-1,-1,-1,-1,-1,-1,-1,-1,-1,-1,-1,-1,-1,-1,-1,-1,-1,-1,-1,-1,-1,-1,-1,-1,-1,-1,-1,-1,-1,-1],"loss_changes":[6.516739E1,1.9030502E1,6.3684696E1,1.9811386E1,0E0,3.8713955E1,8.219112E0,1.0311527E1,8.657508E0,1.3777648E1,6.3877487E0,4.2540417E0,0E0,5.149915E0,1.0835609E1,6.952912E0,1.3390043E1,8.826661E0,1.07886305E1,2.5423431E0,7.9343147E0,0E0,2.1075573E0,7.443042E-1,7.363993E0,0E0,6.018074E0,0E0,5.544684E0,3.561758E0,6.5136914E0,3.9560604E0,4.8730903E0,1.19834585E1,5.7677503E0,2.6499226E0,1.523777E0,9.341431E0,3.346653E0,5.418981E0,0E0,0E0,0E0,0E0,0E0,0E0,0E0,0E0,0E0,0E0,0E0,0E0,0E0,0E0,0E0,0E0,0E0,0E0,0E0,0E0,0E0,0E0,0E0,0E0,0E0,0E0,0E0,0E0,0E0,0E0,0E0],"parents":[2147483647,0,0,1,1,2,2,3,3,5,5,6,6,7,7,8,8,9,9,10,10,11,11,13,13,14,14,15,15,16,16,17,17,18,18,19,19,20,20,22,22,23,23,24,24,26,26,28,28,29,29,30,30,31,31,32,32,33,33,34,34,35,35,36,36,37,37,38,38,39,39],"right_children":[2,4,6,8,-1,10,12,14,16,18,20,22,-1,24,26,28,30,32,34,36,38,-1,40,42,44,-1,46,-1,48,50,52,54,56,58,60,62,64,66,68,70,-1,-1,-1,-1,-1,-1,-1,-1,-1,-1,-1,-1,-1,-1,-1,-1,-1,-1,-1,-1,-1,-1,-1,-1,-1,-1,-1,-1,-1,-1,-1],"split_conditions":[-6.3741946E-1,4.1079047E-1,2.0781143E0,-4.9096966E-1,-7.6766536E-2,-1.00836486E-1,-1.634135E0,-8.578695E-1,5.0052395E-3,-4.232141E-1,-8.5853714E-1,-7.6205885E-1,-7.8540884E-2,-5.6674916E-1,-1.0121995E0,-1.1847309E0,-7.407987E-1,7.116473E-1,-6.935513E-1,-3.8577026E-1,1.39809E0,4.1408997E-2,-7.1604416E-2,2.8184286E-1,-6.8694985E-1,6.093954E-2,7.9212725E-1,6.2049843E-2,-4.7753784E-1,-9.9013336E-2,4.5265093E-1,-1.498976E-1,-8.025115E-1,1.2034527E0,-9.422019E-1,-7.918694E-1,8.7473327E-1,7.1145546E-1,9.389855E-2,2.5701115E0,-6.454896E-2,9.923759E-3,5.391521E-2,-3.667694E-2,5.2803676E-3,-5.2410614E-2,-2.1690128E-2,-6.200496E-3,-4.741965E-2,5.357888E-2,5.528688E-3,1.511786E-2,-5.681145E-2,4.6396784E-2,1.2465532E-2,3.1452935E-2,-6.4564176E-2,-3.992961E-2,3.6967967E-2,5.700475E-2,4.7237493E-4,5.1719952E-2,-2.0891186E-2,7.350116E-2,3.4152463E-2,3.302441E-2,-3.2227158E-3,3.5488587E-3,8.0708295E-2,3.2523137E-2,-5.313265E-2],"split_indices":[6,2,2,4,0,4,9,2,0,0,5,5,0,5,0,0,6,9,4,6,7,0,6,7,4,0,7,0,2,9,0,10,7,2,2,2,0,2,0,2,0,0,0,0,0,0,0,0,0,0,0,0,0,0,0,0,0,0,0,0,0,0,0,0,0,0,0,0,0,0,0],"split_type":[0,0,0,0,0,0,0,0,0,0,0,0,0,0,0,0,0,0,0,0,0,0,0,0,0,0,0,0,0,0,0,0,0,0,0,0,0,0,0,0,0,0,0,0,0,0,0,0,0,0,0,0,0,0,0,0,0,0,0,0,0,0,0,0,0,0,0,0,0,0,0],"sum_hessian":[5.9408923E2,2.173876E2,3.7670163E2,2.0356273E2,1.3824874E1,3.4919507E2,2.7506556E1,1.2689209E2,7.667065E1,1.8345615E2,1.6573894E2,9.412115E0,1.809444E1,4.4622623E1,8.226946E1,4.3583157E1,3.308749E1,4.299374E1,1.404624E2,2.5624346E1,1.401146E2,1.4909334E0,7.921182E0,4.2277713E0,4.039485E1,1.7358512E0,8.053361E1,1.9871243E0,4.1596035E1,2.2131958E1,1.0955532E1,3.8752098E1,4.2416387E0,3.6421654E1,1.0404076E2,3.2310257E0,2.239332E1,1.2881497E2,1.1299617E1,5.45136E0,2.469822E0,2.2390459E0,1.9887254E0,2.002454E1,2.0370312E1,5.5306244E1,2.522737E1,3.1383612E1,1.0212421E1,1.6900053E1,5.2319045E0,5.468943E0,5.4865894E0,2.4306084E1,1.4446015E1,1.2459786E0,2.99566E0,3.1224016E1,5.197638E0,3.7252052E0,1.0031555E2,1.2415426E0,1.9894831E0,1.6257456E1,6.1358633E0,1.0776916E2,2.104582E1,1.7299738E0,9.569643E0,2.7356098E0,2.7157502E0],"tree_param":{"num_deleted":"0","num_feature":"11","num_nodes":"71","size_leaf_vector":"1"}},{"base_weights":[1.3985186E-3,-3.609005E-1,3.043997E-1,-6.207649E-1,-1.2562029E-1,4.238481E-1,-1.1468635E0,6.792862E-1,-6.5958154E-1,4.939388E-2,-1.4507844E0,2.3934941E-1,7.6333255E-1,3.337533E-1,-1.422654E0,-4.0264847E-3,6.1894126E-2,4.946823E-2,-6.8384695E-1,7.328042E-2,-1.3401873E-2,-5.299402E-3,-7.751107E-2,-2.705642E-1,3.2879484E-1,8.093799E-1,-6.151947E-1,-2.9484823E-2,8.300649E-1,-2.2611594E-2,-7.424801E-2,-1.2328732E0,-6.1671233E-1,2.1866667E-1,-5.199894E-1,-4.688684E-1,8.220614E-1,4.8362485E-1,2.8601421E-2,6.2318164E-1,1.1824942E0,6.7402506E-3,-5.025492E-2,5.4801863E-2,9.725987E-3,-7.093724E-2,-1.1876186E-2,-2.3158118E-2,-4.5603868E-2,-3.119861E-4,5.418246E-2,7.0558633E-3,-3.469624E-2,1.5106792E-2,-4.475525E-2,6.200179E-2,1.2945326E-3,6.2576614E-2,1.9796342E-2,3.0742187E-2,-7.6695457E-3,1.0290391E-2,4.3213155E-2,6.0885556E-2,7.495594E-3],"categories":[],"categories_nodes":[],"categories_segments":[],"categories_sizes":[],"default_left":[0,0,0,0,0,0,0,0,0,0,0,0,0,0,0,0,0,0,0,0,0,0,0,0,0,0,0,0,0,0,0,0,0,0,0,0,0,0,0,0,0,0,0,0,0,0,0,0,0,0,0,0,0,0,0,0,0,0,0,0,0,0,0,0,0],"id":7,"left_children":[1,3,5,7,9,11,13,15,17,19,21,23,25,27,29,-1,-1,-1,31,-1,33,-1,-1,35,37,39,41,-1,43,-1,-1,45,47,49,51,53,55,57,59,61,63,-1,-1,-1,-1,-1,-1,-1,-1,-1,-1,-1,-1,-1,-1,-1,-1,-1,-1,-1,-1,-1,-1,-1,-1],"loss_changes":[6.537523E1,1.6505035E1,5.6703957E1,6.9389687E0,3.3375725E1,1.8630722E1,1.0655567E1,1.8915374E0,5.694298E0,1.1386457E1,2.0803108E0,9.031292E0,7.1824417E0,2.6549513E0,6.107178E-1,0E0,0E0,0E0,3.8166656E0,0E0,1.461846E1,0E0,0E0,6.8440266E0,7.76001E0,6.3725204E0,1.2970148E0,0E0,3.7648392E-1,0E0,0E0,1.9809628E0,4.686516E0,1.6604893E1,4.58928E0,8.770782E0,1.6125305E0,6.931221E0,6.279701E0,6.9038677E0,1.01577E0,0E0,0E0,0E0,0E0,0E0,0E0,0E0,0E0,0E0,0E0,0E0,0E0,0E0,0E0,0E0,0E0,0E0,0E0,0E0,0E0,0E0,0E0,0E0,0E0],"parents":[2147483647,0,0,1,1,2,2,3,3,4,4,5,5,6,6,7,7,8,8,9,9,10,10,11,11,12,12,13,13,14,14,18,18,20,20,23,23,24,24,25,25,26,26,28,28,31,31,32,32,33,33,34,34,35,35,36,36,37,37,38,38,39,39,40,40],"right_children":[2,4,6,8,10,12,14,16,18,20,22,24,26,28,30,-1,-1,-1,32,-1,34,-1,-1,36,38,40,42,-1,44,-1,-1,46,48,50,52,54,56,58,60,62,64,-1,-1,-1,-1,-1,-1,-1,-1,-1,-1,-1,-1,-1,-1,-1,-1,-1,-1,-1,-1,-1,-1,-1,-1],"split_conditions":[-4.5823476E-1,-5.830067E-1,2.0781143E0,-1.1926814E0,9.57454E-1,2.2499162E-1,-6.021935E-1,-9.063867E-1,-1.747194E0,-1.1847309E0,-1.4327005E0,-6.9649833E-1,2.6426792E0,5.688778E-1,-4.467997E-1,-4.0264847E-3,6.1894126E-2,4.946823E-2,-1.3765814E0,7.328042E-2,-6.278703E-1,-5.299402E-3,-7.751107E-2,1.2034527E0,7.387886E-1,1.8616453E-1,-8.875355E-1,-2.9484823E-2,-6.9084E-1,-2.2611594E-2,-7.424801E-2,2.3331466E-1,-7.487244E-1,6.8915194E-1,-3.8093463E-1,-3.576182E-1,-3.3313075E-1,-1.0121995E0,1.2171988E-1,4.8557904E-1,9.1190153E-1,6.7402506E-3,-5.025492E-2,5.4801863E-2,9.725987E-3,-7.093724E-2,-1.1876186E-2,-2.3158118E-2,-4.5603868E-2,-3.119861E-4,5.418246E-2,7.0558633E-3,-3.469624E-2,1.5106792E-2,-4.475525E-2,6.200179E-2,1.2945326E-3,6.2576614E-2,1.9796342E-2,3.0742187E-2,-7.6695457E-3,1.0290391E-2,4.3213155E-2,6.0885556E-2,7.495594E-3],"split_indices":[6,4,2,5,2,4,0,6,1,0,5,4,6,7,0,0,0,0,7,0,2,0,0,2,2,7,2,0,4,0,0,5,6,0,5,0,6,0,6,6,1,0,0,0,0,0,0,0,0,0,0,0,0,0,0,0,0,0,0,0,0,0,0,0,0],"split_type":[0,0,0,0,0,0,0,0,0,0,0,0,0,0,0,0,0,0,0,0,0,0,0,0,0,0,0,0,0,0,0,0,0,0,0,0,0,0,0,0,0,0,0,0,0,0,0,0,0,0,0,0,0,0,0,0,0,0,0,0,0,0,0,0,0],"sum_hessian":[5.935267E2,2.7022595E2,3.233007E2,1.27626E2,1.4259996E2,2.9936865E2,2.3932037E1,3.2217793E0,1.2440422E2,1.2681434E2,1.5785618E1,1.9506323E2,1.0430542E2,3.7248013E0,2.0207237E1,1.7276394E0,1.4941399E0,1.2273554E0,1.23176865E2,4.435798E0,1.2237854E2,1.229094E0,1.4556524E1,2.8808096E1,1.6625513E2,1.0133342E2,2.972E0,1.2363185E0,2.488483E0,1.7173663E0,1.848987E1,1.1528959E1,1.116479E2,8.431984E1,3.80587E1,2.4865969E1,3.9421268E0,1.0928067E2,5.6974464E1,6.938026E1,3.1953167E1,1.2403617E0,1.7316382E0,1.2435156E0,1.2449672E0,9.356376E0,2.1725833E0,7.514877E1,3.649913E1,6.7707756E1,1.6612085E1,7.966753E0,3.0091948E1,8.956332E0,1.59096365E1,2.2194555E0,1.7226713E0,9.840825E0,9.943984E1,1.2933633E1,4.4040833E1,2.6081017E1,4.329924E1,3.072595E1,1.2272159E0],"tree_param":{"num_deleted":"0","num_feature":"11","num_nodes":"65","size_leaf_vector":"1"}},{"base_weights":[-1.8024936E-2,-3.5143518E-1,2.5715306E-1,-3.692236E-2,-5.8042514E-1,3.827984E-1,-1.1199381E0,1.5373845E-1,-7.720049E-1,-6.137666E-1,5.2291133E-2,1.745751E-1,7.658184E-1,-4.0733907E-1,-7.2044455E-2,-9.9829406E-1,2.586441E-1,-4.224974E-2,-1.2498409E0,-1.1254508E0,-5.091145E-1,3.410104E-1,-1.1304359E-1,3.180924E-1,8.9949393E-1,2.5573729E-2,-7.398743E-1,1.5473197E-2,-6.4614154E-2,-1.114603E-1,4.6980795E-1,-6.522137E-2,5.737493E-1,-1.2546452E-2,-1.3908869E0,-2.1865958E-1,-1.2487717E0,1.492374E-1,-5.7003963E-1,5.070876E-1,-3.0423644E-1,2.3006718E-1,-5.9037745E-1,7.1765757E-1,-5.123934E-1,6.918881E-1,1.1832225E0,9.034929E-3,-1.152546E0,-2.1616304E-2,5.188935E-2,5.5087097E-2,1.2438267E-2,-2.3192555E-2,4.774253E-2,-2.4723839E-2,-7.4570894E-2,-4.351489E-2,3.7221562E-2,-6.858625E-2,-2.2673033E-2,-5.4085203E-2,2.1755552E-2,-3.1726383E-2,9.862746E-3,-8.635628E-3,2.9581819E-2,-2.0633971E-2,5.121037E-2,4.062772E-2,-9.286709E-3,2.8222172E-2,-3.8033646E-2,-1.2306604E-2,6.2802136E-2,2.0301865E-2,-3.9522495E-2,4.1631635E-2,-8.376307E-4,7.269788E-2,3.3682074E-2,-2.0621587E-2,-6.634473E-2],"categories":[],"categories_nodes":[],"categories_segments":[],"categories_sizes":[],"default_left":[0,0,0,0,0,0,0,0,0,0,0,0,0,0,0,0,0,0,0,0,0,0,0,0,0,0,0,0,0,0,0,0,0,0,0,0,0,0,0,0,0,0,0,0,0,0,0,0,0,0,0,0,0,0,0,0,0,0,0,0,0,0,0,0,0,0,0,0,0,0,0,0,0,0,0,0,0,0,0,0,0,0,0],"id":8,"left_children":[1,3,5,7,9,11,13,15,17,19,-1,21,23,25,-1,27,29,31,33,35,37,39,41,43,45,-1,47,-1,-1,49,51,-1,53,-1,55,57,59,61,63,65,67,69,71,73,75,77,79,-1,81,-1,-1,-1,-1,-1,-1,-1,-1,-1,-1,-1,-1,-1,-1,-1,-1,-1,-1,-1,-1,-1,-1,-1,-1,-1,-1,-1,-1,-1,-1,-1,-1,-1,-1],"loss_changes":[5.4217655E1,1.9220821E1,5.6451317E1,1.6044954E1,9.0214E0,2.3589573E1,5.6629105E0,1.1263988E1,8.166102E0,7.5700493E0,0E0,9.32502E0,5.9659653E0,3.397113E0,0E0,3.401167E0,6.637504E0,8.804444E0,1.6528549E0,2.5219917E0,5.2220993E0,1.3349377E1,1.1904989E1,8.8510685E0,3.8875961E0,0E0,3.11945E0,0E0,0E0,1.203429E1,7.2467585E0,0E0,3.47098E0,0E0,3.6468887E-1,3.2865753E0,1.5087395E0,4.5669565E0,5.935856E0,5.7522907E0,4.1438003E0,1.0451115E1,6.39456E0,9.481666E0,2.5907059E0,4.8558197E0,3.48378E0,0E0,1.5300226E-1,0E0,0E0,0E0,0E0,0E0,0E0,0E0,0E0,0E0,0E0,0E0,0E0,0E0,0E0,0E0,0E0,0E0,0E0,0E0,0E0,0E0,0E0,0E0,0E0,0E0,0E0,0E0,0E0,0E0,0E0,0E0,0E0,0E0,0E0],"parents":[2147483647,0,0,1,1,2,2,3,3,4,4,5,5,6,6,7,7,8,8,9,9,11,11,12,12,13,13,15,15,16,16,17,17,18,18,19,19,20,20,21,21,22,22,23,23,24,24,26,26,29,29,30,30,32,32,34,34,35,35,36,36,37,37,38,38,39,39,40,40,41,41,42,42,43,43,44,44,45,45,46,46,48,48],"right_children":[2,4,6,8,10,12,14,16,18,20,-1,22,24,26,-1,28,30,32,34,36,38,40,42,44,46,-1,48,-1,-1,50,52,-1,54,-1,56,58,60,62,64,66,68,70,72,74,76,78,80,-1,82,-1,-1,-1,-1,-1,-1,-1,-1,-1,-1,-1,-1,-1,-1,-1,-1,-1,-1,-1,-1,-1,-1,-1,-1,-1,-1,-1,-1,-1,-1,-1,-1,-1,-1],"split_conditions":[-4.5823476E-1,-7.584418E-1,2.0097814E0,-4.7753784E-1,1.4048218E0,2.1299705E-1,-1.634135E0,-7.209885E-1,-8.006575E-1,-1.3765814E0,5.2291133E-2,9.932659E-1,-1.1367308E0,-1.823191E-1,-7.2044455E-2,-3.576182E-1,-9.387398E-1,-1.50906E0,-3.926176E-1,-8.7386894E-1,-9.451009E-1,1.2067333E0,-1.498976E-1,1.4216195E0,1.2379209E-1,2.5573729E-2,-8.140622E-1,1.5473197E-2,-6.4614154E-2,-5.660085E-2,-1.2969996E-1,-6.522137E-2,-4.092049E-1,-1.2546452E-2,-1.0731726E0,-9.148687E-1,7.890508E-1,-9.1658884E-1,1.4937683E0,-6.935513E-1,4.3469286E-1,3.2879093E-1,-8.366865E-1,-3.898384E-2,4.0938982E-1,-1.0853993E-1,9.301209E-1,9.034929E-3,2.2147803E0,-2.1616304E-2,5.188935E-2,5.5087097E-2,1.2438267E-2,-2.3192555E-2,4.774253E-2,-2.4723839E-2,-7.4570894E-2,-4.351489E-2,3.7221562E-2,-6.858625E-2,-2.2673033E-2,-5.4085203E-2,2.1755552E-2,-3.1726383E-2,9.862746E-3,-8.635628E-3,2.9581819E-2,-2.0633971E-2,5.121037E-2,4.062772E-2,-9.286709E-3,2.8222172E-2,-3.8033646E-2,-1.2306604E-2,6.2802136E-2,2.0301865E-2,-3.9522495E-2,4.1631635E-2,-8.376307E-4,7.269788E-2,3.3682074E-2,-2.0621587E-2,-6.634473E-2],"split_indices":[6,9,2,2,4,4,9,4,6,7,0,6,10,5,0,0,6,10,5,2,7,7,10,6,2,0,0,0,0,0,0,0,2,0,0,2,10,10,7,4,0,2,2,7,4,2,2,0,2,0,0,0,0,0,0,0,0,0,0,0,0,0,0,0,0,0,0,0,0,0,0,0,0,0,0,0,0,0,0,0,0,0,0],"split_type":[0,0,0,0,0,0,0,0,0,0,0,0,0,0,0,0,0,0,0,0,0,0,0,0,0,0,0,0,0,0,0,0,0,0,0,0,0,0,0,0,0,0,0,0,0,0,0,0,0,0,0,0,0,0,0,0,0,0,0,0,0,0,0,0,0,0,0,0,0,0,0,0,0,0,0,0,0,0,0,0,0,0,0],"sum_hessian":[5.8896136E2,2.6617825E2,3.2278314E2,1.1263613E2,1.5354211E2,2.9645657E2,2.6326576E1,9.0066216E1,2.256992E1,1.510675E2,2.474614E0,1.9299397E2,1.0346259E2,8.879908E0,1.7446669E1,6.806276E0,8.325994E1,9.36145E0,1.3208468E1,2.3994581E1,1.2707292E2,1.2213368E2,7.086029E1,2.456509E1,7.889751E1,2.2167623E0,6.6631455E0,1.2395811E0,5.5666947E0,3.0418299E1,5.284164E1,2.703801E0,6.6576495E0,1.9781239E0,1.1230345E1,3.204516E0,2.0790066E1,1.0640716E1,1.16432205E2,9.730333E1,2.4830353E1,4.1527824E1,2.9332464E1,1.6677185E1,7.887905E0,4.7546223E1,3.135128E1,2.2363977E0,4.426748E0,2.4266888E1,6.151412E0,1.2661022E1,4.018062E1,1.7300953E0,4.927554E0,1.7292944E0,9.50105E0,1.9687718E0,1.235744E0,1.7378609E1,3.4114578E0,1.4807805E0,9.159935E0,1.0756485E2,8.867352E0,1.06479025E1,8.6655426E1,2.3593712E1,1.2366409E0,1.6899496E1,2.462833E1,3.4721756E0,2.5860289E1,6.171719E0,1.05054655E1,1.7261378E0,6.1617675E0,3.9521755E1,8.024467E0,1.926353E1,1.208775E1,1.4856563E0,2.9410918E0],"tree_param":{"num_deleted":"0","num_feature":"11","num_nodes":"83","size_leaf_vector":"1"}},{"base_weights":[4.537794E-3,-5.4459924E-1,1.4183308E-1,-6.73791E-1,3.4975088E-1,2.1209651E-1,-7.073401E-2,8.7777203E-1,-7.327191E-1,1.0589293E0,-3.4519622E-1,-1.2193191E-1,3.9799586E-1,5.8089744E-2,1.4686544E-2,-8.28574E-1,-3.3662623E-1,1.2250024E0,4.4552796E-3,3.495295E-1,-9.498602E-1,-5.1904395E-2,-6.65143E-2,2.3708591E-1,6.5445167E-1,2.1218221E-1,-8.7134564E-1,4.698342E-2,-5.1872426E-1,7.252871E-2,6.361551E-3,5.5493433E-2,-4.9729716E-2,-6.0273375E-2,-5.068029E-3,7.948482E-1,-1.04888715E-1,3.9660892E-1,-6.070258E-2,-2.2142364E-1,7.1179926E-1,4.857502E-2,-3.171475E-2,-4.8711475E-2,-2.0050896E-2,2.8629925E-3,-4.267068E-2,-1.178543E-2,5.8028188E-2,-1.5741615E-2,3.076955E-3,2.9382706E-2,7.3393323E-3,1.9650584E-2,-2.5025442E-2,3.1080505E-2,-4.853357E-2,1.344056E-2,4.2153116E-2],"categories":[],"categories_nodes":[],"categories_segments":[],"categories_sizes":[],"default_left":[0,0,0,0,0,0,0,0,0,0,0,0,0,0,0,0,0,0,0,0,0,0,0,0,0,0,0,0,0,0,0,0,0,0,0,0,0,0,0,0,0,0,0,0,0,0,0,0,0,0,0,0,0,0,0,0,0,0,0],"id":9,"left_children":[1,3,5,7,9,11,-1,13,15,17,19,21,23,-1,-1,25,27,29,-1,31,33,35,-1,37,39,41,43,-1,45,-1,-1,-1,-1,-1,-1,47,49,51,53,55,57,-1,-1,-1,-1,-1,-1,-1,-1,-1,-1,-1,-1,-1,-1,-1,-1,-1,-1],"loss_changes":[4.4119682E1,1.3759575E1,5.149615E1,1.002533E1,7.9710665E0,2.7915081E1,0E0,3.57049E-1,3.495243E0,1.1605968E0,3.922961E0,1.3573223E1,1.1752071E1,0E0,0E0,3.7172356E0,5.38041E0,1.4627934E0,0E0,5.9163556E0,9.2739964E-1,6.9669914E0,0E0,8.521091E0,5.716854E0,3.1464224E0,3.3069992E0,0E0,3.724856E0,0E0,0E0,0E0,0E0,0E0,0E0,3.7228274E0,5.095488E0,5.4790993E0,1.2820365E1,5.381097E0,5.827347E0,0E0,0E0,0E0,0E0,0E0,0E0,0E0,0E0,0E0,0E0,0E0,0E0,0E0,0E0,0E0,0E0,0E0,0E0],"parents":[2147483647,0,0,1,1,2,2,3,3,4,4,5,5,7,7,8,8,9,9,10,10,11,11,12,12,15,15,16,16,17,17,19,19,20,20,21,21,23,23,24,24,25,25,26,26,28,28,35,35,36,36,37,37,38,38,39,39,40,40],"right_children":[2,4,6,8,10,12,-1,14,16,18,20,22,24,-1,-1,26,28,30,-1,32,34,36,-1,38,40,42,44,-1,46,-1,-1,-1,-1,-1,-1,48,50,52,54,56,58,-1,-1,-1,-1,-1,-1,-1,-1,-1,-1,-1,-1,-1,-1,-1,-1,-1,-1],"split_conditions":[-6.895409E-1,1.1214532E0,2.2147803E0,-8.914809E-1,1.7364496E0,-5.5573875E-1,-7.073401E-2,-8.602024E-1,-3.4136828E-2,-2.839931E-1,-3.1045198E-1,9.57454E-1,2.061893E-1,5.8089744E-2,1.4686544E-2,-1.0105349E0,-7.291224E-1,1.8357258E0,4.4552796E-3,-3.4136828E-2,-7.126483E-1,-3.3719411E-1,-6.65143E-2,3.928739E-1,-8.7023616E-1,3.928739E-1,1.3318486E0,4.698342E-2,1.2379209E-1,7.252871E-2,6.361551E-3,5.5493433E-2,-4.9729716E-2,-6.0273375E-2,-5.068029E-3,-9.422019E-1,-8.965575E-1,6.704557E-1,-2.5824511E-2,5.683E-2,-1.1367308E0,4.857502E-2,-3.171475E-2,-4.8711475E-2,-2.0050896E-2,2.8629925E-3,-4.267068E-2,-1.178543E-2,5.8028188E-2,-1.5741615E-2,3.076955E-3,2.9382706E-2,7.3393323E-3,1.9650584E-2,-2.5025442E-2,3.1080505E-2,-4.853357E-2,1.344056E-2,4.2153116E-2],"split_indices":[4,2,2,5,2,6,0,2,6,6,3,2,4,0,0,2,4,8,0,6,4,3,0,10,8,10,9,0,2,0,0,0,0,0,0,2,6,2,6,5,10,0,0,0,0,0,0,0,0,0,0,0,0,0,0,0,0,0,0],"split_type":[0,0,0,0,0,0,0,0,0,0,0,0,0,0,0,0,0,0,0,0,0,0,0,0,0,0,0,0,0,0,0,0,0,0,0,0,0,0,0,0,0,0,0,0,0,0,0,0,0,0,0,0,0,0,0,0,0,0,0],"sum_hessian":[5.831643E2,1.1604698E2,4.671173E2,1.0161499E2,1.4431995E1,4.477681E2,1.9349215E1,3.2096667E0,9.840532E1,6.8836374E0,7.5483584E0,1.602218E2,2.875463E2,1.4939265E0,1.7157402E0,7.835216E1,2.0053162E1,5.6525702E0,1.2310672E0,3.7089372E0,3.839421E0,1.5243095E2,7.7908487E0,1.7786906E2,1.0967722E2,2.9365568E0,7.54156E1,1.9844251E0,1.8068737E1,4.422456E0,1.2301142E0,2.4802177E0,1.2287197E0,2.627263E0,1.2121578E0,8.151923E0,1.4427902E2,1.15607285E2,6.2261784E1,6.563975E0,1.0311325E2,1.4701158E0,1.466441E0,6.100042E1,1.441518E1,6.9452367E0,1.1123501E1,2.2282844E0,5.9236393E0,6.3404503E1,8.087453E1,6.474381E1,5.0863472E1,3.0698696E1,3.1563087E1,3.1688373E0,3.3951378E0,2.4266445E1,7.884681E1],"tree_param":{"num_deleted":"0","num_feature":"11","num_nodes":"59","size_leaf_vector":"1"}},{"base_weights":[1.4990398E-2,-3.187542E-1,2.8780046E-1,-2.657004E-1,-1.3139678E0,3.960784E-1,-9.803701E-1,8.158805E-1,-3.3263463E-1,-3.9855596E-3,-7.162064E-2,2.0501405E-1,7.604044E-1,5.8747125E-1,-1.2343574E0,-1.704083E-2,1.0467867E0,-6.230498E-1,-1.3220596E-1,3.8533932E-1,-1.1771312E-1,4.8371643E-1,1.0348184E0,4.568595E-2,-5.5680014E-3,-6.690273E-2,1.4660427E-2,1.1370062E0,6.158635E-3,-6.767666E-1,5.879147E-1,3.2945725E-1,-2.9726526E-1,7.5790155E-1,1.09849244E-1,4.4123963E-1,-3.2186353E-1,1.2768979E0,3.119315E-1,1.1395148E0,5.3421175E-1,7.1600385E-2,3.595054E-2,-2.5161266E-2,-4.744482E-2,6.471167E-2,-4.1243818E-2,3.277325E-2,-1.7676784E-2,8.316966E-4,-2.7044866E-2,5.5689175E-2,2.5357872E-2,-3.4981348E-2,1.5157628E-2,-2.2244236E-2,5.513516E-2,2.0118002E-2,-2.404644E-2,7.165213E-2,3.0106956E-2,2.3222327E-2,-5.319959E-2,6.310523E-2,2.7223993E-2,4.2765796E-2,-2.4944289E-2],"categories":[],"categories_nodes":[],"categories_segments":[],"categories_sizes":[],"default_left":[0,0,0,0,0,0,0,0,0,0,0,0,0,0,0,0,0,0,0,0,0,0,0,0,0,0,0,0,0,0,0,0,0,0,0,0,0,0,0,0,0,0,0,0,0,0,0,0,0,0,0,0,0,0,0,0,0,0,0,0,0,0,0,0,0,0,0],"id":10,"left_children":[1,3,5,7,9,11,13,15,17,-1,-1,19,21,23,25,-1,27,29,31,33,35,37,39,-1,-1,-1,-1,41,-1,43,45,47,49,51,53,55,57,59,61,63,65,-1,-1,-1,-1,-1,-1,-1,-1,-1,-1,-1,-1,-1,-1,-1,-1,-1,-1,-1,-1,-1,-1,-1,-1,-1,-1],"loss_changes":[5.2732216E1,1.3405861E1,4.4142925E1,1.8267328E1,1.7762661E0,2.0329597E1,1.0821337E1,4.3034277E0,1.358498E1,0E0,0E0,1.135971E1,7.158367E0,1.0621E0,3.8996582E0,0E0,9.068289E-1,6.617176E0,1.0781017E1,1.2742367E1,8.181973E0,6.701442E0,1.9996033E0,0E0,0E0,0E0,0E0,3.6670494E-1,0E0,3.8678818E0,5.6539307E0,8.558634E0,7.946995E0,4.1603146E0,1.1636115E1,1.1786106E1,6.205338E0,8.036327E-2,9.759633E0,2.2507515E0,3.9067128E0,0E0,0E0,0E0,0E0,0E0,0E0,0E0,0E0,0E0,0E0,0E0,0E0,0E0,0E0,0E0,0E0,0E0,0E0,0E0,0E0,0E0,0E0,0E0,0E0,0E0,0E0],"parents":[2147483647,0,0,1,1,2,2,3,3,4,4,5,5,6,6,7,7,8,8,11,11,12,12,13,13,14,14,16,16,17,17,18,18,19,19,20,20,21,21,22,22,27,27,29,29,30,30,31,31,32,32,33,33,34,34,35,35,36,36,37,37,38,38,39,39,40,40],"right_children":[2,4,6,8,10,12,14,16,18,-1,-1,20,22,24,26,-1,28,30,32,34,36,38,40,-1,-1,-1,-1,42,-1,44,46,48,50,52,54,56,58,60,62,64,66,-1,-1,-1,-1,-1,-1,-1,-1,-1,-1,-1,-1,-1,-1,-1,-1,-1,-1,-1,-1,-1,-1,-1,-1,-1,-1],"split_conditions":[-4.5823476E-1,1.3537852E0,2.0781143E0,-9.587267E-1,-7.133556E-1,2.1299705E-1,-8.012825E-1,-6.9084E-1,-8.965575E-1,-3.9855596E-3,-7.162064E-2,6.5678906E-1,-9.9013336E-2,2.5701115E0,1.6149242E0,-1.704083E-2,6.211958E-1,7.574195E-1,-7.9266834E-1,-1.498976E-1,7.654542E-2,-9.148687E-1,5.13337E-1,4.568595E-2,-5.5680014E-3,-6.690273E-2,1.4660427E-2,-1.1847309E0,6.158635E-3,-7.0986986E-1,-6.688701E-1,-6.8444294E-1,-6.70448E-3,-3.8917753E-1,-6.419186E-1,-1.482627E-1,-4.232141E-1,1.736043E0,-7.584418E-1,1.2307858E0,1.6315603E0,7.1600385E-2,3.595054E-2,-2.5161266E-2,-4.744482E-2,6.471167E-2,-4.1243818E-2,3.277325E-2,-1.7676784E-2,8.316966E-4,-2.7044866E-2,5.5689175E-2,2.5357872E-2,-3.4981348E-2,1.5157628E-2,-2.2244236E-2,5.513516E-2,2.0118002E-2,-2.404644E-2,7.165213E-2,3.0106956E-2,2.3222327E-2,-5.319959E-2,6.310523E-2,2.7223993E-2,4.2765796E-2,-2.4944289E-2],"split_indices":[6,2,2,0,4,4,0,4,6,0,0,2,9,2,8,0,4,0,6,10,6,2,5,0,0,0,0,0,0,2,2,2,5,0,4,0,0,4,9,2,6,0,0,0,0,0,0,0,0,0,0,0,0,0,0,0,0,0,0,0,0,0,0,0,0,0,0],"split_type":[0,0,0,0,0,0,0,0,0,0,0,0,0,0,0,0,0,0,0,0,0,0,0,0,0,0,0,0,0,0,0,0,0,0,0,0,0,0,0,0,0,0,0,0,0,0,0,0,0,0,0,0,0,0,0,0,0,0,0,0,0,0,0,0,0,0,0],"sum_hessian":[5.7715625E2,2.5951178E2,3.1764444E2,2.4758052E2,1.1931279E1,2.9329062E2,2.4353828E1,1.3776629E1,2.3380388E2,1.1912141E0,1.0740065E1,1.9341844E2,9.987216E1,3.2121992E0,2.1141628E1,2.2133114E0,1.1563318E1,9.460928E1,1.391946E2,1.23960785E2,6.9457664E1,5.11057E1,4.8766464E1,1.9802353E0,1.231964E0,1.9913858E1,1.2277704E0,1.0323835E1,1.2394828E0,9.101319E1,3.5960891E0,3.6397232E1,1.0279737E2,5.1951912E1,7.200887E1,1.8271082E1,5.118658E1,7.952688E0,4.315301E1,3.9276043E1,9.490421E0,4.630178E0,5.693658E0,5.731303E1,3.370016E1,2.4534266E0,1.1426624E0,2.4664583E1,1.173265E1,4.5327923E1,5.7469448E1,2.0051228E1,3.1900682E1,1.3376051E1,5.863282E1,7.9492955E0,1.0321787E1,8.942389E0,4.224419E1,5.5456057E0,2.4070826E0,3.9443336E1,3.709674E0,3.1637077E1,7.6389666E0,7.3713627E0,2.1190581E0],"tree_param":{"num_deleted":"0","num_feature":"11","num_nodes":"67","size_leaf_vector":"1"}},{"base_weights":[-3.1024597E-3,5.9044592E-2,-1.046585E0,7.0092803E-1,-2.8279135E-3,-2.4105573E-1,-6.998927E-2,1.1827569E0,5.419942E-1,9.054746E-1,-4.645697E-2,8.388999E-1,-6.8829775E-1,6.749528E-2,1.203037E-2,6.7023265E-1,-6.1536834E-2,1.3166894E0,1.5749568E-1,7.7585816E-1,-8.6836115E-2,8.183556E-3,5.5419724E-2,1.6505212E-2,-9.088867E-1,1.4928868E-2,8.74683E-1,5.952276E-1,-8.254043E-1,1.4537673E0,6.1740917E-1,-4.3646704E-2,4.6476033E-1,8.9214677E-1,-2.6422327E-2,-1.5381144E-1,4.3693042E-1,-6.108741E-3,-1.0494063E0,2.27907E-2,-2.2705423E-2,5.855589E-2,1.893938E-2,-1.0504314E-2,4.7461927E-2,-6.581452E-2,-1.1050907E-4,2.0778973E-2,7.658132E-2,-1.7626561E-3,5.388191E-2,-4.2373077E-3,6.36417E-2,4.8583534E-2,-1.2544776E-2,-5.776254E-3,-3.5456996E-2,3.3374794E-2,-3.866813E-3,-6.193092E-2,-2.1317085E-2],"categories":[],"categories_nodes":[],"categories_segments":[],"categories_sizes":[],"default_left":[0,0,0,0,0,0,0,0,0,0,0,0,0,0,0,0,0,0,0,0,0,0,0,0,0,0,0,0,0,0,0,0,0,0,0,0,0,0,0,0,0,0,0,0,0,0,0,0,0,0,0,0,0,0,0,0,0,0,0,0,0],"id":11,"left_children":[1,3,5,7,9,11,-1,13,15,17,19,21,23,-1,-1,25,27,29,31,33,35,-1,-1,-1,37,39,41,43,45,47,49,-1,51,53,-1,55,57,-1,59,-1,-1,-1,-1,-1,-1,-1,-1,-1,-1,-1,-1,-1,-1,-1,-1,-1,-1,-1,-1,-1,-1],"loss_changes":[3.766605E1,2.177463E1,8.951294E0,3.0502434E0,1.9896704E1,5.967527E0,0E0,1.4248266E0,2.9894266E0,6.87055E0,1.597257E1,4.9530053E-1,2.1962426E0,0E0,0E0,4.207341E0,4.299743E0,5.127182E-1,3.3499262E0,3.8873549E0,1.6115623E1,0E0,0E0,0E0,6.6823006E-1,1.9664354E0,3.0833206E0,1.528754E0,1.5845785E0,2.9815292E-1,1.2844173E0,0E0,3.5783482E0,2.1571712E0,0E0,8.557899E0,6.2325516E0,0E0,1.7701769E-1,0E0,0E0,0E0,0E0,0E0,0E0,0E0,0E0,0E0,0E0,0E0,0E0,0E0,0E0,0E0,0E0,0E0,0E0,0E0,0E0,0E0,0E0],"parents":[2147483647,0,0,1,1,2,2,3,3,4,4,5,5,7,7,8,8,9,9,10,10,11,11,12,12,15,15,16,16,17,17,18,18,19,19,20,20,24,24,25,25,26,26,27,27,28,28,29,29,30,30,32,32,33,33,35,35,36,36,38,38],"right_children":[2,4,6,8,10,12,-1,14,16,18,20,22,24,-1,-1,26,28,30,32,34,36,-1,-1,-1,38,40,42,44,46,48,50,-1,52,54,-1,56,58,-1,60,-1,-1,-1,-1,-1,-1,-1,-1,-1,-1,-1,-1,-1,-1,-1,-1,-1,-1,-1,-1,-1,-1],"split_conditions":[2.0781143E0,-8.5853714E-1,-1.634135E0,-3.8917753E-1,-1.2572985E0,-1.8928218E0,-6.998927E-2,1.4767845E0,-8.037727E-2,6.6455615E-1,-3.3917502E-1,8.205198E-1,-7.6205885E-1,6.749528E-2,1.203037E-2,4.035849E-2,3.4800183E-2,-1.3455476E0,-4.6321148E-1,1.0252911E0,4.4055682E-1,8.183556E-3,5.5419724E-2,1.6505212E-2,-3.2332784E-1,-8.3368045E-1,1.2346887E-1,-1.3587311E-1,3.928739E-1,-4.8674276E-1,-2.2329248E-1,-4.3646704E-2,-3.1334394E-1,1.258119E0,-2.6422327E-2,1.1356034E0,7.797884E-1,-6.108741E-3,9.5941596E-2,2.27907E-2,-2.2705423E-2,5.855589E-2,1.893938E-2,-1.0504314E-2,4.7461927E-2,-6.581452E-2,-1.1050907E-4,2.0778973E-2,7.658132E-2,-1.7626561E-3,5.388191E-2,-4.2373077E-3,6.36417E-2,4.8583534E-2,-1.2544776E-2,-5.776254E-3,-3.5456996E-2,3.3374794E-2,-3.866813E-3,-6.193092E-2,-2.1317085E-2],"split_indices":[2,5,9,0,0,1,0,2,3,7,3,7,5,0,0,1,1,0,5,1,1,0,0,0,3,10,7,2,10,5,3,0,3,2,0,3,2,0,1,0,0,0,0,0,0,0,0,0,0,0,0,0,0,0,0,0,0,0,0,0,0],"split_type":[0,0,0,0,0,0,0,0,0,0,0,0,0,0,0,0,0,0,0,0,0,0,0,0,0,0,0,0,0,0,0,0,0,0,0,0,0,0,0,0,0,0,0,0,0,0,0,0,0,0,0,0,0,0,0,0,0,0,0,0,0],"sum_hessian":[5.788709E2,5.4722314E2,3.1647745E1,4.720246E1,5.000207E2,1.0159622E1,2.1488123E1,1.0110207E1,3.7092255E1,2.2011652E1,4.7800903E2,2.7188044E0,7.4408174E0,8.219226E0,1.8909813E0,3.0500896E1,6.5913577E0,1.37125845E1,8.2990675E0,2.1521084E1,4.5648795E2,1.2340848E0,1.4847195E0,1.2363665E0,6.2044506E0,7.508308E0,2.2992588E1,3.6628513E0,2.9285064E0,1.0563001E1,3.1495833E0,1.4834034E0,6.815664E0,2.0049517E1,1.4715677E0,4.0535992E2,5.1128036E1,1.2235796E0,4.980871E0,3.8848364E0,3.6234715E0,1.3538164E1,9.454424E0,1.242632E0,2.4202194E0,1.4592967E0,1.4692097E0,1.1790416E0,9.38396E0,1.6843563E0,1.4652271E0,4.5897E0,2.2259638E0,1.8885534E1,1.1639812E0,3.8034555E2,2.5014374E1,3.5095448E1,1.6032587E1,3.0628123E0,1.9180589E0],"tree_param":{"num_deleted":"0","num_feature":"11","num_nodes":"61","size_leaf_vector":"1"}},{"base_weights":[9.0464745E-3,-2.8197658E-1,2.5624028E-1,-3.158891E-2,-4.6546412E-1,3.5542005E-1,-9.9048984E-1,2.3887742E-1,-4.3764105E-1,-9.89009E-1,-3.6657748E-1,7.984738E-1,2.9701194E-1,3.9315656E-1,-1.1897082E0,4.4671664E-1,-7.386997E-1,2.4733864E-1,-6.7256975E-1,-1.5589873E-1,-1.133018E0,-7.241659E-1,-2.4449848E-1,6.9263466E-2,6.239904E-1,1.9283144E-1,6.308959E-1,3.6303435E-2,-7.7094794E-3,-4.8771974E-1,-6.725127E-2,-4.10813E-1,6.973673E-1,4.353696E-2,-9.8231727E-1,6.2298065E-1,-7.5189686E-1,-1.0196414E0,-8.07476E-2,-4.0652383E-2,3.0469984E-2,-2.1387644E-3,-1.1982652E0,5.4310834E-1,-1.2735312E0,-4.754027E-1,2.0280312E-1,-3.891225E-2,8.200617E-1,3.7906817E-1,-1.4151412E-1,4.7547254E-1,6.94009E-2,9.16881E-3,-4.623419E-2,4.1268393E-2,-3.801338E-2,6.4109795E-2,1.6857894E-2,2.935755E-2,-6.16584E-2,-2.7097521E-2,6.051997E-2,-5.1299877E-2,-4.020979E-3,-6.1196517E-2,-2.348517E-2,3.733449E-2,-4.929041E-2,-1.2552641E-2,-6.629016E-2,4.5101766E-2,-1.835974E-2,-3.9644153E-3,-7.384681E-2,3.2378454E-2,-2.9597534E-2,7.580963E-4,5.137402E-2,4.162763E-2,-4.973416E-2,5.6075968E-2,1.3833284E-2,4.2361267E-2,1.2018958E-2,1.9007018E-2,-2.2587543E-2,3.2544564E-2,-1.0038839E-2],"categories":[],"categories_nodes":[],"categories_segments":[],"categories_sizes":[],"default_left":[0,0,0,0,0,0,0,0,0,0,0,0,0,0,0,0,0,0,0,0,0,0,0,0,0,0,0,0,0,0,0,0,0,0,0,0,0,0,0,0,0,0,0,0,0,0,0,0,0,0,0,0,0,0,0,0,0,0,0,0,0,0,0,0,0,0,0,0,0,0,0,0,0,0,0,0,0,0,0,0,0,0,0,0,0,0,0,0,0],"id":12,"left_children":[1,3,5,7,9,11,13,15,17,19,21,23,25,27,29,31,33,35,37,39,41,43,45,-1,47,49,51,-1,-1,53,-1,55,57,-1,59,61,63,65,67,-1,-1,-1,69,71,73,75,77,79,81,83,85,87,-1,-1,-1,-1,-1,-1,-1,-1,-1,-1,-1,-1,-1,-1,-1,-1,-1,-1,-1,-1,-1,-1,-1,-1,-1,-1,-1,-1,-1,-1,-1,-1,-1,-1,-1,-1,-1],"loss_changes":[4.190204E1,1.2276487E1,3.929324E1,1.2647785E1,7.6267586E0,7.33107E0,6.937523E0,1.4389641E1,7.5710535E0,2.6941147E0,5.558672E0,2.5626736E0,8.92177E0,7.8719556E-1,1.6080818E0,1.2686182E1,5.7601275E0,5.15375E0,7.0107E0,2.852163E0,1.388649E0,2.3617538E1,1.0369064E1,0E0,3.621848E0,1.2482021E1,6.5640526E0,0E0,0E0,1.7328415E0,0E0,6.536038E0,9.04985E0,0E0,5.1865587E0,7.238188E0,6.2858415E-1,1.8608799E0,1.1108924E1,0E0,0E0,0E0,1.9699249E0,3.813982E0,5.535721E0,9.007906E0,5.3329086E0,6.8745427E0,3.1888256E0,8.137255E0,1.1845524E1,6.353262E0,0E0,0E0,0E0,0E0,0E0,0E0,0E0,0E0,0E0,0E0,0E0,0E0,0E0,0E0,0E0,0E0,0E0,0E0,0E0,0E0,0E0,0E0,0E0,0E0,0E0,0E0,0E0,0E0,0E0,0E0,0E0,0E0,0E0,0E0,0E0,0E0,0E0],"parents":[2147483647,0,0,1,1,2,2,3,3,4,4,5,5,6,6,7,7,8,8,9,9,10,10,11,11,12,12,13,13,14,14,15,15,16,16,17,17,18,18,19,19,20,20,21,21,22,22,24,24,25,25,26,26,29,29,31,31,32,32,34,34,35,35,36,36,37,37,38,38,42,42,43,43,44,44,45,45,46,46,47,47,48,48,49,49,50,50,51,51],"right_children":[2,4,6,8,10,12,14,16,18,20,22,24,26,28,30,32,34,36,38,40,42,44,46,-1,48,50,52,-1,-1,54,-1,56,58,-1,60,62,64,66,68,-1,-1,-1,70,72,74,76,78,80,82,84,86,88,-1,-1,-1,-1,-1,-1,-1,-1,-1,-1,-1,-1,-1,-1,-1,-1,-1,-1,-1,-1,-1,-1,-1,-1,-1,-1,-1,-1,-1,-1,-1,-1,-1,-1,-1,-1,-1],"split_conditions":[-4.5823476E-1,-7.584418E-1,2.0781143E0,-3.1474322E-1,-1.3765814E0,-8.5853714E-1,-8.012825E-1,-5.480656E-1,-3.8917753E-1,-8.7386894E-1,5.1050985E-1,-1.0257609E0,5.031971E-1,1.08598836E-1,-1.634135E0,-9.558685E-1,-1.2572985E0,-3.5453853E-1,1.4651473E-2,-8.8302517E-1,-1.1926814E0,-1.50906E0,-5.1853764E-1,6.9263466E-2,-1.653361E-1,9.932659E-1,1.3661972E0,3.6303435E-2,-7.7094794E-3,-5.2890357E-2,-6.725127E-2,-2.2844155E-1,-1.1410737E-2,4.353696E-2,-3.8093463E-1,-1.0932016E0,-5.983862E-1,3.456284E-1,-7.487244E-1,-4.0652383E-2,3.0469984E-2,-2.1387644E-3,-1.1274068E0,5.0509226E-1,-9.9686825E-1,-8.344043E-1,1.1429478E0,5.031971E-1,1.2560349E0,-8.9818984E-1,-1.632063E-1,6.704557E-1,6.94009E-2,9.16881E-3,-4.623419E-2,4.1268393E-2,-3.801338E-2,6.4109795E-2,1.6857894E-2,2.935755E-2,-6.16584E-2,-2.7097521E-2,6.051997E-2,-5.1299877E-2,-4.020979E-3,-6.1196517E-2,-2.348517E-2,3.733449E-2,-4.929041E-2,-1.2552641E-2,-6.629016E-2,4.5101766E-2,-1.835974E-2,-3.9644153E-3,-7.384681E-2,3.2378454E-2,-2.9597534E-2,7.580963E-4,5.137402E-2,4.162763E-2,-4.973416E-2,5.6075968E-2,1.3833284E-2,4.2361267E-2,1.2018958E-2,1.9007018E-2,-2.2587543E-2,3.2544564E-2,-1.0038839E-2],"split_indices":[6,9,2,8,7,5,0,2,0,2,9,7,0,5,9,2,0,2,0,6,5,10,2,0,7,6,7,0,0,5,0,7,5,0,5,6,6,7,6,0,0,0,6,7,2,7,7,0,6,7,2,2,0,0,0,0,0,0,0,0,0,0,0,0,0,0,0,0,0,0,0,0,0,0,0,0,0,0,0,0,0,0,0,0,0,0,0,0,0],"split_type":[0,0,0,0,0,0,0,0,0,0,0,0,0,0,0,0,0,0,0,0,0,0,0,0,0,0,0,0,0,0,0,0,0,0,0,0,0,0,0,0,0,0,0,0,0,0,0,0,0,0,0,0,0,0,0,0,0,0,0,0,0,0,0,0,0,0,0,0,0,0,0,0,0,0,0,0,0,0,0,0,0,0,0,0,0,0,0,0,0],"sum_hessian":[5.8046106E2,2.6653122E2,3.1392984E2,1.1321281E2,1.533184E2,2.9145868E2,2.2471178E1,6.81984E1,4.5014404E1,2.2927849E1,1.3039056E2,3.2472023E1,2.5898663E2,2.7056859E0,1.9765493E1,5.668899E1,1.1509409E1,1.14824095E1,3.3531994E1,3.6860645E0,1.9241785E1,3.1930172E1,9.846039E1,5.852048E0,2.6619974E1,1.985968E2,6.038985E1,1.4793661E0,1.2263199E0,4.3309608E0,1.5434532E1,1.2677515E1,4.4011475E1,1.1746935E0,1.0334716E1,8.618867E0,2.8635433E0,2.0680887E1,1.2851108E1,1.9495907E0,1.7364738E0,1.1800139E0,1.8061771E1,9.659366E0,2.2270805E1,6.48968E1,3.3563587E1,6.2592936E0,2.0360682E1,1.2746349E2,7.113331E1,5.1455063E1,8.934787E0,1.9367744E0,2.3941865E0,2.4938285E0,1.0183686E1,1.5799751E1,2.8211723E1,1.239437E0,9.095279E0,2.9151437E0,5.703723E0,1.6585451E0,1.204998E0,1.4185669E1,6.4952183E0,6.8048577E0,6.0462503E0,2.4956071E0,1.5566164E1,6.9342976E0,2.7250686E0,3.4434175E0,1.8827389E1,5.673624E0,5.9223175E1,2.8171932E1,5.3916564E0,3.3414786E0,2.917815E0,1.2411367E1,7.949313E0,2.7963017E1,9.950047E1,2.6443676E1,4.4689632E1,4.0886597E1,1.0568468E1],"tree_param":{"num_deleted":"0","num_feature":"11","num_nodes":"89","size_leaf_vector":"1"}},{"base_weights":[6.0515217E-3,-2.953559E-1,2.0674415E-1,9.773484E-1,-3.383401E-1,2.852337E-1,-6.557887E-2,1.3110534E0,-1.4229204E-2,5.0547355E-1,-3.8388467E-1,4.7235724E-1,9.054208E-2,7.273552E-2,2.4622347E-2,9.8732954E-1,-5.257082E-1,-5.3640676E-1,-9.6933395E-2,6.4823157E-1,1.8400453E-1,1.0149181E0,1.9040592E-2,6.5930165E-2,1.2027198E-3,1.2276605E-2,-4.4506993E-2,-1.4556542E-1,-7.4169064E-1,1.2174529E-2,-6.092573E-2,2.540376E-1,8.741546E-1,3.8643047E-1,-1.2077003E0,1.1318771E0,-5.298819E-4,-2.1667036E-1,2.796861E-1,-1.7859532E-2,2.7031532E-2,-4.06326E-2,-4.8235334E-3,1.0569538E-2,-2.1818638E-2,2.179311E-2,-4.8365396E-2,1.1753665E-2,5.006526E-2,2.642679E-2,-1.8023886E-2,-6.8638414E-2,-4.310675E-3,6.0740888E-2,1.2529077E-2,-3.0371219E-2,1.4651234E-3,4.2362176E-3,3.1990483E-2],"categories":[],"categories_nodes":[],"categories_segments":[],"categories_sizes":[],"default_left":[0,0,0,0,0,0,0,0,0,0,0,0,0,0,0,0,0,0,0,0,0,0,0,0,0,0,0,0,0,0,0,0,0,0,0,0,0,0,0,0,0,0,0,0,0,0,0,0,0,0,0,0,0,0,0,0,0,0,0],"id":13,"left_children":[1,3,5,7,9,11,-1,13,-1,15,17,19,21,-1,-1,23,25,27,29,31,33,35,37,-1,-1,-1,-1,39,41,43,-1,45,47,49,51,53,-1,55,57,-1,-1,-1,-1,-1,-1,-1,-1,-1,-1,-1,-1,-1,-1,-1,-1,-1,-1,-1,-1],"loss_changes":[3.5127346E1,1.3029198E1,4.1915108E1,3.6749306E0,8.851866E0,1.2062166E1,0E0,3.3825874E-2,0E0,6.4659395E0,9.327717E0,8.460953E0,1.08252535E1,0E0,0E0,2.6820726E0,1.473265E0,1.1101746E1,9.266179E0,9.101788E0,1.8917574E1,1.4226761E0,9.479889E0,0E0,0E0,0E0,0E0,7.360483E0,4.104458E0,6.337208E0,0E0,9.20504E0,5.1393166E0,6.339761E0,1.4661083E0,4.6794796E-1,0E0,7.810074E0,5.0882573E0,0E0,0E0,0E0,0E0,0E0,0E0,0E0,0E0,0E0,0E0,0E0,0E0,0E0,0E0,0E0,0E0,0E0,0E0,0E0,0E0],"parents":[2147483647,0,0,1,1,2,2,3,3,4,4,5,5,7,7,9,9,10,10,11,11,12,12,15,15,16,16,17,17,18,18,19,19,20,20,21,21,22,22,27,27,28,28,29,29,31,31,32,32,33,33,34,34,35,35,37,37,38,38],"right_children":[2,4,6,8,10,12,-1,14,-1,16,18,20,22,-1,-1,24,26,28,30,32,34,36,38,-1,-1,-1,-1,40,42,44,-1,46,48,50,52,54,-1,56,58,-1,-1,-1,-1,-1,-1,-1,-1,-1,-1,-1,-1,-1,-1,-1,-1,-1,-1,-1,-1],"split_conditions":[-4.8575336E-1,-1.1550313E0,2.0781143E0,6.5926716E-2,-1.04913E0,-2.6786268E-1,-6.557887E-2,2.174573E-1,-1.4229204E-2,9.7112066E-1,-2.72539E-1,3.928739E-1,-1.0231891E0,7.273552E-2,2.4622347E-2,1.4299828E0,-6.935513E-1,-8.578695E-1,2.4403713E0,-1.0626073E0,1.0667868E0,1.7683958E-1,-4.8142865E-2,6.5930165E-2,1.2027198E-3,1.2276605E-2,-4.4506993E-2,-9.0120214E-1,1.4937683E0,-1.498976E-1,-6.092573E-2,9.57454E-1,-7.801178E-1,1.4012814E-1,6.745672E-1,9.301209E-1,-5.298819E-4,-1.2969996E-1,3.904488E-1,-1.7859532E-2,2.7031532E-2,-4.06326E-2,-4.8235334E-3,1.0569538E-2,-2.1818638E-2,2.179311E-2,-4.8365396E-2,1.1753665E-2,5.006526E-2,2.642679E-2,-1.8023886E-2,-6.8638414E-2,-4.310675E-3,6.0740888E-2,1.2529077E-2,-3.0371219E-2,1.4651234E-3,4.2362176E-3,3.1990483E-2],"split_indices":[4,5,2,1,0,3,0,3,0,2,2,10,0,0,0,7,4,2,2,10,2,5,4,0,0,0,0,2,7,10,0,2,2,1,4,2,0,0,0,0,0,0,0,0,0,0,0,0,0,0,0,0,0,0,0,0,0,0,0],"split_type":[0,0,0,0,0,0,0,0,0,0,0,0,0,0,0,0,0,0,0,0,0,0,0,0,0,0,0,0,0,0,0,0,0,0,0,0,0,0,0,0,0,0,0,0,0,0,0,0,0,0,0,0,0,0,0,0,0,0,0],"sum_hessian":[5.787014E2,2.3112218E2,3.4757925E2,6.8407083E0,2.2428146E2,3.312666E2,1.6312668E1,5.3792863E0,1.461422E0,1.096844E1,2.1331302E2,1.6818913E2,1.6307747E2,3.9151592E0,1.4641273E0,7.5043125E0,3.4641275E0,1.3871371E2,7.4599304E1,1.0369477E2,6.4494354E1,1.0761228E1,1.5231624E2,5.3094864E0,2.1948261E0,1.2163172E0,2.2478104E0,4.8356518E1,9.03572E1,6.8887085E1,5.7122216E0,3.8552406E1,6.5142365E1,5.693534E1,7.559014E0,9.566467E0,1.1947609E0,8.0072525E1,7.2243706E1,3.7324863E1,1.1031652E1,8.1170555E1,9.186644E0,4.8067345E1,2.081974E1,3.411653E1,4.4358783E0,1.1282631E1,5.3859734E1,4.8080086E1,8.855256E0,6.393861E0,1.1651533E0,8.3976965E0,1.1687704E0,3.0365005E1,4.9707523E1,4.7671066E1,2.457264E1],"tree_param":{"num_deleted":"0","num_feature":"11","num_nodes":"59","size_leaf_vector":"1"}},{"base_weights":[-6.6855494E-3,-2.5934944E-1,2.0840846E-1,-1.2270354E-2,-4.5124432E-1,2.9673284E-1,-9.0910816E-1,-4.1940588E-1,1.7387745E-1,-4.8899356E-1,5.3690415E-2,5.145113E-2,5.2736014E-1,-1.6868924E-1,-6.430903E-2,-1.651684E-1,-8.9020157E-1,7.1769945E-2,8.108269E-1,-9.5586054E-2,-6.347188E-1,2.6895988E-1,-1.8311699E-1,1.2445132E-1,6.440249E-1,3.5447773E-2,-5.18822E-1,5.359862E-1,-4.314839E-1,-3.354044E-4,-9.8006326E-1,-8.9777656E-2,7.515021E-1,1.1065979E0,-1.6717261E-3,-2.5894856E-1,5.4550964E-1,-1.2620915E0,-4.505954E-1,7.542564E-1,8.5154295E-2,4.9978605E-1,-3.8769677E-1,4.4625044E-1,-1.0285755E0,4.1001263E-1,7.9155934E-1,1.6356304E-2,-7.54182E-1,-1.753328E-2,4.297924E-2,-2.941945E-2,1.9415347E-2,-1.3626617E-3,-5.42794E-2,-1.0249835E-2,4.5804072E-2,6.525444E-2,5.1103528E-3,6.3697614E-2,4.534906E-3,3.7421722E-2,-3.774227E-2,-3.5408657E-2,-3.6899713E-3,5.3291686E-2,-2.2378182E-2,-2.6807738E-2,-7.27549E-2,-5.38323E-2,-1.567286E-2,-4.0985156E-2,4.7275197E-2,-6.836655E-3,3.287306E-2,4.9953382E-2,-9.453012E-3,2.137492E-2,-2.4695016E-2,4.0618286E-2,-9.31654E-3,1.0309426E-4,-6.569214E-2,3.566655E-2,-1.8525379E-2,6.9596015E-2,3.194663E-2,3.937242E-3,-5.255505E-2],"categories":[],"categories_nodes":[],"categories_segments":[],"categories_sizes":[],"default_left":[0,0,0,0,0,0,0,0,0,0,0,0,0,0,0,0,0,0,0,0,0,0,0,0,0,0,0,0,0,0,0,0,0,0,0,0,0,0,0,0,0,0,0,0,0,0,0,0,0,0,0,0,0,0,0,0,0,0,0,0,0,0,0,0,0,0,0,0,0,0,0,0,0,0,0,0,0,0,0,0,0,0,0,0,0,0,0,0,0],"id":14,"left_children":[1,3,5,7,9,11,13,15,17,19,-1,21,23,25,-1,27,29,31,33,35,37,39,41,43,45,-1,47,49,51,-1,53,55,57,59,61,63,65,67,69,71,73,75,77,79,81,83,85,-1,87,-1,-1,-1,-1,-1,-1,-1,-1,-1,-1,-1,-1,-1,-1,-1,-1,-1,-1,-1,-1,-1,-1,-1,-1,-1,-1,-1,-1,-1,-1,-1,-1,-1,-1,-1,-1,-1,-1,-1,-1],"loss_changes":[3.1363478E1,1.2576185E1,3.1040176E1,8.942315E0,9.122128E0,1.6358772E1,6.226906E0,4.2831044E0,5.2109795E0,8.333115E0,0E0,7.2676682E0,6.932266E0,3.1146877E0,0E0,4.9482994E0,1.0057364E0,7.855289E0,2.6684232E0,4.409273E0,1.17521515E1,6.5200567E0,9.786925E0,1.3347971E1,3.6612244E0,0E0,1.6338974E0,2.4245481E0,2.6546502E0,0E0,1.1333885E0,6.9323645E0,4.8001113E0,1.2677689E0,2.8020885E0,2.7053294E0,4.919524E0,2.5328255E0,6.8757153E0,6.840493E0,7.0316396E0,5.7830343E0,4.8343573E0,6.6025434E0,2.3200817E0,1.1323849E1,5.500252E0,0E0,1.5056112E0,0E0,0E0,0E0,0E0,0E0,0E0,0E0,0E0,0E0,0E0,0E0,0E0,0E0,0E0,0E0,0E0,0E0,0E0,0E0,0E0,0E0,0E0,0E0,0E0,0E0,0E0,0E0,0E0,0E0,0E0,0E0,0E0,0E0,0E0,0E0,0E0,0E0,0E0,0E0,0E0],"parents":[2147483647,0,0,1,1,2,2,3,3,4,4,5,5,6,6,7,7,8,8,9,9,11,11,12,12,13,13,15,15,16,16,17,17,18,18,19,19,20,20,21,21,22,22,23,23,24,24,26,26,27,27,28,28,30,30,31,31,32,32,33,33,34,34,35,35,36,36,37,37,38,38,39,39,40,40,41,41,42,42,43,43,44,44,45,45,46,46,48,48],"right_children":[2,4,6,8,10,12,14,16,18,20,-1,22,24,26,-1,28,30,32,34,36,38,40,42,44,46,-1,48,50,52,-1,54,56,58,60,62,64,66,68,70,72,74,76,78,80,82,84,86,-1,88,-1,-1,-1,-1,-1,-1,-1,-1,-1,-1,-1,-1,-1,-1,-1,-1,-1,-1,-1,-1,-1,-1,-1,-1,-1,-1,-1,-1,-1,-1,-1,-1,-1,-1,-1,-1,-1,-1,-1,-1],"split_conditions":[-4.5823476E-1,-7.584418E-1,2.0781143E0,-6.072316E-1,1.4048218E0,-1.4286171E-1,-1.634135E0,4.710007E-2,-5.434071E-1,-8.602024E-1,5.3690415E-2,-1.498976E-1,-1.1158031E0,-3.5496756E-1,-6.430903E-2,-8.578695E-1,-3.8093463E-1,4.344498E-1,-6.278703E-1,-9.0120214E-1,6.851184E-1,9.645891E-2,-1.7591737E-1,6.294559E-1,4.155794E-1,3.5447773E-2,-4.183063E-1,-7.219197E-1,-8.037727E-2,-3.354044E-4,-1.2490103E0,5.688778E-1,-8.15326E-1,3.8209996E-1,1.29777E-1,-2.6192E-1,1.8154582E-1,-1.50906E0,-7.801178E-1,-4.0093052E-1,1.4498252E0,3.0945582E-2,-1.440367E0,1.4567457E0,-8.279582E-2,1.06826395E-1,-3.0332085E-1,1.6356304E-2,2.2831132E0,-1.753328E-2,4.297924E-2,-2.941945E-2,1.9415347E-2,-1.3626617E-3,-5.42794E-2,-1.0249835E-2,4.5804072E-2,6.525444E-2,5.1103528E-3,6.3697614E-2,4.534906E-3,3.7421722E-2,-3.774227E-2,-3.5408657E-2,-3.6899713E-3,5.3291686E-2,-2.2378182E-2,-2.6807738E-2,-7.27549E-2,-5.38323E-2,-1.567286E-2,-4.0985156E-2,4.7275197E-2,-6.836655E-3,3.287306E-2,4.9953382E-2,-9.453012E-3,2.137492E-2,-2.4695016E-2,4.0618286E-2,-9.31654E-3,1.0309426E-4,-6.569214E-2,3.566655E-2,-1.8525379E-2,6.9596015E-2,3.194663E-2,3.937242E-3,-5.255505E-2],"split_indices":[6,9,2,4,4,4,9,3,6,2,0,10,10,5,0,2,5,5,2,2,9,2,6,2,6,0,6,4,3,0,7,7,6,4,5,3,5,10,2,6,9,5,7,6,6,6,2,0,2,0,0,0,0,0,0,0,0,0,0,0,0,0,0,0,0,0,0,0,0,0,0,0,0,0,0,0,0,0,0,0,0,0,0,0,0,0,0,0,0],"split_type":[0,0,0,0,0,0,0,0,0,0,0,0,0,0,0,0,0,0,0,0,0,0,0,0,0,0,0,0,0,0,0,0,0,0,0,0,0,0,0,0,0,0,0,0,0,0,0,0,0,0,0,0,0,0,0,0,0,0,0,0,0,0,0,0,0,0,0,0,0,0,0,0,0,0,0,0,0,0,0,0,0,0,0,0,0,0,0,0,0],"sum_hessian":[5.751076E2,2.6436316E2,3.1074448E2,1.160299E2,1.4833325E2,2.88664E2,2.2080463E1,3.6012222E1,8.001768E1,1.4541324E2,2.9200141E0,1.404804E2,1.4818362E2,7.93894E0,1.4141524E1,2.426146E1,1.1750763E1,6.992145E1,1.0096225E1,3.975216E1,1.0566108E2,7.2814674E1,6.766572E1,3.373713E1,1.1444649E2,1.9717422E0,5.967198E0,6.399714E0,1.7861746E1,1.1840624E0,1.0566701E1,5.7195972E1,1.2725479E1,7.1364126E0,2.9598122E0,3.2154667E1,7.597493E0,2.2645464E1,8.301562E1,1.914998E1,5.3664692E1,1.5265458E1,5.240026E1,2.6855095E1,6.8820333E0,4.571483E1,6.873167E1,1.2139679E0,4.75323E0,1.6888008E0,4.710913E0,1.5229199E1,2.6325464E0,1.1790468E0,9.387654E0,5.203201E1,5.16396E0,6.3238115E0,6.401668E0,5.9089823E0,1.2274305E0,1.4860786E0,1.4737337E0,8.560229E0,2.3594437E1,4.937307E0,2.6601858E0,5.5497246E0,1.709574E1,1.3686134E1,6.932948E1,1.7187382E0,1.7431242E1,3.9219933E1,1.4444758E1,8.589422E0,6.676035E0,5.691129E0,4.670913E1,1.6830183E1,1.0024913E1,1.7071325E0,5.174901E0,3.2983265E1,1.2731563E1,1.2285717E1,5.6445946E1,1.4422308E0,3.3109992E0],"tree_param":{"num_deleted":"0","num_feature":"11","num_nodes":"89","size_leaf_vector":"1"}},{"base_weights":[4.6621454E-3,-2.6395532E-1,2.3703036E-1,-4.5227345E-2,-5.1736903E-1,3.210783E-1,-9.008764E-1,5.893043E-2,-1.1840211E0,2.0343342E-1,-5.9006387E-1,8.168422E-1,2.5919095E-1,-1.1203353E0,3.6288407E-2,-3.1301355E-1,3.0594674E-1,-8.542792E-4,-6.5426074E-2,-8.5344297E-1,7.286055E-1,2.789354E-2,-6.543415E-1,9.528125E-1,-2.5620786E-2,3.0035004E-1,-5.264867E-1,1.3750272E-2,-1.2392843E0,-5.398427E-1,1.9110763E-1,-5.7183515E-2,3.5616896E-1,-5.4106202E-2,-6.7227827E-3,6.1106604E-2,-3.40647E-1,5.158671E-1,-6.863872E-1,-8.858957E-1,-4.311473E-1,3.8047814E-1,1.0929737E0,-4.6577986E-2,4.475884E-2,4.730868E-1,9.6237965E-2,-8.790303E-1,7.5712335E-1,-6.613954E-2,-1.760882E-3,-3.3472076E-2,3.236374E-2,3.725525E-2,-1.4649873E-2,2.1230439E-2,-2.4185037E-2,-4.1443553E-2,1.6058782E-2,-1.6737573E-2,4.8436176E-2,-5.6027222E-2,1.995042E-2,-2.6437283E-2,-5.084098E-2,-3.484753E-2,-6.371909E-3,-5.636492E-3,5.463468E-2,6.1811406E-2,1.649982E-2,2.0502495E-2,5.685541E-2,2.734547E-2,-3.1798517E-3,-5.506785E-2,1.7646395E-2,4.7376756E-2,1.0768133E-2],"categories":[],"categories_nodes":[],"categories_segments":[],"categories_sizes":[],"default_left":[0,0,0,0,0,0,0,0,0,0,0,0,0,0,0,0,0,0,0,0,0,0,0,0,0,0,0,0,0,0,0,0,0,0,0,0,0,0,0,0,0,0,0,0,0,0,0,0,0,0,0,0,0,0,0,0,0,0,0,0,0,0,0,0,0,0,0,0,0,0,0,0,0,0,0,0,0,0,0],"id":15,"left_children":[1,3,5,7,9,11,13,15,17,19,21,23,25,27,-1,29,31,-1,-1,33,35,37,39,41,43,45,47,-1,49,51,53,-1,55,-1,-1,-1,57,59,61,63,65,67,69,-1,-1,71,73,75,77,-1,-1,-1,-1,-1,-1,-1,-1,-1,-1,-1,-1,-1,-1,-1,-1,-1,-1,-1,-1,-1,-1,-1,-1,-1,-1,-1,-1,-1,-1],"loss_changes":[3.6037144E1,1.4820177E1,2.9894411E1,1.724874E1,6.615658E0,8.655167E0,8.507563E0,1.2374705E1,1.7477894E0,7.3381047E0,4.501335E0,3.6450806E0,8.513887E0,3.5582352E0,0E0,6.2586303E0,6.291002E0,0E0,0E0,5.906687E-1,4.9667673E0,4.394765E0,4.903633E0,1.7694359E0,5.3103747E0,8.633648E0,6.6505117E0,0E0,1.7676868E0,6.18528E0,4.896461E0,0E0,4.739025E0,0E0,0E0,0E0,1.3988074E0,3.197325E0,2.8666048E0,1.7651672E0,4.2723913E0,2.5444582E0,1.9254456E0,0E0,0E0,5.1039295E0,8.253039E0,3.3573732E0,1.4533031E-1,0E0,0E0,0E0,0E0,0E0,0E0,0E0,0E0,0E0,0E0,0E0,0E0,0E0,0E0,0E0,0E0,0E0,0E0,0E0,0E0,0E0,0E0,0E0,0E0,0E0,0E0,0E0,0E0,0E0,0E0],"parents":[2147483647,0,0,1,1,2,2,3,3,4,4,5,5,6,6,7,7,8,8,9,9,10,10,11,11,12,12,13,13,15,15,16,16,19,19,20,20,21,21,22,22,23,23,24,24,25,25,26,26,28,28,29,29,30,30,32,32,36,36,37,37,38,38,39,39,40,40,41,41,42,42,45,45,46,46,47,47,48,48],"right_children":[2,4,6,8,10,12,14,16,18,20,22,24,26,28,-1,30,32,-1,-1,34,36,38,40,42,44,46,48,-1,50,52,54,-1,56,-1,-1,-1,58,60,62,64,66,68,70,-1,-1,72,74,76,78,-1,-1,-1,-1,-1,-1,-1,-1,-1,-1,-1,-1,-1,-1,-1,-1,-1,-1,-1,-1,-1,-1,-1,-1,-1,-1,-1,-1,-1,-1],"split_conditions":[-4.5823476E-1,-2.1991388E-1,2.0781143E0,3.1512433E-1,-2.8091183E-1,-8.5853714E-1,1.6149242E0,4.035849E-2,-1.4327005E0,-3.2411987E-1,-3.2629916E-1,3.8186032E-2,2.366643E0,-4.183063E-1,3.6288407E-2,-5.841521E-1,-9.4964355E-1,-8.542792E-4,-6.5426074E-2,1.2080463E0,1.3811183E0,-7.4426943E-1,-1.3415208E-1,-4.7060724E-2,-1.3079847E0,3.2879093E-1,3.1332105E-1,1.3750272E-2,1.0153767E0,-3.4087196E-1,-4.805899E-1,-5.7183515E-2,-5.134724E-1,-5.4106202E-2,-6.7227827E-3,6.1106604E-2,-5.983862E-1,-1.0416793E0,-3.297764E-1,3.7023507E-2,-9.063867E-1,-3.4276283E-1,1.2569832E0,-4.6577986E-2,4.475884E-2,5.761796E-1,-3.183756E-1,-6.754016E-2,-5.3833294E-1,-6.613954E-2,-1.760882E-3,-3.3472076E-2,3.236374E-2,3.725525E-2,-1.4649873E-2,2.1230439E-2,-2.4185037E-2,-4.1443553E-2,1.6058782E-2,-1.6737573E-2,4.8436176E-2,-5.6027222E-2,1.995042E-2,-2.6437283E-2,-5.084098E-2,-3.484753E-2,-6.371909E-3,-5.636492E-3,5.463468E-2,6.1811406E-2,1.649982E-2,2.0502495E-2,5.685541E-2,2.734547E-2,-3.1798517E-3,-5.506785E-2,1.7646395E-2,4.7376756E-2,1.0768133E-2],"split_indices":[6,8,2,2,1,5,8,1,5,7,3,3,6,6,0,8,8,0,0,8,2,6,3,6,5,2,5,0,7,2,8,0,6,0,0,0,6,6,3,1,6,8,7,0,0,1,3,2,2,0,0,0,0,0,0,0,0,0,0,0,0,0,0,0,0,0,0,0,0,0,0,0,0,0,0,0,0,0,0],"split_type":[0,0,0,0,0,0,0,0,0,0,0,0,0,0,0,0,0,0,0,0,0,0,0,0,0,0,0,0,0,0,0,0,0,0,0,0,0,0,0,0,0,0,0,0,0,0,0,0,0,0,0,0,0,0,0,0,0,0,0,0,0,0,0,0,0,0,0,0,0,0,0,0,0,0,0,0,0,0,0],"sum_hessian":[5.753479E2,2.66796E2,3.085519E2,1.4383057E2,1.2296543E2,2.8799768E2,2.0554222E1,1.3264653E2,1.11840315E1,1.1100492E1,1.11864944E2,3.060777E1,2.5738992E2,1.8385061E1,2.1691623E0,5.2830303E1,7.981623E1,1.1878273E0,9.996203E0,3.4773886E0,7.6231027E0,1.0592826E1,1.0127212E2,2.6241507E1,4.3662634E0,2.4516429E2,1.2225638E1,1.3411093E0,1.7043951E1,3.6387085E1,1.6443218E1,1.9436084E0,7.787263E1,2.2550733E0,1.2223153E0,5.1178966E0,2.505206E0,6.458421E0,4.1344047E0,4.8247875E1,5.3024242E1,5.8929214E0,2.0348587E1,2.194998E0,2.1712656E0,1.3207422E2,1.13090065E2,9.838644E0,2.3869948E0,1.5846346E1,1.1976056E0,3.3198814E1,3.1882699E0,7.416653E0,9.026565E0,7.246221E1,5.4104114E0,1.2964289E0,1.2087771E0,2.3344078E0,4.1240134E0,2.9300168E0,1.2043877E0,1.4293868E1,3.3954006E1,2.7586237E1,2.5438004E1,3.9791121E0,1.9138091E0,1.6609726E1,3.738861E0,1.22100494E2,9.973727E0,2.8973776E1,8.4116295E1,8.424346E0,1.4142978E0,1.2120173E0,1.1749777E0],"tree_param":{"num_deleted":"0","num_feature":"11","num_nodes":"79","size_leaf_vector":"1"}},{"base_weights":[2.6532998E-2,-4.653545E-1,1.4617243E-1,5.3585273E-1,-5.1604843E-1,-1.328463E-1,2.7073303E-1,-1.45542E-2,8.695903E-1,5.3384997E-2,-5.449432E-1,-7.5783217E-1,4.8161797E-2,-1.4443193E-1,4.0327737E-1,-3.2212962E-3,6.2094074E-2,5.1197875E-1,-5.83475E-1,1.9554426E-1,-8.598621E-1,2.3316357E-1,-3.282935E-1,3.7017488E-1,-4.4306567E-1,1.8095948E-1,6.4524716E-1,2.713043E-4,4.817554E-2,-6.8086845E-1,-2.5803453E-1,4.3153033E-2,-2.8609833E-2,-4.0598404E-1,-1.072845E0,1.089467E-1,6.8808936E-2,3.1548586E-1,-7.380602E-1,7.782235E-1,-1.4747618E-1,3.6766037E-1,-5.4364276E-1,3.6414087E-1,-1.6211395E-1,8.328563E-1,4.3778104E-1,-7.387685E-3,-3.7285816E-2,2.0303166E-2,-2.3941161E-2,-4.8796892E-2,1.2939549E-2,-3.1389523E-2,-6.129818E-2,5.6982335E-2,2.7410656E-3,3.4361523E-2,-1.6019963E-2,-5.324955E-2,-4.13711E-3,-2.4956563E-2,4.8341814E-2,1.0516102E-2,-4.30702E-2,-4.6782333E-2,4.373108E-2,-4.8554894E-2,-6.955003E-3,7.6756566E-3,3.049749E-2,-2.6798645E-2,3.052018E-2,2.7566118E-2,5.094582E-2,-1.8378394E-2,2.6891543E-2],"categories":[],"categories_nodes":[],"categories_segments":[],"categories_sizes":[],"default_left":[0,0,0,0,0,0,0,0,0,0,0,0,0,0,0,0,0,0,0,0,0,0,0,0,0,0,0,0,0,0,0,0,0,0,0,0,0,0,0,0,0,0,0,0,0,0,0,0,0,0,0,0,0,0,0,0,0,0,0,0,0,0,0,0,0,0,0,0,0,0,0,0,0,0,0,0,0],"id":16,"left_children":[1,3,5,7,9,11,13,-1,15,-1,17,19,21,23,25,-1,-1,27,29,31,33,35,37,39,41,43,45,-1,-1,47,49,-1,-1,51,53,55,-1,57,59,61,63,65,67,69,71,73,75,-1,-1,-1,-1,-1,-1,-1,-1,-1,-1,-1,-1,-1,-1,-1,-1,-1,-1,-1,-1,-1,-1,-1,-1,-1,-1,-1,-1,-1,-1],"loss_changes":[3.3186092E1,5.876751E0,1.5794604E1,1.8560346E0,5.411108E0,1.5943979E1,1.7326431E1,0E0,1.6061168E0,0E0,4.546406E0,3.2457428E0,7.73586E0,1.1947687E1,1.2693325E1,0E0,0E0,9.557264E-1,3.0287514E0,2.4788594E0,2.345148E0,1.0402685E1,9.901864E0,6.1773605E0,4.1933517E0,7.945731E0,4.058403E0,0E0,0E0,2.5588226E0,3.8449755E0,0E0,0E0,4.3430533E0,5.230503E-1,3.7379787E0,0E0,3.7556741E0,4.774476E0,4.387822E0,3.6277118E0,4.7838726E0,7.4690094E0,4.1580706E0,1.3143194E1,2.506054E0,4.7155676E0,0E0,0E0,0E0,0E0,0E0,0E0,0E0,0E0,0E0,0E0,0E0,0E0,0E0,0E0,0E0,0E0,0E0,0E0,0E0,0E0,0E0,0E0,0E0,0E0,0E0,0E0,0E0,0E0,0E0,0E0],"parents":[2147483647,0,0,1,1,2,2,3,3,4,4,5,5,6,6,8,8,10,10,11,11,12,12,13,13,14,14,17,17,18,18,19,19,20,20,21,21,22,22,23,23,24,24,25,25,26,26,29,29,30,30,33,33,34,34,35,35,37,37,38,38,39,39,40,40,41,41,42,42,43,43,44,44,45,45,46,46],"right_children":[2,4,6,8,10,12,14,-1,16,-1,18,20,22,24,26,-1,-1,28,30,32,34,36,38,40,42,44,46,-1,-1,48,50,-1,-1,52,54,56,-1,58,60,62,64,66,68,70,72,74,76,-1,-1,-1,-1,-1,-1,-1,-1,-1,-1,-1,-1,-1,-1,-1,-1,-1,-1,-1,-1,-1,-1,-1,-1,-1,-1,-1,-1,-1,-1],"split_conditions":[-6.8812865E-1,-7.6205885E-1,-6.3741946E-1,1.8797107E-2,-3.3818457E-1,-4.635115E-2,-9.018581E-1,-1.45542E-2,-9.9013336E-2,5.3384997E-2,-1.0731726E0,-1.1389636E0,9.260661E-2,-7.584418E-1,-4.1335132E-2,-3.2212962E-3,6.2094074E-2,-7.166563E-1,1.4498252E0,-1.9864886E-1,-1.50906E0,5.694231E-1,-7.584418E-1,-2.7578628E-1,-4.7808823E-1,7.3708355E-2,-7.895563E-2,2.713043E-4,4.817554E-2,-3.2134694E-1,-7.253502E-1,4.3153033E-2,-2.8609833E-2,-2.5187385E-1,-7.584418E-1,-1.3455476E0,6.8808936E-2,-8.1974214E-1,-1.0245772E-1,-1.634135E0,7.124224E-2,1.3581327E-1,-9.9013336E-2,2.5906885E-2,4.4055682E-1,2.8440553E-1,9.767422E-3,-7.387685E-3,-3.7285816E-2,2.0303166E-2,-2.3941161E-2,-4.8796892E-2,1.2939549E-2,-3.1389523E-2,-6.129818E-2,5.6982335E-2,2.7410656E-3,3.4361523E-2,-1.6019963E-2,-5.324955E-2,-4.13711E-3,-2.4956563E-2,4.8341814E-2,1.0516102E-2,-4.30702E-2,-4.6782333E-2,4.373108E-2,-4.8554894E-2,-6.955003E-3,7.6756566E-3,3.049749E-2,-2.6798645E-2,3.052018E-2,2.7566118E-2,5.094582E-2,-1.8378394E-2,2.6891543E-2],"split_indices":[4,5,6,1,3,1,10,0,9,0,0,6,1,9,4,0,0,4,9,1,10,0,9,3,6,1,5,0,0,3,4,0,0,4,9,0,0,6,3,9,5,4,9,1,1,6,5,0,0,0,0,0,0,0,0,0,0,0,0,0,0,0,0,0,0,0,0,0,0,0,0,0,0,0,0,0,0],"split_type":[0,0,0,0,0,0,0,0,0,0,0,0,0,0,0,0,0,0,0,0,0,0,0,0,0,0,0,0,0,0,0,0,0,0,0,0,0,0,0,0,0,0,0,0,0,0,0,0,0,0,0,0,0,0,0,0,0,0,0,0,0,0,0,0,0,0,0,0,0,0,0,0,0,0,0,0,0],"sum_hessian":[5.617622E2,1.09338104E2,4.5242407E2,4.808073E0,1.0453003E2,1.3961551E2,3.1280856E2,1.4192512E0,3.388822E0,1.2287695E0,1.0330126E2,3.063883E1,1.0897667E2,7.5677216E1,2.3713136E2,1.2014735E0,2.1873486E0,3.2013574E0,1.0009991E2,2.873361E0,2.7765469E1,7.3323746E1,3.5652924E1,2.7701803E1,4.7975414E1,1.24495125E2,1.1263624E2,1.9857049E0,1.2156525E0,7.620281E1,2.389709E1,1.4705915E0,1.4027697E0,9.795951E0,1.7969519E1,6.7124344E1,6.1994042E0,1.3956353E1,2.169657E1,1.5209354E1,1.2492448E1,5.0017853E0,4.297363E1,8.112021E1,4.337491E1,5.756577E1,5.5070465E1,8.619591E0,6.758322E1,5.7532043E0,1.8143887E1,5.022107E0,4.7738433E0,5.905274E0,1.2064244E1,2.3484058E0,6.477594E1,8.756482E0,5.1998706E0,1.4058025E1,7.638545E0,1.7450318E0,1.3464323E1,8.791717E0,3.7007313E0,1.16393E0,3.8378553E0,2.021413E1,2.2759499E1,4.456126E1,3.655895E1,2.9435724E1,1.3939185E1,2.4482931E1,3.3082836E1,5.7900143E0,4.9280453E1],"tree_param":{"num_deleted":"0","num_feature":"11","num_nodes":"77","size_leaf_vector":"1"}},{"base_weights":[1.3630038E-2,-1.4783856E-1,3.6951342E-1,-7.27941E-1,-7.4106865E-2,1.2722637E-1,6.1339974E-1,-3.26349E-2,-8.690271E-1,-4.348816E-1,5.5694237E-2,-1.0083503E-1,5.742145E-1,6.5040845E-1,-4.5953568E-2,-4.1343695E-1,4.5988638E-2,-6.2292535E-2,-4.9586105E-1,-6.794754E-1,-1.04489125E-1,1.1469331E-1,-5.268317E-1,-6.2689245E-1,1.9657528E-1,7.373374E-1,-6.9978446E-1,9.661057E-1,4.8246402E-1,7.327282E-2,-5.4514885E-2,4.2857528E-1,-7.747682E-1,4.1107082E-1,-8.038087E-1,-7.535897E-1,9.669747E-2,-4.084508E-2,4.5331576E-1,-1.0679643E0,6.325751E-2,6.4152375E-2,-9.34199E-1,-1.2376343E-1,5.581057E-1,5.3854156E-1,6.994762E-2,-5.5322617E-2,-6.2524003E-4,1.2780566E0,2.310687E-1,2.9587957E-1,1.062771E0,2.3928931E-2,-2.5443468E-2,6.009009E-2,-2.5456697E-2,-4.9013004E-2,-8.918141E-3,-1.31176505E-2,5.458365E-2,2.4353448E-2,-4.4636387E-2,1.1475132E-2,-4.9056824E-2,4.0762212E-2,-7.491264E-3,8.156723E-4,-5.4575264E-2,-7.229357E-2,2.5973445E-2,-6.6167556E-2,5.937745E-3,-2.5125057E-2,3.365314E-2,-3.5850701E-3,-6.196269E-2,-1.9444034E-2,2.7962971E-2,-2.882334E-2,3.8104642E-2,3.945409E-2,-4.264218E-3,6.7651264E-2,1.7940044E-2,-1.0058991E-2,5.6371327E-2,-3.332049E-2,1.9830568E-2,6.533549E-2,1.7898899E-2],"categories":[],"categories_nodes":[],"categories_segments":[],"categories_sizes":[],"default_left":[0,0,0,0,0,0,0,0,0,0,0,0,0,0,0,0,0,0,0,0,0,0,0,0,0,0,0,0,0,0,0,0,0,0,0,0,0,0,0,0,0,0,0,0,0,0,0,0,0,0,0,0,0,0,0,0,0,0,0,0,0,0,0,0,0,0,0,0,0,0,0,0,0,0,0,0,0,0,0,0,0,0,0,0,0,0,0,0,0,0,0],"id":17,"left_children":[1,3,5,7,9,11,13,15,17,19,21,23,25,27,-1,29,-1,-1,31,33,35,37,39,41,43,45,47,49,51,53,-1,55,57,59,61,63,65,67,69,71,73,-1,75,77,79,81,-1,-1,-1,83,85,87,89,-1,-1,-1,-1,-1,-1,-1,-1,-1,-1,-1,-1,-1,-1,-1,-1,-1,-1,-1,-1,-1,-1,-1,-1,-1,-1,-1,-1,-1,-1,-1,-1,-1,-1,-1,-1,-1,-1],"loss_changes":[3.2329254E1,1.6501774E1,1.0297062E1,4.2424164E0,1.6158384E1,9.165331E0,5.545536E0,3.4205387E0,4.4659805E0,7.3049927E0,8.798969E0,9.511767E0,6.819627E0,4.081272E0,0E0,2.2799678E0,0E0,0E0,5.4437714E0,7.41708E0,5.2976084E0,1.2221772E1,7.591394E0,1.4059389E1,4.5968976E0,2.8473349E0,1.0918461E0,6.305027E0,5.963687E0,1.3812374E0,0E0,4.410482E0,1.7354212E0,3.0412338E0,5.858839E0,2.3682532E0,5.6893206E0,9.607731E0,9.923883E0,3.8991709E0,4.5525527E0,0E0,5.0295143E0,4.1193357E0,4.7322044E0,3.6115837E0,0E0,0E0,0E0,8.9201355E-1,4.0227766E0,4.651623E0,1.8912868E0,0E0,0E0,0E0,0E0,0E0,0E0,0E0,0E0,0E0,0E0,0E0,0E0,0E0,0E0,0E0,0E0,0E0,0E0,0E0,0E0,0E0,0E0,0E0,0E0,0E0,0E0,0E0,0E0,0E0,0E0,0E0,0E0,0E0,0E0,0E0,0E0,0E0,0E0],"parents":[2147483647,0,0,1,1,2,2,3,3,4,4,5,5,6,6,7,7,8,8,9,9,10,10,11,11,12,12,13,13,15,15,18,18,19,19,20,20,21,21,22,22,23,23,24,24,25,25,26,26,27,27,28,28,29,29,31,31,32,32,33,33,34,34,35,35,36,36,37,37,38,38,39,39,40,40,42,42,43,43,44,44,45,45,49,49,50,50,51,51,52,52],"right_children":[2,4,6,8,10,12,14,16,18,20,22,24,26,28,-1,30,-1,-1,32,34,36,38,40,42,44,46,48,50,52,54,-1,56,58,60,62,64,66,68,70,72,74,-1,76,78,80,82,-1,-1,-1,84,86,88,90,-1,-1,-1,-1,-1,-1,-1,-1,-1,-1,-1,-1,-1,-1,-1,-1,-1,-1,-1,-1,-1,-1,-1,-1,-1,-1,-1,-1,-1,-1,-1,-1,-1,-1,-1,-1,-1,-1],"split_conditions":[2.8440553E-1,-1.4084742E0,-1.00836486E-1,-7.584418E-1,-6.8694985E-1,-2.0744531E-1,3.0107276E0,2.9449603E-1,6.851184E-1,7.602345E-1,9.595844E-2,-2.8185362E-1,1.0660863E0,9.3560296E-1,-4.5953568E-2,1.1801135E-1,4.5988638E-2,-6.2292535E-2,-2.7966744E-1,-2.4311534E-1,-2.7452894E-2,-4.5823476E-1,-9.9013336E-2,6.496743E-1,-5.7348764E-1,4.1721192E-1,1.6904321E0,2.3093987E-1,1.1429478E0,-8.1150806E-1,-5.4514885E-2,-1.0245772E-1,5.6906664E-1,1.4378871E0,-6.4204925E-1,-3.203565E-1,4.035849E-2,-4.9035576E-1,-1.1214392E0,1.6600381E0,-2.272658E-1,6.4152375E-2,-3.144138E-1,1.2705189E0,-1.3474225E0,-3.8145652E-1,6.994762E-2,-5.5322617E-2,-6.2524003E-4,7.116473E-1,-1.9555992E-1,-7.144601E-1,1.6600381E0,2.3928931E-2,-2.5443468E-2,6.009009E-2,-2.5456697E-2,-4.9013004E-2,-8.918141E-3,-1.31176505E-2,5.458365E-2,2.4353448E-2,-4.4636387E-2,1.1475132E-2,-4.9056824E-2,4.0762212E-2,-7.491264E-3,8.156723E-4,-5.4575264E-2,-7.229357E-2,2.5973445E-2,-6.6167556E-2,5.937745E-3,-2.5125057E-2,3.365314E-2,-3.5850701E-3,-6.196269E-2,-1.9444034E-2,2.7962971E-2,-2.882334E-2,3.8104642E-2,3.945409E-2,-4.264218E-3,6.7651264E-2,1.7940044E-2,-1.0058991E-2,5.6371327E-2,-3.332049E-2,1.9830568E-2,6.533549E-2,1.7898899E-2],"split_indices":[6,7,4,9,4,3,6,5,9,7,6,8,8,6,0,5,0,0,5,1,1,6,9,6,4,1,8,7,7,6,0,3,3,8,5,3,1,6,7,4,4,0,3,7,1,4,0,0,0,9,3,1,4,0,0,0,0,0,0,0,0,0,0,0,0,0,0,0,0,0,0,0,0,0,0,0,0,0,0,0,0,0,0,0,0,0,0,0,0,0,0],"split_type":[0,0,0,0,0,0,0,0,0,0,0,0,0,0,0,0,0,0,0,0,0,0,0,0,0,0,0,0,0,0,0,0,0,0,0,0,0,0,0,0,0,0,0,0,0,0,0,0,0,0,0,0,0,0,0,0,0,0,0,0,0,0,0,0,0,0,0,0,0,0,0,0,0,0,0,0,0,0,0,0,0,0,0,0,0,0,0,0,0,0,0],"sum_hessian":[5.606496E2,3.8606967E2,1.745799E2,4.2535805E1,3.4353387E2,8.834043E1,8.623947E1,7.382819E0,3.5152985E1,9.02735E1,2.5326038E2,5.900793E1,2.9332497E1,8.476794E1,1.4715365E0,5.6783447E0,1.7044744E0,1.632718E1,1.8825806E1,5.1264877E1,3.9008617E1,2.3069806E2,2.256232E1,2.0911669E1,3.809626E1,2.6376492E1,2.9560056E0,2.7785324E1,5.698261E1,3.8218882E0,1.8564564E0,4.2390084E0,1.4586797E1,5.0105333E0,4.6254345E1,8.58017E0,3.0428448E1,1.5868785E2,7.2010216E1,1.1346942E1,1.121538E1,2.4582524E0,1.8453417E1,2.0547527E1,1.7548733E1,2.1677132E1,4.6993594E0,1.4739554E0,1.4820501E0,1.8988014E1,8.79731E0,4.4261272E1,1.2721335E1,2.3580441E0,1.4638443E0,2.1689095E0,2.0700989E0,1.0370143E1,4.216654E0,2.8274412E0,2.183092E0,2.6922383E0,4.3562107E1,1.6110784E0,6.969091E0,7.1835065E0,2.3244942E1,1.5143394E2,7.253909E0,1.7218307E0,7.028838E1,9.242734E0,2.104208E0,5.909081E0,5.306299E0,5.144146E0,1.3309271E1,1.5112295E1,5.4352326E0,2.396035E0,1.51526985E1,1.5276782E1,6.4003496E0,1.711995E1,1.8680649E0,6.458433E0,2.3388765E0,3.6620526E0,4.059922E1,8.815969E0,3.905366E0],"tree_param":{"num_deleted":"0","num_feature":"11","num_nodes":"91","size_leaf_vector":"1"}},{"base_weights":[-8.472492E-3,-2.669E-1,1.6924264E-1,-4.0950108E-1,1.3861637E-1,2.3557857E-1,-6.0637522E-2,7.5763774E-1,-4.511322E-1,5.155782E-1,-2.3455015E-1,5.677568E-1,1.4317267E-1,9.6260965E-1,-2.8545933E-3,3.927857E-1,-5.0451994E-1,7.590449E-1,-2.3866086E-1,3.2608882E-1,-4.5781168E-1,-7.6190546E-2,6.418406E-1,2.2022998E-1,-2.7515945E-1,6.415631E-2,9.130439E-3,-1.6051981E-1,1.020064E0,-1.4790566E-1,-6.4937574E-1,9.2763644E-1,-2.9229665E-1,-8.588772E-1,5.313171E-1,5.6034844E-2,1.1856544E-2,-6.9698894E-1,2.218156E-1,-8.07119E-1,4.7059957E-2,1.3708538E0,5.078797E-1,6.621776E-2,1.8193E-1,3.5897335E-1,-5.342964E-1,2.579518E-2,-4.6150383E-2,6.1025117E-3,6.721606E-2,2.6294175E-3,-5.5098064E-2,-3.4184273E-2,3.1821784E-2,6.5817915E-2,2.872476E-2,-3.4980025E-2,1.446224E-2,-5.8033895E-2,7.325311E-3,4.5308452E-2,-8.424441E-3,-2.2563754E-2,4.144089E-2,-6.8196203E-3,-4.4141363E-2,-1.4013461E-2,5.385946E-2,4.5465496E-3,-7.917192E-2,7.549363E-2,2.33101E-2,5.5547047E-2,1.9806499E-2,-5.262047E-3,1.5387356E-2,4.0067926E-2,-4.92185E-2,-3.762691E-2,2.3037998E-2],"categories":[],"categories_nodes":[],"categories_segments":[],"categories_sizes":[],"default_left":[0,0,0,0,0,0,0,0,0,0,0,0,0,0,0,0,0,0,0,0,0,0,0,0,0,0,0,0,0,0,0,0,0,0,0,0,0,0,0,0,0,0,0,0,0,0,0,0,0,0,0,0,0,0,0,0,0,0,0,0,0,0,0,0,0,0,0,0,0,0,0,0,0,0,0,0,0,0,0,0,0],"id":18,"left_children":[1,3,5,7,9,11,-1,13,15,17,19,21,23,25,-1,27,29,31,33,35,37,39,41,43,45,-1,-1,47,49,51,53,55,57,59,61,-1,63,65,67,69,-1,71,73,-1,75,77,79,-1,-1,-1,-1,-1,-1,-1,-1,-1,-1,-1,-1,-1,-1,-1,-1,-1,-1,-1,-1,-1,-1,-1,-1,-1,-1,-1,-1,-1,-1,-1,-1,-1,-1],"loss_changes":[2.6180305E1,1.3487963E1,3.1253754E1,8.70356E0,8.726295E0,9.838343E0,0E0,1.1070647E0,7.712887E0,5.8269405E0,4.0832586E0,3.3881378E0,8.253883E0,1.0381441E0,0E0,3.8031626E0,8.02993E0,4.4332104E0,4.4025526E0,2.3676047E0,3.8760405E0,6.7949047E0,5.444605E0,8.85896E0,6.761653E0,0E0,0E0,3.795393E0,1.3065443E0,8.997395E0,5.357147E0,2.0545979E0,1.1511161E0,1.6747301E0,1.28183E0,0E0,3.3418195E0,1.6689625E0,3.1871595E0,3.811915E0,0E0,4.4965935E-1,3.2467813E0,0E0,7.5886106E0,8.036849E0,6.59754E0,0E0,0E0,0E0,0E0,0E0,0E0,0E0,0E0,0E0,0E0,0E0,0E0,0E0,0E0,0E0,0E0,0E0,0E0,0E0,0E0,0E0,0E0,0E0,0E0,0E0,0E0,0E0,0E0,0E0,0E0,0E0,0E0,0E0,0E0],"parents":[2147483647,0,0,1,1,2,2,3,3,4,4,5,5,7,7,8,8,9,9,10,10,11,11,12,12,13,13,15,15,16,16,17,17,18,18,19,19,20,20,21,21,22,22,23,23,24,24,27,27,28,28,29,29,30,30,31,31,32,32,33,33,34,34,36,36,37,37,38,38,39,39,41,41,42,42,44,44,45,45,46,46],"right_children":[2,4,6,8,10,12,-1,14,16,18,20,22,24,26,-1,28,30,32,34,36,38,40,42,44,46,-1,-1,48,50,52,54,56,58,60,62,-1,64,66,68,70,-1,72,74,-1,76,78,80,-1,-1,-1,-1,-1,-1,-1,-1,-1,-1,-1,-1,-1,-1,-1,-1,-1,-1,-1,-1,-1,-1,-1,-1,-1,-1,-1,-1,-1,-1,-1,-1,-1,-1],"split_conditions":[-4.8575336E-1,1.9212504E-1,2.0781143E0,-1.1926814E0,7.603039E-1,-3.272896E-1,-6.0637522E-2,4.082356E-1,-8.3169794E-1,-5.830067E-1,-7.174815E-1,-8.0089915E-1,9.301209E-1,6.556839E-1,-2.8545933E-3,-2.094262E-1,-8.602024E-1,2.0097814E0,1.1317414E-1,-5.6674916E-1,1.9927497E0,7.751213E-1,-2.7547988E-1,-1.3455476E0,-1.440367E0,6.415631E-2,9.130439E-3,-2.639009E-1,-6.9084E-1,6.7999697E-1,8.7473327E-1,-3.6691564E-1,-2.6786268E-1,1.9277819E0,9.984538E-1,5.6034844E-2,-2.559773E-1,8.578218E-1,-6.620766E-1,-8.7500906E-1,4.7059957E-2,5.0509226E-1,-2.1142669E-1,6.621776E-2,-1.2969996E-1,1.6907568E0,1.39809E0,2.579518E-2,-4.6150383E-2,6.1025117E-3,6.721606E-2,2.6294175E-3,-5.5098064E-2,-3.4184273E-2,3.1821784E-2,6.5817915E-2,2.872476E-2,-3.4980025E-2,1.446224E-2,-5.8033895E-2,7.325311E-3,4.5308452E-2,-8.424441E-3,-2.2563754E-2,4.144089E-2,-6.8196203E-3,-4.4141363E-2,-1.4013461E-2,5.385946E-2,4.5465496E-3,-7.917192E-2,7.549363E-2,2.33101E-2,5.5547047E-2,1.9806499E-2,-5.262047E-3,1.5387356E-2,4.0067926E-2,-4.92185E-2,-3.762691E-2,2.3037998E-2],"split_indices":[4,2,2,5,8,3,0,3,0,4,4,5,2,8,0,3,2,2,5,5,8,4,4,0,7,0,0,3,4,3,0,0,3,2,2,0,3,7,4,5,0,7,5,0,0,2,7,0,0,0,0,0,0,0,0,0,0,0,0,0,0,0,0,0,0,0,0,0,0,0,0,0,0,0,0,0,0,0,0,0,0],"split_type":[0,0,0,0,0,0,0,0,0,0,0,0,0,0,0,0,0,0,0,0,0,0,0,0,0,0,0,0,0,0,0,0,0,0,0,0,0,0,0,0,0,0,0,0,0,0,0,0,0,0,0,0,0,0,0,0,0,0,0,0,0,0,0,0,0,0,0,0,0,0,0,0,0,0,0,0,0,0,0,0,0],"sum_hessian":[5.6806464E2,2.3126492E2,3.367997E2,1.7109058E2,6.0174343E1,3.2216525E2,1.4634456E1,5.300171E0,1.657904E2,2.9745094E1,3.0429249E1,6.899603E1,2.5316922E2,4.089752E0,1.210419E0,9.485933E0,1.5630447E2,2.2481684E1,7.263411E0,8.535336E0,2.1893913E1,7.115826E0,6.1880207E1,2.141889E2,3.8980316E1,2.4414742E0,1.6482778E0,5.435513E0,4.0504203E0,4.573426E1,1.1057021E2,1.9476177E1,3.005506E0,3.9589913E0,3.3044195E0,1.6915087E0,6.843827E0,1.6175735E1,5.7181773E0,4.261146E0,2.85468E0,8.172478E0,5.370773E1,6.0549912E0,2.0813391E2,1.1196399E1,2.778392E1,3.05168E0,2.383833E0,1.4396852E0,2.610735E0,3.8573048E1,7.161215E0,1.0815262E2,2.4175916E0,7.972664E0,1.1503514E1,1.6481521E0,1.3573539E0,2.9261446E0,1.0328467E0,1.9597768E0,1.3446428E0,4.653434E0,2.190393E0,4.4589314E0,1.17168045E1,4.0268507E0,1.6913269E0,2.3850162E0,1.8761297E0,6.5039935E0,1.6684844E0,6.998536E0,4.6709194E1,6.3457977E1,1.4467593E2,8.726182E0,2.4702163E0,2.2986174E1,4.797745E0],"tree_param":{"num_deleted":"0","num_feature":"11","num_nodes":"81","size_leaf_vector":"1"}},{"base_weights":[-1.2249342E-2,-2.536161E-1,1.9373795E-1,-4.022955E-1,3.3033527E-3,2.6513764E-1,-7.6627296E-1,3.125386E-1,-4.5563388E-1,2.9369456E-1,-5.8730155E-1,8.521707E-1,2.1032722E-1,8.5091375E-2,-6.0104646E-2,-1.12142734E-1,1.0774494E0,-1.5560392E-1,-5.727805E-1,-3.256085E-1,6.224752E-1,-3.2028762E-1,-1.15676E0,4.2482904E-1,1.0453429E0,3.23583E-1,-5.8769744E-2,7.555188E-1,-5.5164796E-1,-5.6132746E-1,2.1309409E-1,6.427159E-2,1.2832257E-2,-4.0128055E-1,3.6951858E-1,5.754066E-1,-6.09621E-1,-8.735884E-3,-6.629221E-1,1.3668259E0,3.2393312E-1,-8.657486E-1,2.3405658E-1,-1.6691312E-2,-6.1040293E-2,9.657603E-1,-4.863368E-1,1.182782E0,1.5722138E-1,5.7335144E-1,9.864421E-2,1.8084034E-1,-4.180046E-1,4.782092E-2,9.846732E-3,1.9682638E-2,-5.4344084E-2,4.9052644E-3,-4.938167E-2,3.3502515E-2,-1.2551221E-2,-4.0488575E-2,-1.1191069E-2,-1.1038487E-2,4.467159E-2,-2.0782508E-2,5.772828E-2,-2.4762478E-2,-4.901959E-2,-3.0178873E-2,3.42468E-2,-4.486276E-2,3.3470806E-2,7.6408856E-2,1.813749E-2,4.8374843E-2,-5.7742386E-3,-5.7596643E-2,2.544644E-2,5.0701827E-2,-1.0287697E-2,5.6688227E-2,2.2098849E-2,2.5083094E-3,-3.886381E-2,2.5450734E-2,6.388563E-2,2.1109624E-2,-9.615364E-3,1.2427648E-2,3.8844932E-2,-6.718536E-2,6.955882E-3,-1.5672142E-2,3.6007725E-2,3.893285E-2,-2.8764365E-2],"categories":[],"categories_nodes":[],"categories_segments":[],"categories_sizes":[],"default_left":[0,0,0,0,0,0,0,0,0,0,0,0,0,0,0,0,0,0,0,0,0,0,0,0,0,0,0,0,0,0,0,0,0,0,0,0,0,0,0,0,0,0,0,0,0,0,0,0,0,0,0,0,0,0,0,0,0,0,0,0,0,0,0,0,0,0,0,0,0,0,0,0,0,0,0,0,0,0,0,0,0,0,0,0,0,0,0,0,0,0,0,0,0,0,0,0,0],"id":19,"left_children":[1,3,5,7,9,11,13,15,17,19,21,23,25,27,-1,29,31,33,35,37,39,41,43,45,47,49,51,53,55,57,59,-1,-1,61,63,65,67,69,71,73,75,77,79,-1,-1,81,83,85,87,89,91,93,95,-1,-1,-1,-1,-1,-1,-1,-1,-1,-1,-1,-1,-1,-1,-1,-1,-1,-1,-1,-1,-1,-1,-1,-1,-1,-1,-1,-1,-1,-1,-1,-1,-1,-1,-1,-1,-1,-1,-1,-1,-1,-1,-1,-1],"loss_changes":[2.7730125E1,9.810528E0,2.0832306E1,6.3447075E0,1.6486942E1,8.857864E0,7.9279585E0,3.9826345E0,5.2456303E0,1.3322901E1,4.4477673E0,1.5088215E0,7.8884783E0,3.8638964E0,0E0,1.3686798E0,4.107089E-1,5.82404E0,4.9524574E0,2.4527996E0,8.9869995E0,7.143799E0,1.0541153E-1,4.929916E0,1.7191753E0,1.0161997E1,6.7319183E0,3.0041552E-1,2.815735E0,1.183672E0,1.3736696E0,0E0,0E0,2.026207E0,4.694808E0,2.7163777E0,4.0048256E0,5.725453E0,4.0750256E0,1.3633156E0,9.047308E0,5.2219486E0,4.384267E0,0E0,0E0,2.805376E-2,6.689908E-1,2.0433044E-1,3.81723E-1,5.4909325E0,5.843949E0,1.2777901E1,6.3284216E0,0E0,0E0,0E0,0E0,0E0,0E0,0E0,0E0,0E0,0E0,0E0,0E0,0E0,0E0,0E0,0E0,0E0,0E0,0E0,0E0,0E0,0E0,0E0,0E0,0E0,0E0,0E0,0E0,0E0,0E0,0E0,0E0,0E0,0E0,0E0,0E0,0E0,0E0,0E0,0E0,0E0,0E0,0E0,0E0],"parents":[2147483647,0,0,1,1,2,2,3,3,4,4,5,5,6,6,7,7,8,8,9,9,10,10,11,11,12,12,13,13,15,15,16,16,17,17,18,18,19,19,20,20,21,21,22,22,23,23,24,24,25,25,26,26,27,27,28,28,29,29,30,30,33,33,34,34,35,35,36,36,37,37,38,38,39,39,40,40,41,41,42,42,45,45,46,46,47,47,48,48,49,49,50,50,51,51,52,52],"right_children":[2,4,6,8,10,12,14,16,18,20,22,24,26,28,-1,30,32,34,36,38,40,42,44,46,48,50,52,54,56,58,60,-1,-1,62,64,66,68,70,72,74,76,78,80,-1,-1,82,84,86,88,90,92,94,96,-1,-1,-1,-1,-1,-1,-1,-1,-1,-1,-1,-1,-1,-1,-1,-1,-1,-1,-1,-1,-1,-1,-1,-1,-1,-1,-1,-1,-1,-1,-1,-1,-1,-1,-1,-1,-1,-1,-1,-1,-1,-1,-1,-1],"split_conditions":[-4.5823476E-1,-3.8857168E-1,2.0781143E0,-3.2828006E-1,-5.480656E-1,-3.3818457E-1,-1.634135E0,-5.5085415E-1,-8.7386894E-1,-9.148687E-1,9.301209E-1,4.8557904E-1,1.1667061E0,5.0611645E-3,-6.0104646E-2,3.9470556E-1,-6.962033E-1,-6.10326E-1,-1.2491565E0,-6.728397E-1,-8.3558017E-1,-3.955383E-1,-3.3818457E-1,7.654542E-2,1.0163542E0,-6.788583E-2,-1.498976E-1,-3.5496756E-1,2.2831132E0,-9.463237E-1,1.9179938E-2,6.427159E-2,1.2832257E-2,-3.1261122E-1,-5.764288E-1,-9.6711165E-1,-5.650885E-1,-7.759681E-1,9.669489E-2,2.9570276E-1,-1.8470123E-2,-3.7359464E-1,-2.4520582E-1,-1.6691312E-2,-6.1040293E-2,-9.8720446E-2,7.800816E-2,-2.5658914E-1,4.0938982E-1,3.0570316E-1,-5.2890357E-2,-9.018581E-1,-8.366865E-1,4.782092E-2,9.846732E-3,1.9682638E-2,-5.4344084E-2,4.9052644E-3,-4.938167E-2,3.3502515E-2,-1.2551221E-2,-4.0488575E-2,-1.1191069E-2,-1.1038487E-2,4.467159E-2,-2.0782508E-2,5.772828E-2,-2.4762478E-2,-4.901959E-2,-3.0178873E-2,3.42468E-2,-4.486276E-2,3.3470806E-2,7.6408856E-2,1.813749E-2,4.8374843E-2,-5.7742386E-3,-5.7596643E-2,2.544644E-2,5.0701827E-2,-1.0287697E-2,5.6688227E-2,2.2098849E-2,2.5083094E-3,-3.886381E-2,2.5450734E-2,6.388563E-2,2.1109624E-2,-9.615364E-3,1.2427648E-2,3.8844932E-2,-6.718536E-2,6.955882E-3,-1.5672142E-2,3.6007725E-2,3.893285E-2,-2.8764365E-2],"split_indices":[6,4,2,3,2,3,9,4,2,2,2,6,6,5,0,8,2,4,5,8,6,2,3,6,2,5,10,5,2,6,5,0,0,5,8,6,4,8,8,3,5,8,2,0,0,6,5,4,4,9,5,10,2,0,0,0,0,0,0,0,0,0,0,0,0,0,0,0,0,0,0,0,0,0,0,0,0,0,0,0,0,0,0,0,0,0,0,0,0,0,0,0,0,0,0,0,0],"split_type":[0,0,0,0,0,0,0,0,0,0,0,0,0,0,0,0,0,0,0,0,0,0,0,0,0,0,0,